tree
version=v2
num_class=1
num_tree_per_iteration=1
label_index=0
max_feature_idx=62
objective=binary sigmoid:1
feature_names=NAME_CONTRACT_TYPE CODE_GENDER FLAG_OWN_CAR FLAG_OWN_REALTY CNT_CHILDREN AMT_INCOME_TOTAL AMT_CREDIT AMT_ANNUITY AMT_GOODS_PRICE NAME_TYPE_SUITE NAME_INCOME_TYPE NAME_EDUCATION_TYPE NAME_FAMILY_STATUS NAME_HOUSING_TYPE REGION_POPULATION_RELATIVE DAYS_BIRTH DAYS_EMPLOYED DAYS_REGISTRATION DAYS_ID_PUBLISH FLAG_MOBIL FLAG_EMP_PHONE FLAG_WORK_PHONE FLAG_CONT_MOBILE FLAG_PHONE FLAG_EMAIL CNT_FAM_MEMBERS REGION_RATING_CLIENT REGION_RATING_CLIENT_W_CITY WEEKDAY_APPR_PROCESS_START HOUR_APPR_PROCESS_START REG_REGION_NOT_LIVE_REGION REG_REGION_NOT_WORK_REGION LIVE_REGION_NOT_WORK_REGION REG_CITY_NOT_LIVE_CITY REG_CITY_NOT_WORK_CITY LIVE_CITY_NOT_WORK_CITY ORGANIZATION_TYPE EXT_SOURCE_2 OBS_30_CNT_SOCIAL_CIRCLE DEF_30_CNT_SOCIAL_CIRCLE OBS_60_CNT_SOCIAL_CIRCLE DEF_60_CNT_SOCIAL_CIRCLE DAYS_LAST_PHONE_CHANGE FLAG_DOCUMENT_2 FLAG_DOCUMENT_3 FLAG_DOCUMENT_4 FLAG_DOCUMENT_5 FLAG_DOCUMENT_6 FLAG_DOCUMENT_7 FLAG_DOCUMENT_8 FLAG_DOCUMENT_9 FLAG_DOCUMENT_10 FLAG_DOCUMENT_11 FLAG_DOCUMENT_12 FLAG_DOCUMENT_13 FLAG_DOCUMENT_14 FLAG_DOCUMENT_15 FLAG_DOCUMENT_16 FLAG_DOCUMENT_17 FLAG_DOCUMENT_18 FLAG_DOCUMENT_19 FLAG_DOCUMENT_20 FLAG_DOCUMENT_21
feature_infos=[-0.31805961980590797:3.1440646272866632] [-0.71854491200587933:3.5015408850398688] [-0.71911413277949177:1.3905998428021975] [-1.5072943003039165:0.66344044411125935] [-0.57703833662457249:25.755451871009949] [-0.48523303212692043:395.3616144148765] [-1.3775803796699277:8.5615343783642288] [-1.7522133344602302:15.82977055476783] [-1.3356390546151902:9.4931663635061039] [-2.9360215487799746:0.44005016855900791] [-1.8381265891265621:0.91394763899618403] [-2.4591627725575034:0.62354589585401698] [-1.3883076813723763:2.5164669494794119] [-1.3525530301918995:3.8715539601478302] [-1.4886388212701998:3.7443490451909516] [-2.1051321251107664:1.9598153169548873] [-0.57835461756013562:2.1343019465383133] [-5.3296121810442862:1.4145090240436526] [-2.7839132024659023:1.985088111849532] none [-2.1342655372368036:0.46854525950631376] [-0.49821552958704385:2.0071634475723199] [-23.509379172809076:0.042536214701773808] [-0.62503995670979973:1.5998977173619167] [-0.24593245216745005:4.0661571548886997] [-1.2643871553685273:19.604898942570959] [-2.0676514065229994:1.858043801110961] [-2.0497618236875792:1.920917602972237] [-1.438795837298789:1.3518074395289019] [-3.6935777282786555:3.3483062182451344] [-0.12441054405324953:8.0379039221304662] [-0.2305382680752634:4.3376746444261984] [-0.20473838589013221:4.8842819369330446] [-0.29225071221969517:3.4217196338199667] [-0.54780958841893534:1.8254518013935417] [-0.46747652525294298:2.1391448468111185] [-1.4379518540911171:1.3472486093454852] [-2.6876045106153668:1.7808338738494274] [-0.61306486857365727:19.589486033886985] [-0.32439745754945837:17.66581565377065] [-0.61099636433284998:19.764674305230617] [-0.27859826337091559:19.090560969452298] [-3.8835249789195636:1.1671285788710954] none [-1.5728293859855627:0.63579686958441595] none [-0.12331731733968902:8.1091611589749988] [-0.31108364110873554:3.2145695493208604] none [-0.29813417946161175:3.3541944161043813] [-0.062941272331431194:15.887826269769047] none [-0.061028322633680111:16.385834590317298] none [-0.058632948408770195:17.055256935542783] [-0.053474686945723146:18.700436732149559] [-0.034162718167130381:29.271675488695443] [-0.097768321924993074:10.228261877780721] none [-0.089033252694666234:11.231758581587885] [-0.02397887501005919:41.703374306780368] [-0.02292762496343316:43.615507563250944] [-0.018718687469188738:53.422549078081246]
tree_sizes=5155 5202 5260 5223 5286 5223 5293 5241 5279 5229 5280 5286 5298 5244 5310 5377 5264 5283 5272 5345 5296 5267 5321 5297 5301 5284 5305 5277 5315 5328 5269 5315 5302 5311 5315 5326 5287 5297 5297 5305 5323 5281 5328 5270 5260 5289 5259 5296 5304 5287 5300 5322 5307 5338 5307 5316 5270 5340 5303 5253 5318 5275 5317 5273 5294 5294 5292 5260 5326 5263 5256 5310 5253 5290 5316 5279 5297 5287 5294 5293 5298 5313 5282 5321 5292 5304 5298 5270 5276 5286 5269 5326 5246 5278 5294 5292 5237 5299 5296 5280 5266 5282 5252 5273 5259 5294 5293 5294 5291 5284 5297 5307 5263 5287 5298 5264 5286 5266 5306 5301 5237 5236 5260 5259 5269 5284 5244 5257 5230 5219 5328 5265 5276 5266 5293 5275 5268 5231 5222 5213 5244 5269 5274 5245 5252 5224 5205 5265 5221 5249 5201 5278 5233 5232 5290 5213 5325 5184 5214 5292 5295 5219 5217 5242 5299 5230 5261 5244 5255 5218 5278 5263 5285 5219 5269 5221 5210 5281 5219 5281 5224 5266 5217 5216 5244 5249 5237 5265 5283 5242 5249 5255 5238 5259 5267 5277 5255 5235 5268 5231 5262 5235 5205 5237 5257 5214 5296 5277 5254 5187 5271 5220 5242 5273 5281 5242 5234 5186 5209 5197 5229 5181 5255 5269 5255 5243 5295 5207 5222 5304 5224 5280 5220 5275 5191 5238 5264 5196 5223 5196 5232 5245 5219 5169 5219 5254 5226 5209 5199 5168 5193 5149 5178 5136 5236 5225 5318 5271 5226 5177 5242 5207 5296 5162 5152 5200 5220 5260 5177 5175 5176 5262 5184 5241 5208 5211 5225 5215 5242 5205 5183 5211 5206 5219 5246 5231 5215 5186 5217 5275 5227 5223 5172 5142 5220 5205 5189 5210 5190 5221 5246 5188 5154 5154 5225 5192 5229 5197 5190 5244 5169 5200 5186 5219 5191 5194 5213 5173 5226 5176 5242 5246 5215 5185 5259 5183 5246 5166 5200 5236 5193 5161 5178 5248 5224 5214 5265 5172 5193 5180 5224 5198 5178 5164 5154 5269 5220 5187 5197 5232 5239 5196 5188 5225 5184 5208 5163 5163 5138 5178 5167 5235 5151 5218 5198 5163 5183 5239 5194 5187 5201 5205 5190 5249 5152 5211 5191 5189 5190 5198 5216 5197 5178 5185 5201 5144 5188 5205 5200 5187 5168 5183 5164 5178 5189 5197 5216 5172 5205 5204 5198 5198 5161 5193 5233 5156 5199 5173 5193 5200 5224 5185 5243 5256 5181 5182 5190 5156 5178 5250 5176 5281 5228 5288 5196 5211 5169 5130 5177 5228 5183 5186 5183 5193 5193 5189 5182 5170 5185 5163 5170 5180 5196 5174 5261 5202 5211 5192 5207 5267 5200 5165 5198 5202 5173 5179 5161 5223 5197 5186 5166 5194 5206 5203 5217 5173 5190 5162 5218 5167 5178 5193 5158 5232 5208 5170 5198 5230 5199 5145 5170 5163 5185 5195 5204 5173 5166 5162 5200 5156 5161 5246 5211 5184 5174 5206 5171 5183 5113 5154

Tree=0
num_leaves=64
num_cat=0
split_feature=10 42 8 27 18 44 8 42 34 27 27 0 6 8 6 34 18 6 6 42 34 27 34 8 6 6 27 0 6 8 6 8 6 18 21 8 6 12 44 18 6 8 6 8 6 44 27 42 6 6 0 18 13 18 42 6 8 10 6 6 18 6 8
split_gain=607.306 496.325 404.568 261.502 159.988 158.722 129.975 100.167 93.5465 74.5105 71.7102 70.7988 70.5135 84.8077 92.824 53.1521 47.1904 46.6019 45.0873 42.1589 41.986 41.9525 44.3249 34.8349 37.9022 33.2294 31.4987 31.2202 31.2049 29.4801 39.6395 57.6654 44.3205 27.8649 25.7625 25.6883 52.906 24.8059 23.7134 21.8207 21.7103 26.1435 23.8777 32.0848 22.0448 21.6673 21.5968 21.4387 21.1633 21.1205 20.7679 20.7599 20.605 20.5168 21.2116 20.3721 31.4891 32.2071 29.979 19.9544 19.9131 19.8448 33.593
threshold=0.32421744725559565 -0.23865481613821457 0.36924077009556699 1.0000000180025095e-35 -0.29339056249722645 1.0000000180025095e-35 0.36924077009556699 -0.39478573129637295 1.0000000180025095e-35 1.0000000180025095e-35 1.0000000180025095e-35 1.0000000180025095e-35 -1.1097826584366028 -0.24027496857947372 -0.37245110524353975 1.0000000180025095e-35 1.0617029053053393 -0.78365685138169106 -1.1097826584366028 0.27815061620700743 1.0000000180025095e-35 -1.0570919670226249 1.0000000180025095e-35 -0.24027496857947372 0.24190344602202654 -0.49232352975223487 1.0000000180025095e-35 1.0000000180025095e-35 -0.87499619925355776 0.93999181881315341 -0.81009042962019306 -0.24027496857947372 -0.31343621542462796 0.41099298580308014 1.0000000180025095e-35 -0.24027496857947372 -0.54250489173563532 -0.9002108525159026 1.0000000180025095e-35 1.678618317786605 -0.98331021502678617 -0.24027496857947372 -0.41530655792214205 -0.27577276611584317 0.61051059300903043 1.0000000180025095e-35 -1.0570919670226249 0.50447992732774882 -0.13799408862831722 -0.16481294715800152 1.0000000180025095e-35 -0.98253345076845766 2.3043218630459115 1.1657369759385923 0.31446013136006756 -0.79745993659621939 -0.24027496857947372 -0.46208947506518894 -0.059720768022630252 -1.020609814231094 1.596451281108112 -0.7638735459953343 -0.24027496857947372
decision_type=2 2 2 2 2 2 2 2 2 2 2 2 2 2 2 2 2 2 2 2 2 2 2 2 2 2 2 2 2 2 2 2 2 2 2 2 2 2 2 2 2 2 2 2 2 2 2 2 2 2 2 2 2 2 2 2 2 2 2 2 2 2 2
left_child=4 10 3 5 21 27 7 -6 12 20 29 15 -7 14 16 40 37 -10 -17 -19 50 -1 28 25 -25 -21 -4 59 -23 30 -2 32 -32 -29 52 36 -30 -14 -12 -27 -5 42 -42 -44 -43 -22 -34 -45 -36 -38 -9 -39 61 -20 -55 -47 57 58 60 -3 -57 -11 -63
right_child=1 2 26 11 6 8 -8 9 17 34 38 -13 13 -15 -16 18 -18 19 53 23 45 22 -24 24 -26 39 -28 33 35 -31 31 -33 46 -35 48 -37 49 51 -40 -41 41 44 43 47 -46 55 -48 -49 -50 -51 -52 -53 -54 54 -56 56 -58 -59 -60 -61 -62 62 -64
leaf_value=-2.4479990034436954 -2.4406664383622201 -2.4409947753159815 -2.4353911662755587 -2.4155780232630888 -2.4364388531412455 -2.436027083795544 -2.4398771963797805 -2.4261969563207648 -2.4134892316394816 -2.4271625663424041 -2.4375209443092674 -2.4219278232100607 -2.4006471026133216 -2.4242567087086839 -2.38921231303086 -2.4324460055650379 -2.3995511284977136 -2.4143725285424491 -2.3768864396074916 -2.3979935320732468 -2.4266244832064938 -2.4457111837531711 -2.428104549224765 -2.415260101059995 -2.3821000230302531 -2.3786707121823731 -2.420070243557038 -2.4410416126348005 -2.4396535962105408 -2.4421310471186195 -2.4282105746334746 -2.4363239305574096 -2.4428196977235221 -2.4253304220619736 -2.3953199197895114 -2.4405222650615945 -2.4276711688110559 -2.4334038038467161 -2.4174166409521285 -2.3337101555877426 -2.3940595665657609 -2.4093873150343574 -2.3391100537521226 -2.3610692118782364 -2.3436212664580198 -2.4245631873966054 -2.4040645053587926 -2.4030311223988114 -2.3405213154809728 -2.4075843770760188 -2.4388113733120242 -2.4169453936105354 -2.3801573141874948 -2.3942537990831196 -2.3391745501464714 -2.3971665931559403 -2.4203650176954046 -2.4314291801799541 -2.327088194580436 -2.4179563337044581 -2.3487177960304528 -2.3890727215969378 -2.4229570488705914
leaf_count=6336 6680 513 11798 589 8292 1841 12010 11224 2968 847 860 898 935 5910 2478 153 2371 1302 1516 1347 1413 8030 4512 1231 630 1612 1881 2650 6795 6059 5388 9346 195 2814 378 17819 3248 1122 4048 142 1729 1185 257 253 65 831 1602 352 110 786 1836 5319 243 108 389 784 854 215 99 3987 118 713 702
internal_value=0 0.204106 0.403979 0.566456 -0.21875 0.446452 -0.0500002 0.0841305 0.582717 0.222388 -0.148793 1.19373 0.441709 0.511089 0.685357 1.32517 0.524326 0.887828 1.7957 1.06707 0.130377 -0.363153 -0.320445 1.2211 0.824686 1.45899 -0.150311 0.0470107 -0.362614 -0.217539 -0.15811 -0.0618285 0.185057 -0.139172 0.756497 -0.306015 -0.16523 0.379737 0.261189 1.79148 1.09512 1.19559 1.40561 1.90392 0.760253 0.443866 0.683502 1.44305 1.52691 0.167256 0.0268249 0.298756 0.606413 1.94148 2.58772 0.625145 0.819748 1.19858 1.47502 0.273078 1.26489 0.497462 0.763063
internal_count=182718 94523 60345 46666 88195 39172 40669 28659 29208 20367 34178 7494 19976 18135 12225 6596 9747 9232 2166 6264 17374 47526 41190 4962 1861 3101 13679 9964 36678 29270 23211 16531 7185 5464 2993 28648 10829 7376 4908 1754 4430 3841 2591 862 1250 4314 1797 605 488 4034 13060 6441 2505 2013 497 2901 2070 1216 1001 4500 902 2262 1415
shrinkage=1


Tree=1
num_leaves=64
num_cat=0
split_feature=37 37 37 15 15 15 1 8 7 37 1 8 7 15 37 37 8 7 15 8 8 18 1 1 15 1 7 8 7 8 8 8 1 7 7 1 15 37 8 7 8 8 8 7 8 7 1 37 7 14 8 7 37 37 18 27 12 8 7 15 37 7 37
split_gain=3219.45 763.485 569.094 317.407 247.326 214.334 125.435 115.882 127.515 103.195 80.4729 78.9395 81.5031 73.5805 72.4366 65.7741 55.2458 64.263 54.3459 53.785 71.2816 48.8679 48.4771 41.8766 40.7406 40.5445 39.4803 44.5703 38.9892 55.236 38.3482 36.5875 34.9199 31.3401 30.0484 30.0316 36.9331 29.4898 29.2712 27.0338 27.2207 26.8059 26.7039 32.1816 25.8783 34.1367 26.6507 25.802 24.3569 24.248 23.9501 44.3704 26.4265 23.9233 23.2544 22.8997 22.619 22.2513 29.7149 22.2504 22.076 21.6027 20.7229
threshold=-0.83153926264192923 -1.8908207956975713 0.53313434511539326 -0.90638508209123603 -0.4893498879221555 -0.22813004102503912 1.0000000180025095e-35 0.36924077009556699 -0.12268618600439675 -2.3965549242304798 1.0000000180025095e-35 -0.20845166456700603 -0.93714119610649327 0.31630711356052993 -0.28524110345379317 0.90322513155732265 0.36924077009556699 -0.77884779956079309 0.32868068525565647 -0.24027496857947372 -0.44135006783775738 -0.13568286306592547 1.0000000180025095e-35 1.0000000180025095e-35 -1.4760276605002109 1.0000000180025095e-35 -1.0070309706047409 -0.24027496857947372 -0.652336507974561 0.053903522880455072 -0.49461805673723497 -0.24027496857947372 1.0000000180025095e-35 -0.14752559813291302 0.98706469250751483 1.0000000180025095e-35 0.01865397222776298 -2.6628984725406659 0.24663800852736559 -0.83901780409570836 -0.24027496857947372 -0.31600968692227821 0.24663800852736559 0.64733558997960861 0.36924077009556699 -0.4162849517222012 1.0000000180025095e-35 -0.96834681712375181 -0.25768299105068099 -0.14553811786120666 -0.70436836752711462 -0.29656207090401082 -1.7850949320352059 -1.398182116251546 -0.88512575406088945 1.0000000180025095e-35 1.0000000180025095e-35 0.36924077009556699 -0.065138976538952162 1.4290120052556154 -1.4924125730216684 -0.48139198227023766 -0.28524110345379317
decision_type=2 2 2 2 2 2 2 2 2 2 2 2 2 2 2 2 2 2 2 2 2 2 2 2 2 2 2 2 2 2 2 2 2 2 2 2 2 2 2 2 2 2 2 2 2 2 2 2 2 2 2 2 2 2 2 2 2 2 2 2 2 2 2
left_child=1 4 5 23 22 10 13 8 14 28 54 12 -11 53 -7 18 17 -8 32 20 -10 60 61 -3 -24 -14 -23 41 55 35 48 47 -4 -32 -22 37 -37 -30 -21 -16 -41 -28 -33 -44 45 -20 -47 50 -27 -35 51 52 -19 -5 -2 -6 -26 58 -12 -57 -15 -1 -9
right_child=2 3 15 6 9 7 16 62 19 11 57 -13 25 21 39 -17 -18 31 44 38 34 26 24 -25 56 30 27 -29 29 -31 33 42 -34 49 -36 36 -38 -39 -40 40 -42 -43 43 -45 -46 46 -48 -49 -50 -51 -52 -53 -54 -55 -56 59 -58 -59 -60 -61 -62 -63 -64
leaf_value=0.0070801627504269125 -0.018324269302601143 -0.0070344982363040693 -0.017754316771933794 0.017998154372983792 0.046741632112384184 0.011752859022106611 0.02239773962328221 0.0022065708530769855 0.0071773452549786709 0.036485210746066261 -0.00041999468617524735 0.033918775707375212 0.061223320476457559 0.028826333741152857 -0.0072899227174246448 -0.018279909530053703 0.017298871178251837 0.11477087764861436 -0.0099482266379730244 0.0010162134880541867 0.035849024734628247 0.011857005561911989 0.0062824605205730414 0.013159081086807203 0.054355022678258341 0.084482307101447426 0.039585906748489122 0.022194711137653377 0.15362792166327757 0.063983993819100901 0.066541065918024528 0.020772801291800345 -0.0081844752254264536 0.10735329985109363 0.0075000005096366893 0.21024627018426442 0.11355557400162937 0.07971828549139913 0.016237054786272614 0.0053410932949038 -0.0087209323384639641 0.066362144188701733 0.031210718485239063 0.083344516846503916 -0.014057929058934307 -0.0036442600791456903 0.012288048077312019 0.030061487967003149 0.035419331751470877 0.16669445133820954 0.065630341324703259 0.013428797381833469 0.052347433787424166 0.0035085484273869481 -0.0098153377407867847 0.10064771806714633 0.11148506188866762 -0.0081478649075708235 0.01710250568876151 0.028402988356937761 0.0076889726457380113 0.0284595383929389 -0.0089584601110128965
leaf_count=1100 5176 5266 15394 2219 516 6401 1832 2687 2135 976 3747 1614 1340 850 6839 34122 1632 92 4649 3045 3327 929 198 1635 498 461 1755 1497 72 654 128 923 6605 216 514 52 468 570 3046 6723 2203 592 388 224 3566 3025 2166 493 163 130 1623 364 689 3599 15985 232 100 2172 1689 65 1994 1196 8157
internal_value=0 0.926227 -0.255608 0.6132 1.75564 -0.0318986 0.829339 0.125336 0.22913 2.10563 -0.27962 1.79938 2.11162 0.61126 0.0641357 -0.494193 1.18341 1.33045 -0.383475 0.53057 0.774843 0.847348 0.878622 -0.074655 1.65676 2.46481 1.07245 1.23505 2.69071 2.98703 2.98218 1.55129 -0.495896 3.75794 1.06924 3.45943 4.10812 2.93417 0.287787 -0.069302 0.0628885 1.54635 1.08542 1.67638 -0.19969 -0.103291 0.100168 1.76846 2.38835 4.32181 1.90496 1.50033 1.98979 0.301239 -0.396181 2.02578 2.13082 0.0435072 0.16818 2.82841 0.466958 0.607563 -0.206335
internal_count=182718 39345 143373 28596 10749 73846 21695 45077 34233 7657 28769 5028 3414 13435 22166 69527 8260 6628 35405 12067 5976 7617 3092 6901 796 2438 4773 3844 2629 1816 1098 4796 21999 474 3841 1162 520 642 6091 15765 8926 2347 1535 612 13406 9840 5191 3261 624 346 2768 1145 781 5818 21161 813 598 7608 5436 297 2844 2296 10844
shrinkage=0.03


Tree=2
num_leaves=64
num_cat=0
split_feature=37 37 37 16 16 20 1 16 16 11 11 2 18 11 1 37 2 16 16 1 11 37 37 37 16 37 33 37 1 18 37 1 16 18 37 16 28 33 10 2 35 16 37 37 11 10 33 26 24 1 26 33 18 18 5 21 37 16 37 37 18 16 18
split_gain=2975.29 659.225 546.205 207.044 207.509 186.546 169.131 161.142 93.4631 87.9444 76.8288 75.3902 69.147 71.2901 68.1987 64.2806 61.6856 56.3257 56.3407 50.2815 45.877 42.5808 42.4661 42.0681 38.797 36.6948 35.8541 33.6422 33.1243 32.4911 31.7637 31.6357 29.3719 28.5531 28.4421 27.6352 26.3225 24.2869 23.4013 28.9024 24.049 23.1843 23.1155 21.9839 21.9364 20.8215 29.1365 23.2167 20.5868 23.8199 28.7331 20.166 20.1253 26.2353 20.6936 20.0842 20.0442 20.0121 19.8887 19.7343 19.5995 19.1124 19.9035
threshold=-0.83153926264192923 -1.8908207956975713 0.53313434511539326 -0.45199100313696172 -0.46784973055427465 1.0000000180025095e-35 1.0000000180025095e-35 -0.46493993726475874 -0.47234539658552183 -1.3031470219031831 -0.53246985480030318 1.0000000180025095e-35 -0.77512794689451991 -1.3031470219031831 1.0000000180025095e-35 0.90322513155732265 1.0000000180025095e-35 -0.47503571641524456 -0.45225295533090842 1.0000000180025095e-35 -0.53246985480030318 -2.6012472714091399 -2.6355212449386776 -0.13738818847368844 -0.45199100313696172 -2.6355212449386776 1.0000000180025095e-35 -1.2063248768996362 1.0000000180025095e-35 -0.73802025291068429 -0.49622200136136713 1.0000000180025095e-35 -0.46466382549276092 1.6415106238027695 -2.0297365334517758 -0.4605363084908442 -1.2062455642298147 1.0000000180025095e-35 0.71737090841598794 1.0000000180025095e-35 1.0000000180025095e-35 -0.48343942598861528 -0.13738818847368844 -0.050972667291905367 -1.3031470219031831 -0.46208947506518894 1.0000000180025095e-35 1.0000000180025095e-35 1.0000000180025095e-35 1.0000000180025095e-35 1.0000000180025095e-35 1.0000000180025095e-35 -0.97524443945020434 0.40370397448482681 0.12803011852387605 -1.0000000180025095e-35 -1.2744512542693183 -0.45984956895536233 -1.8589918891120623 -1.7509878118673472 -0.11580374128887073 -0.49379007754402215 1.2889875309563317
decision_type=2 2 2 2 2 2 2 2 2 2 2 2 2 2 2 2 2 2 2 2 2 2 2 2 2 2 2 2 2 2 2 2 2 2 2 2 2 2 2 2 2 2 2 2 2 2 2 2 2 2 2 2 2 2 2 2 2 2 2 2 2 2 2
left_child=1 5 6 4 26 25 12 21 -8 59 48 20 43 -14 29 19 27 -15 32 -4 -10 60 -12 -13 30 -1 41 58 34 51 -22 -5 -19 38 45 -21 -36 61 39 55 52 -3 -34 -2 -17 46 -24 -47 49 -9 -51 -11 -40 54 -54 -30 -31 -42 -16 -6 -7 -23 -63
right_child=2 3 15 31 9 7 8 10 11 14 22 23 13 17 16 44 -18 18 -20 35 24 37 28 -25 -26 -27 -28 -29 33 56 -32 -33 42 -35 36 -37 -38 -39 40 -41 57 -43 -44 -45 -46 47 -48 -49 -50 50 -52 -53 53 -55 -56 -57 -58 -59 -60 -61 -62 62 -64
leaf_value=0.081036854776456682 -0.0060127370346723316 -0.0026424829586633824 -0.014254259373690945 -0.0048028218569141383 0.037493855539304552 0.03939721848042297 -0.0067513892040254537 0.035863036745095042 0.002624574750315209 0.0081183978374070528 0.10891339152668131 0.012632817013180132 -0.010816699188909049 -0.0097284147663109274 0.010841906841676626 -0.022040444274746517 0.030696895525923105 -0.0009079418282093725 -0.0077935118407142867 -0.010300579440427719 0.04324529329993896 0.0061785517506869883 0.031421350946687743 -0.0012065195109227944 0.0021376434601030623 0.014622075885887974 0.038873924056688297 0.038575097371534112 0.10044991464228134 0.036214800633987923 0.021558168573759157 0.015283172525367117 0.015451342231121669 0.12256537666595353 0.093777796577762793 0.00035659665043274433 0.024360107341880346 0.067523698229714463 0.045849650590808408 0.024203680544865776 0.027962717889191201 0.010303747067309308 0.0053826663826258263 -0.014656435319528082 -0.016043488986607859 0.062411482840998081 0.1070774334957646 0.091364411478790347 -0.0015145668333012416 0.048123920775998967 0.10807541783498716 0.053218470545200104 0.12842750564626737 0.078749358024076954 0.060744944168172124 0.026654191242936831 0.02308952419951819 0.076416801694065881 0.065956098613834085 0.0092981882021397205 0.095709872413661426 0.027796108314752852 0.056574178362804428
leaf_count=104 6144 2633 23478 4798 328 115 5214 780 1946 1359 326 4154 8362 4903 79 11200 2566 4761 4363 6503 971 387 330 7208 1038 1852 399 1022 155 3000 4682 1177 4494 158 76 5424 370 192 91 200 129 4392 6984 8622 22922 897 71 484 109 280 132 129 329 375 60 57 2526 368 1608 2580 177 1822 323
internal_value=0 0.876966 -0.249619 0.585334 0.741487 1.62787 -0.0310308 1.8447 0.211585 0.982418 2.19095 0.325011 -0.157813 -0.0668792 1.11587 -0.485478 1.42361 0.0293687 0.113214 -0.375656 0.582127 1.17473 2.41107 0.129276 0.72537 0.606207 0.242829 1.80106 2.31306 0.880697 0.843501 -0.0261765 0.211583 2.65136 2.01536 -0.181646 1.20609 1.03437 2.52204 1.78029 2.74545 0.182312 0.311534 -0.368374 -0.600339 2.21625 1.49702 2.4228 1.42884 1.56443 2.25104 0.401849 3.10497 3.29119 3.93355 2.68855 1.00773 2.12912 2.11184 0.416516 2.45645 0.940779 1.07208
internal_count=182718 39345 143373 28596 22621 10749 73846 8793 25213 15197 5777 19999 48633 33867 12289 69527 5275 25505 20602 35405 8637 3016 4476 11362 6691 1956 7424 2709 4150 7014 5653 5975 16239 1922 2228 11927 446 2724 1764 412 1352 7025 11478 14766 34122 1782 401 1381 1301 1192 412 1488 855 764 389 212 5526 497 1687 2908 292 2532 2145
shrinkage=0.03


Tree=3
num_leaves=64
num_cat=0
split_feature=37 37 37 1 20 1 36 1 8 7 7 36 37 8 7 42 37 42 8 8 6 8 1 37 7 5 5 39 8 7 37 8 6 37 8 7 8 6 6 8 8 5 37 7 37 7 8 37 6 7 37 5 10 7 39 7 29 42 42 21 6 0 28
split_gain=2755.18 686.195 425.002 213.737 158.182 130.837 116.39 78.2485 67.3464 64.5144 63.7562 62.8544 62.7972 55.8047 83.571 54.1802 53.3547 53.0293 60.3288 49.2787 86.0798 48.6993 48.5789 48.0346 45.9682 44.2845 35.5677 35.4613 34.792 47.5978 33.9811 31.4063 38.7749 31.3153 30.3929 43.7904 32.4425 47.7348 29.7633 39.1823 29.7547 28.7959 27.4991 26.4469 26.4202 24.6665 26.9067 23.3983 23.2871 22.7468 22.4669 23.2924 21.8857 21.7909 21.7473 21.6289 21.0628 23.0953 20.9845 20.6755 20.0803 20.0058 19.2623
threshold=-0.60472197310728004 -1.8908207956975713 0.53313434511539326 1.0000000180025095e-35 1.0000000180025095e-35 1.0000000180025095e-35 1.2739538603076801 1.0000000180025095e-35 0.36924077009556699 -0.97725453246310334 -0.77884779956079309 1.2739538603076801 0.90322513155732265 0.36924077009556699 -0.091675491359478875 -0.017166773704548031 -1.4111051766843594 -0.51218649695793383 0.36924077009556699 -0.24027496857947372 -0.2542873150696528 0.36924077009556699 1.0000000180025095e-35 -2.6012472714091399 -0.19226739637682438 -0.25380220059555253 0.17541271647155501 1.0000000180025095e-35 0.36924077009556699 -0.72855184705212028 -1.7682775918335691 -0.24027496857947372 -0.64228690337949512 -2.6355212449386776 0.36924077009556699 -0.12268618600439675 -0.24027496857947372 -0.50704235362986294 -0.86384540589861725 -0.24027496857947372 -0.31600968692227821 -0.10001243467120426 0.33331007385311889 -0.4162849517222012 -0.03803157911215644 -0.71682641027095728 -0.4247418437976051 -1.0700676325284026 -0.83665801839475862 0.2946467941672592 -2.6355212449386776 0.14386746445528731 0.32421744725559565 -0.11204072366360406 3.0487675008230628 0.89480401888731143 1.0000000180025095e-35 0.5262656364195849 -1.5276426040718476 1.0000000180025095e-35 -0.80357975107644719 1.0000000180025095e-35 1.0000000180025095e-35
decision_type=2 2 2 2 2 2 2 2 2 2 2 2 2 2 2 2 2 2 2 2 2 2 2 2 2 2 2 2 2 2 2 2 2 2 2 2 2 2 2 2 2 2 2 2 2 2 2 2 2 2 2 2 2 2 2 2 2 2 2 2 2 2 2
left_child=1 4 5 6 33 11 16 21 10 -9 54 17 22 14 27 47 38 -2 24 20 25 23 -4 43 44 -11 42 45 29 -24 -17 32 -26 -1 35 -18 37 -37 -3 40 -40 -42 58 -6 -19 -7 48 -12 -47 59 -21 56 -32 -22 -5 -34 57 -52 -16 -39 -8 -25 -45
right_child=2 3 12 8 7 13 60 9 -10 19 15 -13 -14 -15 26 30 34 18 -20 50 53 -23 28 61 31 -27 -28 -29 -30 -31 52 -33 55 -35 -36 36 -38 49 39 -41 41 -43 -44 62 -46 46 -48 -49 -50 -51 51 -53 -54 -55 -56 -57 -58 -59 -60 -61 -62 -63 -64
leaf_value=0.073428951124455452 -0.0098311980679195009 0.0069390115002895998 -0.013996086110057775 0.014881163735388045 0.054045431906458143 -0.0058849063898437541 -0.013492088558001212 0.026824885110832801 0.010575719236306848 0.10822970355232939 0.030790690909301515 -0.013503824569153958 -0.017741229494676821 -0.0044046718003754298 -0.0036293287376880064 0.068930871136913235 0.0073917442602305615 0.0049775872023249124 -0.010307123152316328 0.11434454530156808 0.060767495844788771 0.020579984281290441 -0.014572555029689439 0.046353865378191833 -0.0046820893474073455 0.060052442517641733 0.0067486490953581162 0.019800610618324329 -0.014295567823167675 0.0039644462996841932 0.028525709363131698 0.0030365796743890253 0.028937071546387277 0.014008705264217517 -0.0010929218856373802 0.0031478313349940562 0.012574262228818895 0.051173588755565283 0.029506693771323131 0.016640146312365552 0.079756209311189305 0.028751026980281865 0.0078452047488718479 0.07381029179088 -0.0057028555255525049 -0.0012124371942141264 -0.0039819840832057904 0.0078838051225238268 0.020374293588020363 0.027835436690461578 0.045261837374027697 0.028226214362903044 0.044007228915336247 0.13212500616692799 0.081941427404309319 -0.0059147237551938313 0.036228287502839886 0.092793135664741636 0.031434523186364798 0.1007632590232075 3.5209654518998408e-05 0.02277364249351535 0.1322027545777949
leaf_count=104 10518 1133 23478 2700 241 4662 2069 471 2576 236 1190 9496 34122 5943 219 454 6933 4623 5774 57 51 910 2380 3406 669 1278 2168 1194 3695 5852 1604 3450 1970 1852 2664 380 1563 443 1351 2137 311 207 948 119 7013 924 2056 911 1676 371 193 412 2974 310 57 235 271 267 2852 122 3902 457 114
internal_value=0 0.744338 -0.272398 0.499598 1.51502 -0.0638151 0.2941 1.70773 0.876283 2.10019 1.00821 -0.181947 -0.476823 0.160681 0.26737 1.18409 0.439301 -0.109442 -0.0139606 2.27906 2.6176 1.43354 -0.367919 1.58572 0.0894355 2.25371 0.599716 0.068248 -0.177027 -0.044868 1.38205 0.338175 0.614931 0.578904 0.31047 0.402635 0.775799 1.18617 0.746135 0.890978 1.26501 1.98186 0.800307 2.60862 -0.0477115 -0.00763451 0.179291 0.699754 0.424644 1.6145 1.72016 1.61082 1.28953 4.07604 0.542588 0.842595 1.98319 2.43572 0.965915 2.06323 -0.154576 1.45369 3.41452
internal_count=182718 46801 135917 36052 10749 66390 23586 8793 12466 3546 9890 43748 69527 22642 16699 7133 17615 34252 23734 3075 1875 5247 35405 4337 17960 1514 6187 10512 11927 8232 5032 6324 2874 1956 12476 9812 2879 1316 5139 4006 1869 518 4019 474 11636 9318 4656 2101 2600 936 1200 1143 4578 361 2757 2205 731 460 3071 565 5971 3863 233
shrinkage=0.03


Tree=4
num_leaves=64
num_cat=0
split_feature=15 16 27 10 16 8 0 27 27 7 8 8 8 8 7 33 33 39 8 7 8 0 27 27 8 7 7 8 7 7 10 15 21 8 7 16 15 8 16 10 8 0 27 8 7 0 17 8 16 8 7 16 8 7 5 39 10 5 7 17 17 7 15
split_gain=723.738 326.112 267.646 165.672 202.724 158.903 137.027 74.1724 72.8843 65.2734 78.1706 58.6813 53.4605 51.6056 90.1117 49.3685 49.1154 41.5652 36.2302 47.8153 38.2877 35.6469 37.0435 34.3798 33.6693 36.6115 30.1344 39.6825 29.7587 27.255 25.2374 25.3195 24.7273 24.0896 32.4267 23.7196 45.4822 24.9314 23.6769 30.99 22.8656 29.2109 22.6986 22.0864 23.4104 23.1171 21.9013 26.8437 21.3842 20.8993 20.2618 20.121 19.9477 22.3259 23.3348 19.7777 19.4345 19.0206 18.925 29.1035 18.4057 18.3376 18.1205
threshold=0.40865062084082632 -0.4650248947330658 1.0000000180025095e-35 0.32421744725559565 -0.46867098608124264 0.36924077009556699 1.0000000180025095e-35 -1.0570919670226249 1.0000000180025095e-35 -0.73966015558164322 -0.24027496857947372 0.36924077009556699 -0.55706011224936802 -0.24027496857947372 -0.77884779956079309 1.0000000180025095e-35 1.0000000180025095e-35 1.0000000180025095e-35 0.36924077009556699 -0.69923825509921289 -0.24027496857947372 1.0000000180025095e-35 1.0000000180025095e-35 1.0000000180025095e-35 0.36924077009556699 -0.64554809720651929 -0.074087336187734429 -0.15402779194312227 -0.36475474271024816 -0.26385427356708252 -0.85524293622558123 1.5969717840061299 -1.0000000180025095e-35 0.97625006616821108 -0.049402206122128166 -0.47109227392799308 -0.87888825610206589 1.0552151753408034 -0.45984956895536233 0.32421744725559565 -0.24027496857947372 1.0000000180025095e-35 -1.0570919670226249 -0.61176383040652904 -0.23824345112401604 1.0000000180025095e-35 -0.21498407443902776 -0.24027496857947372 -0.46384964975481852 -0.91055977316553316 -0.73472312956852193 -0.47989245168679662 -0.49461805673723497 0.35450823457635433 -0.054487679227017784 3.0487675008230628 0.71737090841598794 -0.32890015392320121 0.70719703038870385 1.2106625768008106 1.3541363828741699 -1.1733470344217631 -0.29228930166643607
decision_type=2 2 2 2 2 2 2 2 2 2 2 2 2 2 2 2 2 2 2 2 2 2 2 2 2 2 2 2 2 2 2 2 2 2 2 2 2 2 2 2 2 2 2 2 2 2 2 2 2 2 2 2 2 2 2 2 2 2 2 2 2 2 2
left_child=3 11 5 16 24 6 7 -3 15 -9 12 21 29 14 -4 18 23 28 19 -6 43 22 50 35 25 -5 -12 -28 -14 49 -15 -32 -33 34 -17 -1 -37 55 -29 -40 41 52 -7 44 -21 -45 -27 60 -19 -11 -2 -24 -10 54 -54 -38 -16 -52 -41 -60 -48 -8 -57
right_child=1 2 13 4 8 42 61 9 40 10 26 -13 17 30 56 33 -18 48 -20 20 -22 -23 51 -25 -26 46 27 38 -30 -31 31 32 -34 -35 -36 36 37 -39 39 58 -42 -43 -44 45 -46 -47 47 -49 -50 -51 57 -53 53 -55 -56 62 -58 -59 59 -61 -62 -63 -64
leaf_value=-0.015890831015977665 -0.0071230517844988756 -0.00019305845786566446 0.019689534174558973 -0.012878836513042937 -0.0038726995191709513 -0.015769674681547156 0.003410412996498594 0.0087421805831455462 0.024429857503583917 0.0076826735912855926 0.00068480112392907313 -0.011257275448045674 0.010766055320416561 0.00073249717850857037 0.036708895342934776 0.013462292769413329 0.0060176047507388298 0.12318355487745644 -0.0054161699451125258 0.014383856839234465 0.0018062915437126342 -0.01272922592739484 -0.0038592353172541469 -0.0034173792580486418 -0.015130576002210723 -0.0072346896733785316 -0.0055506157416802347 0.0085498536832930988 0.03352535540755891 0.0093817563754799334 0.021612295685550374 0.035711399999652275 0.11740896639377041 -0.016107009874731969 0.049079706435826202 -0.012722460442356363 -0.0035211417485678915 -0.015121078991280432 0.012406938439684973 0.029415917452261534 0.010153166265416395 -0.0024842188126100793 -0.00090220037075053024 0.0230796796495173 -0.0098452250748991919 -0.010348900460064233 0.0093106472557554255 -0.0045330310154672289 0.051790449342434146 0.028025568221852433 0.028879846390985578 0.020255680963875505 0.040520820625500151 0.0083931514774303224 0.091675111113232843 -0.0031490243193365909 0.055318530817148333 0.0021584127565261887 0.044859661083776217 0.11721686199460288 0.053116866057056809 -0.0098931739162880922 0.058894497319936581
leaf_count=10548 3121 2871 1793 5740 5464 1592 2492 6161 1155 715 2073 6369 781 624 882 753 2400 50 6308 1416 5017 1992 512 8070 7079 4632 739 974 4406 2082 1610 125 62 175 505 26558 11738 2515 808 780 1822 338 6527 3054 716 274 2283 2613 737 3391 327 1892 249 115 160 109 2069 9145 388 77 119 2508 118
internal_value=0 0.28511 0.456203 -0.186826 -0.030844 0.338487 0.450771 0.550747 0.177851 0.61467 0.722754 -0.0701149 0.883884 1.08403 1.29404 0.100636 -0.315739 1.12147 0.0579846 0.149383 0.292292 0.0401415 0.100043 -0.336827 -0.2914 -0.196043 0.376242 0.568113 1.00615 0.648436 0.654282 0.867746 2.09356 0.754479 0.926554 -0.372413 -0.332061 -0.16588 0.751048 0.970275 0.633828 0.892042 -0.125557 0.500065 0.210123 0.681889 -0.0589868 0.107676 1.87916 0.817573 0.0196689 0.506143 1.07937 1.6403 2.02144 -0.0963248 1.66191 0.102852 1.32348 1.89577 0.383037 -0.107403 0.972557
internal_count=182718 70675 47317 112043 49987 40152 32033 27033 27521 24162 18001 23358 12162 7165 4744 23682 62056 5974 22249 15941 10477 16989 14997 59656 22466 15387 5839 3766 5187 6188 2421 1797 187 1433 1258 51586 41038 14480 3027 2053 3839 2017 8119 5460 2132 3328 9647 5015 787 4106 12593 2404 1679 524 409 11965 2951 9472 1245 465 2402 5000 227
shrinkage=0.03


Tree=5
num_leaves=64
num_cat=0
split_feature=37 37 37 15 15 11 16 15 16 11 16 37 1 1 11 42 15 8 11 37 1 33 1 15 8 37 37 42 15 8 42 5 8 37 8 8 8 8 8 17 15 42 42 37 16 1 1 8 17 37 16 42 15 5 5 37 17 16 15 21 16 42 34
split_gain=2527.29 589.566 405.13 234.413 186.161 176.245 157.493 145.489 130.451 85.7305 84.852 73.5373 70.6858 63.0029 59.379 48.8362 47.8654 45.545 39.8526 38.747 38.107 37.3053 37.3018 36.888 35.4239 34.4565 33.5853 31.5454 30.5202 29.3297 28.1275 27.7273 27.4018 29.4937 25.7266 24.051 23.5807 33.1318 22.8385 22.3863 21.58 21.4007 25.5598 22.9854 20.5656 20.2441 20.1805 19.5541 20.4836 20.3619 19.4282 19.2537 25.2798 21.9416 21.7104 19.0139 18.9343 18.9278 18.8405 18.7658 18.6155 18.0516 18.2498
threshold=-0.60472197310728004 -1.8908207956975713 0.73999726528610343 -0.90638508209123603 -0.28564423538571998 -1.3031470219031831 -0.46695059734802519 -0.62912542003377037 -0.46550632038680562 -0.53246985480030318 -0.46369389439625558 -0.3104410677665061 1.0000000180025095e-35 1.0000000180025095e-35 -0.53246985480030318 -0.15151197977087036 0.32868068525565647 0.36924077009556699 -1.3031470219031831 -2.5685540825527009 1.0000000180025095e-35 1.0000000180025095e-35 1.0000000180025095e-35 0.51290941938309653 1.0052019116653119 -1.2063248768996362 -2.3121283016668461 0.87967825057603644 -1.4760276605002109 -0.1938327772525423 -1.0253609777878496 0.28017523698611629 -0.94020514889727769 -1.2063248768996362 -1.0893993197253711 -1.0983787111844425 0.36924077009556699 -0.90922746508319141 0.36924077009556699 -1.1585019159630414 1.4911090039478248 0.27815061620700743 0.51537278187366675 -2.6628984725406659 -0.46311335169615753 1.0000000180025095e-35 1.0000000180025095e-35 -0.49461805673723497 1.3308396460464167 -2.6355212449386776 -0.48889086353831657 -0.17087705451916907 1.2738840786333807 -0.0091989611500783025 -0.32890015392320121 -1.7509878118673472 0.025938277145544291 -0.48066414869058549 0.30485010273170904 1.0000000180025095e-35 -0.45269898203952036 -0.26286115957358797 1.0000000180025095e-35
decision_type=2 2 2 2 2 2 2 2 2 2 2 2 2 2 2 2 2 2 2 2 2 2 2 2 2 2 2 2 2 2 2 2 2 2 2 2 2 2 2 2 2 2 2 2 2 2 2 2 2 2 2 2 2 2 2 2 2 2 2 2 2 2 2
left_child=1 7 4 20 12 -6 50 22 30 55 19 61 -2 16 40 58 21 25 -4 -9 -3 -11 47 46 34 39 41 57 -24 31 -7 35 -18 38 -17 -28 37 -32 -34 -15 -12 45 -43 -44 -25 -16 -20 -1 49 -49 -5 60 54 -54 -53 59 -22 -21 -13 -8 -41 -10 -63
right_child=2 3 18 6 5 8 9 10 11 13 14 15 -14 17 26 24 32 -19 23 27 56 -23 28 44 -26 -27 29 -29 -30 -31 36 -33 33 -35 -36 -37 -38 -39 -40 51 -42 42 43 -45 -46 -47 -48 48 -50 -51 -52 52 53 -55 -56 -57 -58 -59 -60 -61 -62 62 -64
leaf_value=0.0017533338289754973 -0.013160337798444126 -0.0062076060099067291 -0.020763507454235285 -0.0022859332058392302 -0.0097290670156762859 -0.012841800406366011 0.020608614300804177 0.06452364562775928 0.0091076026927908362 0.0090525805504390426 0.044540300728081572 -0.0090884528294897828 -0.0015272526897361688 0.0093543989947991249 0.036230085091344524 -0.0040618653228823281 0.013466084411627581 0.015245704958338846 -0.018114154865782446 0.017838429970220112 0.001506379518083004 0.054386473627733682 0.0047637016346550719 -0.01362195846677044 -0.0091365714495238101 0.031786791619488136 0.014318751136495868 0.013072586418439022 0.05418328897051547 0.033348212460326626 -0.012585042236179426 0.1201560997781624 0.047331851208823807 0.023781634934247609 0.01375614161939588 0.061061937470080596 -0.0096816366678411994 0.0051416327726841321 0.014089181573313283 0.039961291376156796 0.013756302782019036 0.11500029041977161 0.12029229073871968 0.069078634292517885 -0.0023480677836004533 0.078121092822200547 -0.011273988923677319 0.077503567578862245 0.089807736688779685 0.016007329782569416 0.0097152712462773381 0.11800442580155641 0.052147622999605812 0.010821866230342262 0.061523287870893999 0.0095001629380885456 0.0228489730985992 0.044470212786438978 0.0032301439090205815 0.074020928865918281 -0.025996482586586961 0.020577114483108897 0.038256250725774411
leaf_count=934 24360 6498 15845 2087 14689 3297 294 359 808 3098 881 2255 8667 144 283 1073 1045 987 17987 388 1084 221 198 3682 1039 2542 127 846 509 581 1603 72 1556 1930 11145 1400 3038 6701 280 413 324 163 87 1095 4488 192 7831 60 50 1047 6809 78 460 190 1101 4203 882 1153 4582 96 54 1733 1094
internal_value=0 0.702127 -0.26507 0.474501 -0.113952 0.0191052 0.629062 1.39886 0.148754 0.810823 1.62404 0.313752 -0.334329 0.946307 1.87262 0.226321 0.739737 1.21552 -0.536226 1.13219 -0.0667672 0.40509 0.693068 -0.463973 0.354069 1.34643 2.06605 0.96892 1.37814 1.78111 -0.126372 2.00964 0.962863 1.10148 0.407574 1.91242 -0.0398292 0.0597405 1.41683 1.63581 1.20675 2.396 2.60822 2.43828 -0.24634 1.78685 -0.534081 0.447159 0.755901 0.655096 0.23152 1.71764 1.87377 1.33391 2.17369 0.387776 0.370086 1.26356 -0.026227 1.1248 1.08392 0.781974 0.915475
internal_count=182718 46801 135917 36052 86084 53057 27588 10749 38368 18692 7951 23729 33027 14099 5205 20094 8130 5969 49833 2746 8464 3319 2798 33988 13257 4982 4000 2387 707 2180 14639 1599 4811 3766 12218 1527 11342 8304 1836 2440 1205 1820 1345 1182 8170 475 25818 2091 1157 1107 8896 2296 1829 650 1179 4593 1966 1541 6837 390 467 3635 2827
shrinkage=0.03


Tree=6
num_leaves=64
num_cat=0
split_feature=42 11 16 16 0 2 1 1 16 34 16 2 16 17 11 12 1 42 16 16 34 16 18 1 17 18 1 29 11 29 18 18 42 18 7 5 18 18 33 11 17 2 33 2 17 29 25 18 18 12 7 21 7 17 23 16 29 7 17 42 17 5 7
split_gain=480.756 465.247 348.077 453.562 101.778 89.5031 142.503 83.3616 71.3468 62.3587 52.5161 49.5321 38.4404 36.0534 35.1617 34.4978 33.5701 31.4387 29.4693 39.5142 27.7278 27.3205 27.2544 26.6438 28.179 24.7139 24.3653 24.2705 22.1635 23.8098 21.7758 21.1631 23.6727 20.0835 19.8144 24.7013 19.7614 18.6251 29.6664 18.474 17.9879 17.9001 17.6896 17.6537 17.6398 17.246 16.9419 18.9225 16.9149 16.408 19.8139 15.8072 15.7124 24.3183 18.2607 25.7258 16.2506 15.6453 15.4278 15.0892 21.0289 25.2613 14.9901
threshold=-0.23865481613821457 -1.3031470219031831 1.0000000180025095e-35 -0.46369389439625558 1.0000000180025095e-35 1.0000000180025095e-35 1.0000000180025095e-35 1.0000000180025095e-35 -0.48013316451366655 1.0000000180025095e-35 -0.46756653899325118 1.0000000180025095e-35 -0.46015399988346256 -0.33743399605807317 -1.3031470219031831 1.0000000180025095e-35 1.0000000180025095e-35 0.40644423641448646 -0.45231667343213872 -0.47440561519196739 1.0000000180025095e-35 -0.45213967870649907 0.57002596001951822 1.0000000180025095e-35 -0.44255341832964351 -0.69759937196400634 1.0000000180025095e-35 -0.78497348949708989 1.0000000180025095e-35 -1.3973112239774192 0.95435564770924342 0.32219957519890235 0.92082903441617125 1.1498336785169487 -0.79921303186491832 0.11130953599244378 0.008109451121437199 1.4294666581808519 1.0000000180025095e-35 -0.53246985480030318 -0.75734347205099473 1.0000000180025095e-35 1.0000000180025095e-35 1.0000000180025095e-35 -0.47408924501111466 -0.78497348949708989 1.4815715417287734 1.6700040316832145 -0.74199607726609529 -0.9002108525159026 -0.95071801764257668 1.0000000180025095e-35 -0.55668162897033679 1.2814051069241106 1.0000000180025095e-35 -0.45277685971880183 1.0520397139438988 1.7251500814691421 1.4092530529300744 1.1653131031134427 -1.0957143691467792 -0.40094484969388061 -0.93714119610649327
decision_type=2 2 2 2 2 2 2 2 2 2 2 2 2 2 2 2 2 2 2 2 2 2 2 2 2 2 2 2 2 2 2 2 2 2 2 2 2 2 2 2 2 2 2 2 2 2 2 2 2 2 2 2 2 2 2 2 2 2 2 2 2 2 2
left_child=7 10 3 8 5 6 9 14 42 22 -2 34 -13 -10 -1 27 25 -11 19 -16 33 -14 44 48 -25 -4 43 -8 -19 30 -30 -6 -33 -12 -9 36 -36 62 -39 -17 -31 -28 -3 -15 -5 -24 47 -42 -7 50 -29 -38 -41 54 55 -54 -56 -50 -21 -18 -61 -62 -26
right_child=1 2 16 4 31 23 15 11 13 17 20 12 21 26 18 39 59 28 -20 58 -22 -23 45 24 37 -27 41 49 29 40 -32 32 -34 -35 35 -37 51 38 -40 52 46 -43 -44 -45 -46 -47 -48 -49 57 -51 -52 -53 53 -55 56 -57 -58 -59 -60 60 61 -63 -64
leaf_value=-0.015863388907903737 -0.015759906907227932 -0.0077938335417764753 -0.012092280960282097 -0.00062084901619809617 -0.005637270530730056 -0.0070285980458797085 0.043734054993197914 -0.0063211065603248533 -0.0025120762891637778 0.014559917989820221 -0.009532487773046645 -0.010591875746688654 0.0058688221488886663 0.0069277487915097779 -0.012795679055242044 0.018776037088035845 -0.00092856258492303922 0.0048703080561201661 -0.01423585852359523 -0.0038132571016173487 0.0019361223358485987 -0.014017616442570307 0.031936531926172317 0.0047454731994783653 -0.00027493733608582567 -0.0025892308254073099 0.021036817746268175 -0.0071658770247652014 0.044431009585335218 0.014407492151391995 0.11104021694389625 0.0028273799415571058 0.023985898314827891 0.0005213742017241167 0.0067723016936723779 -0.0011341546436192938 0.01604263827589654 0.026057767654991567 0.082496776165625715 0.036056482622190571 0.030474507684206613 0.0081456507939902962 0.019216662965398583 -0.0049567894523746417 0.012480525431073643 0.016351520517411691 0.060691108901858686 0.062518156449346801 0.011503873370722688 0.023367534439771652 0.046417155646892021 0.041843844388469012 0.052705124349849579 0.10433728830788462 0.040603481092741395 0.11333708009009696 -0.016555013237547211 -0.021624193751337704 0.045358098070687768 -0.0088157351729685231 0.09979402068513181 0.019893673056066499 0.019474065109239068
leaf_count=10954 8147 9417 8885 1689 1830 926 1173 1604 5893 1387 12265 8634 3861 6042 8851 267 2276 279 8811 16821 4884 1088 1036 1806 481 5663 2136 87 151 479 80 2029 877 2998 2572 2601 1122 606 121 799 1969 3014 299 1982 4478 3598 296 227 2974 3203 670 376 1096 96 292 79 69 182 78 306 50 634 5122
internal_value=0 0.139995 0.269502 0.381406 0.620686 0.684438 0.812236 -0.251722 0.027228 0.611534 -0.272505 -0.0660324 -0.203427 0.155082 -0.343459 1.19245 -0.19979 0.942872 -0.285533 -0.223049 -0.172685 0.0532332 0.457553 0.437203 0.553205 -0.278588 0.259631 1.02315 1.12006 1.20285 2.27237 0.120862 0.310559 -0.251032 0.156753 0.24411 0.419801 0.663133 1.19174 1.50827 1.11633 0.451862 -0.231376 0.133424 0.299037 0.663598 1.23513 1.12792 0.19926 0.890204 1.34859 0.751244 1.60125 1.7944 1.68919 1.89381 0.998584 0.322584 -0.1195 0.134045 0.509306 0.861092 0.593727
internal_count=182718 115345 87051 69237 40454 35718 23500 67373 28783 15669 28294 21858 13583 19067 45515 7831 17814 4868 34561 25750 20147 4949 10801 12218 8136 14548 13174 5133 3481 3202 231 4736 2906 15263 8275 6671 4070 6330 727 2698 2971 5150 9716 8024 6167 4634 2492 2196 4082 3960 757 1498 2431 1632 1536 1175 361 3156 16899 3266 990 684 5603
shrinkage=0.03


Tree=7
num_leaves=64
num_cat=0
split_feature=37 37 37 15 15 11 15 1 37 1 37 15 11 7 7 6 37 7 18 11 15 1 6 1 15 11 18 6 6 37 11 17 18 6 10 37 11 41 17 18 7 18 15 17 18 1 26 6 6 7 14 7 7 15 14 14 14 6 17 7 18 37 1
split_gain=2320.12 511.848 386.306 205.001 171.17 156.21 117.17 87.8296 75.3576 65.4745 55.8928 51.6272 59.4337 53.0652 49.1647 69.382 45.8879 42.7391 39.062 37.5749 34.4481 34.2753 33.5111 31.4509 26.8138 26.5558 25.447 24.8872 34.6537 24.3099 24.3024 25.3823 28.1479 24.1662 24.0434 30.1171 20.6775 20.818 20.5182 20.4084 20.2373 19.8147 19.6748 19.782 19.1642 18.9144 18.7338 18.3696 17.8675 17.8037 17.8985 17.6646 17.0338 16.9379 23.8191 16.9151 18.9696 17.9923 16.7961 16.7692 16.1446 20.3544 16.0407
threshold=-0.60472197310728004 -1.8908207956975713 0.73999726528610343 -0.90638508209123603 -0.28564423538571998 -1.3031470219031831 -0.62912542003377037 1.0000000180025095e-35 -0.28524110345379317 1.0000000180025095e-35 -2.3965549242304798 0.31630711356052993 -1.3031470219031831 -0.98589432798606558 -0.90535909114702517 0.5180879933039847 -1.3341442897728009 -0.12654323757714772 -0.28013781464585658 -1.3031470219031831 0.51290941938309653 1.0000000180025095e-35 -0.22775881270143916 1.0000000180025095e-35 -1.5883063666226558 -1.3031470219031831 1.9284326147849262 -0.93973445571684311 0.099684764624762515 -1.398182116251546 -0.53246985480030318 -0.89286229481731649 1.389045777234174 0.80029743093645911 0.71737090841598794 -1.246982120931954 -0.53246985480030318 1.0000000180025095e-35 -1.1585019159630414 -0.32122133298510308 -0.48139198227023766 0.30629627777725849 0.61693907770879031 -0.98803798795508968 1.3552512702131809 1.0000000180025095e-35 1.0000000180025095e-35 -0.96433655662914564 -0.80357975107644719 0.42702080414407273 -1.0000000180025095e-35 -0.652336507974561 -0.23824345112401604 1.6975643390831772 -0.1748123583282688 -1.2853495103040034 -0.10427158334142438 -0.024559753623000433 0.025938277145544291 -1.2457053219265715 -0.81952465219660875 0.19466931656552153 1.0000000180025095e-35
decision_type=2 2 2 2 2 2 2 2 2 2 2 2 2 2 2 2 2 2 2 2 2 2 2 2 2 2 2 2 2 2 2 2 2 2 2 2 2 2 2 2 2 2 2 2 2 2 2 2 2 2 2 2 2 2 2 2 2 2 2 2 2 2 2
left_child=1 6 4 21 9 -6 23 11 62 60 26 29 41 -14 -10 17 38 22 -15 -4 45 48 47 40 -25 -12 36 -27 55 -5 -18 -32 -33 -34 -20 -36 -8 51 -9 -11 -1 -13 -19 -44 -37 -21 -22 -16 -3 50 -46 -38 -30 -17 -55 -29 57 -57 -23 -40 -2 -62 -7
right_child=2 3 19 7 5 8 10 16 14 39 25 12 13 18 15 53 30 42 34 20 46 58 -24 24 -26 27 -28 28 52 -31 31 32 33 -35 35 44 37 -39 59 -41 -42 -43 43 -45 49 -47 -48 -49 -50 -51 -52 -53 -54 54 -56 56 -58 -59 -60 -61 61 -63 -64
leaf_value=0.0022186552081819829 -0.01731217787891786 -0.014177018990396587 -0.020375772196721799 0.01538938370203807 -0.0093220028769654736 0.01026371810180118 0.03821131478323448 0.0051314209637490704 -0.0068624131791345721 -0.0083022505186323998 0.02317235329185301 -0.0077711219701371501 0.0044258214085802754 0.015379383219185366 -0.0085977728126558073 -0.0060303222685830276 0.008051382816402719 0.0076230210885397543 0.020775756915188359 -0.01777107739693053 -0.0086777058212584163 0.0014612254640893275 -0.0085195251315921521 -0.0033997268168593051 0.047930720400293593 0.025108612461687791 0.12163292750369063 0.092496325004257779 -0.013251572049269994 0.0019221644126082571 0.0038071701411471182 0.022752011491145654 0.05471814676436234 -0.0061886664357742307 0.051078573025244288 0.021822096110142318 0.041918185776118715 0.088682280037600467 0.010883850386777437 0.0026735527518094459 0.023324028354407028 0.012115084030188407 -0.011438525117672068 0.019564809544596971 0.07956697698020862 -0.011113498196776966 0.014305271820548072 0.0080910482174102495 -0.0016820425785752156 0.0010037289782774649 0.020927378806626731 0.062270727151478938 0.033813841295043064 0.091626604009672458 -0.011432331505067349 0.039954066109299476 0.061651002841272347 0.078321110430953342 0.021423487795068349 0.038164501568719332 -0.0065332889973509925 -0.014349488042561009 0.021380614903995503
leaf_count=1025 7234 2177 15845 2219 14689 3557 602 250 6265 3374 957 1086 1491 2158 897 7097 1525 4343 1173 17987 7713 1084 2510 146 561 746 53 91 87 5152 648 3959 520 86 1146 1098 601 201 265 5293 1066 1230 249 4195 187 7831 457 6595 4321 67 81 1269 1012 50 56 1351 855 126 882 3247 7477 9649 2554
internal_value=0 0.663122 -0.257845 0.450563 -0.110683 0.0161813 1.29793 0.592154 0.136615 -0.323884 1.49293 0.432019 0.598574 0.750095 0.0649683 0.134102 0.838794 0.247387 0.896747 -0.525479 -0.455232 -0.0589187 0.0840389 0.666456 1.28107 1.28742 1.86701 1.39731 1.51215 0.202129 0.6647 0.775247 0.865512 1.55577 1.10732 1.29313 1.82189 1.97123 1.13988 -0.051883 0.43853 0.0968979 0.42928 0.594301 0.951741 -0.523888 -0.245149 0.204189 -0.193977 1.67885 2.06945 1.86474 1.00157 -0.178386 1.25724 1.72362 1.6688 1.44367 0.351724 1.20591 -0.425844 -0.363675 0.499372
internal_count=182718 46801 135917 36052 86084 53057 10749 27588 38368 33027 7951 17088 9717 7401 32257 25992 10500 18789 5910 49833 33988 8464 10002 2798 707 5225 2726 4268 3522 7371 6738 5213 4565 606 3752 2579 2673 2071 3762 8667 2091 2316 8787 4444 1433 25818 8170 7492 6498 335 268 1870 1099 7203 106 2423 2332 1477 1966 3512 24360 17126 6111
shrinkage=0.03


Tree=8
num_leaves=64
num_cat=0
split_feature=10 16 8 7 8 34 16 8 0 8 7 7 8 7 8 8 2 8 8 17 16 7 16 7 7 16 7 8 8 7 8 39 2 2 16 2 7 7 33 8 16 7 16 13 7 29 8 7 29 39 17 29 17 49 35 7 8 21 39 29 7 4 39
split_gain=433.343 486.99 172.774 161.51 118.588 101.926 82.7549 79.9871 76.6447 69.3021 67.8989 54.0411 51.4489 72.2994 67.1247 53.7618 44.57 36.6406 64.2376 34.7426 33.9042 32.9141 30.2972 30.0477 26.7014 26.4441 26.2328 30.3859 25.6833 31.7954 24.113 22.5139 22.4423 21.7588 21.7367 21.409 21.353 21.3472 20.5357 20.23 18.2814 19.2764 29.136 17.1502 16.8059 16.3646 15.6988 15.6987 15.4212 15.2993 15.1818 14.9824 14.7925 15.0285 14.7592 14.7192 23.9358 16.9743 14.6936 14.4123 16.5277 14.1985 14.1833
threshold=0.32421744725559565 -0.4650248947330658 0.36924077009556699 -0.73966015558164322 -0.24027496857947372 1.0000000180025095e-35 -0.46169739389104031 0.36924077009556699 1.0000000180025095e-35 -0.46111567952510352 -0.45392977507225069 -0.41535925934474099 0.36924077009556699 -0.082727131710696608 -0.24027496857947372 -0.55608673648144702 1.0000000180025095e-35 -0.24027496857947372 -0.58016561954039314 -1.0957143691467792 -0.46888337975201022 0.20824883893763721 -0.47120555055240249 0.98706469250751483 0.97456784541180175 -0.47749948299614853 -0.26385427356708252 -0.89153636050122687 0.36924077009556699 -0.94454673512617504 -0.045180046695354768 1.0000000180025095e-35 1.0000000180025095e-35 1.0000000180025095e-35 -0.45289013634321118 1.0000000180025095e-35 0.90190099378117317 -0.13086313533862881 1.0000000180025095e-35 -0.76986438951110003 -0.45881591975762676 -0.12068051918656623 -0.45824245684655429 3.3491432611138579 0.90159242965535313 -1.0911423567372547 -0.18318647979090619 0.62573610117220324 1.3582085811840636 1.0000000180025095e-35 0.10974970841612065 -1.0911423567372547 -1.2383358555800992 1.0000000180025095e-35 1.0000000180025095e-35 -0.91708452792818818 -0.34943906095181559 1.0000000180025095e-35 1.0000000180025095e-35 -1.0911423567372547 -0.12268618600439675 1.501842469241311 3.0487675008230628
decision_type=2 2 2 2 2 2 2 2 2 2 2 2 2 2 2 2 2 2 2 2 2 2 2 2 2 2 2 2 2 2 2 2 2 2 2 2 2 2 2 2 2 2 2 2 2 2 2 2 2 2 2 2 2 2 2 2 2 2 2 2 2 2 2
left_child=5 7 3 32 8 12 -7 10 9 16 25 -11 13 19 15 -15 26 18 -12 -1 -17 -6 -21 31 -22 49 27 -5 29 -8 -23 40 45 -31 48 44 37 -20 -36 -28 59 42 -42 -37 -32 -3 -19 -48 -24 -2 -18 -35 -39 -54 -49 -27 57 -57 -4 60 -13 -46 -29
right_child=1 2 58 4 21 6 28 -9 -10 11 17 23 -14 14 -16 20 50 46 36 22 24 30 34 -25 -26 55 39 62 -30 33 35 -33 -34 51 38 43 -38 52 -40 -41 41 -43 -44 -45 61 -47 47 54 -50 -51 -52 -53 53 -55 -56 56 -58 -59 -60 -61 -62 -63 -64
leaf_value=-0.014194309476629068 -0.014332397503224537 0.020082240215219368 -0.0017242429307742634 0.009328914914324065 0.0046549089971498984 -0.0062191878736232156 -0.0028392709323053688 -0.012051942082369623 -0.013730665075177981 0.0077904199167885208 -0.0040812340769768186 0.10325942340336933 -0.012372913466846019 -0.0072218595181757312 -0.0049004104578735134 -0.0017350800270835374 0.0017539087660384462 -0.011752096785928295 0.0091559455479720154 -0.014883620832965941 0.026295011347823558 0.0020769845446696241 0.00073131591701758487 0.012761256245262687 -0.0036281166044144727 -0.0075465674182151965 0.0045245173942920691 0.03278222973109856 -0.0010082971859902291 0.023029973625951675 0.021156220900510458 0.055038029458835125 -0.0013661571435141812 0.037005000831922027 -0.0083616411740558578 0.0082102077059078241 -0.0071336512813116879 -0.0048253580928887844 0.017311814422068694 0.024848314214107239 0.097095502346678422 0.04564382685354184 0.020379935256673084 0.05658214027353721 0.035887622659508858 0.0064085963196859027 -0.0022381901360165007 0.0046052443550592733 -0.013305477032288375 0.0032581847874409639 0.01586775708904363 0.0043347244851049448 0.029983234377520953 0.0026839750905089305 0.029509885298015303 0.0014945847748514926 -0.014458773289551159 0.019557490007983347 0.011052509901580883 0.024853615571961699 0.037762144332848115 0.081421248950545935 0.074529927216050035
leaf_count=9684 5420 1110 10409 666 5852 7034 1097 11860 625 809 2727 50 20154 1556 9807 921 1381 1459 1593 4444 2636 972 8501 533 411 3799 985 3383 1916 2903 1287 751 4279 174 13974 1345 397 185 398 1186 57 2272 677 87 592 8598 4959 1313 1077 690 2203 1508 2168 259 357 2282 845 844 1212 1681 187 88 89
internal_value=0 0.16664 0.387074 0.490062 0.642512 -0.191072 0.0842345 -0.139295 0.812259 0.853692 -0.0385104 1.11203 -0.249123 -0.189308 0.0242432 0.342771 0.663513 0.126453 0.308822 -0.277132 0.564054 0.332643 -0.212244 1.21803 0.744644 -0.226885 0.838507 1.0004 0.339819 0.456037 0.565058 1.28929 0.172604 0.583966 -0.160239 0.705817 0.563851 0.637864 -0.254406 0.52773 1.2047 1.36958 0.880466 0.374118 0.945664 0.267626 -0.0460217 0.029827 -0.0271556 -0.411109 0.350033 0.260558 0.832632 0.904284 0.336 -0.0861723 0.0677162 0.213068 -0.0126301 0.9423 1.71871 1.39318 1.12896
internal_count=182718 94523 53366 41745 27758 88195 14632 41157 17535 16910 29297 7017 73563 53409 15331 5524 9893 15417 7329 38078 3968 10223 28394 6208 3047 13880 6309 4138 7598 5682 4371 5675 13987 4585 23950 3399 4602 4205 14372 2171 4924 3006 734 1432 1967 9708 8088 6629 9578 6110 3584 1682 2612 2427 1670 7770 3971 3126 11621 1918 237 680 3472
shrinkage=0.03


Tree=9
num_leaves=64
num_cat=0
split_feature=37 37 37 15 15 11 15 37 8 8 37 2 33 11 15 8 8 11 15 8 8 37 37 10 37 8 15 14 36 36 37 11 14 26 37 23 15 37 26 8 25 14 36 15 29 8 37 15 11 8 8 8 28 37 14 15 29 15 8 23 13 14 4
split_gain=2141.46 448.163 368.635 179.567 156.531 145.427 95.4497 71.7439 68.8905 66.3026 44.7926 44.2157 41.0501 38.795 47.5988 37.128 38.3144 36.7712 32.4906 32.2185 32.0282 28.6623 28.4816 26.8424 26.2928 25.9254 23.5058 23.0429 21.3276 22.7439 21.2274 21.1723 21.1711 20.4478 19.2892 18.6251 20.761 18.3662 19.943 17.9711 17.7516 27.8913 17.7313 17.6784 17.6297 17.2735 16.9063 16.4123 16.1664 17.7183 21.5031 15.5804 15.5294 25.1419 16.4579 15.3245 14.8921 14.5633 14.3742 18.5641 14.0169 13.9459 21.6037
threshold=-0.60472197310728004 -1.8908207956975713 0.73999726528610343 -0.90638508209123603 -0.28564423538571998 -1.3031470219031831 -0.4893498879221555 -1.3341442897728009 0.36924077009556699 -0.90922746508319141 -2.3965549242304798 1.0000000180025095e-35 1.0000000180025095e-35 -1.3031470219031831 0.43179378271504454 -0.22260211479315781 -0.48037635253284061 -1.3031470219031831 0.26520884526398875 0.36924077009556699 -0.95590083315500396 -2.6355212449386776 -0.28524110345379317 0.32421744725559565 0.19466931656552153 0.36924077009556699 0.59906614081582965 -1.3415430090223368 0.49214320390442312 -0.8760254448012762 -0.2300160048111313 1.0000000180025095e-35 -0.35632714142230598 1.0000000180025095e-35 0.15877624479537925 1.0000000180025095e-35 -1.7473296769266897 1.1213056580586576 1.0000000180025095e-35 -0.723872384476832 1.0000000180025095e-35 0.64309108046372565 -0.19194112044842657 1.3813508402077204 -1.0911423567372547 -0.78751899250176738 -2.6628984725406659 -0.8862207430325113 -0.53246985480030318 -0.58777011772727616 -0.24027496857947372 -1.1348803024814804 -0.74114501809186617 -1.4471232014964632 -0.15336390491675786 0.94575528849595003 1.0000000180025095e-35 1.6854199076046272 -0.78751899250176738 1.0000000180025095e-35 2.3043218630459115 0.48501742804071452 1.0000000180025095e-35
decision_type=2 2 2 2 2 2 2 2 2 2 2 2 2 2 2 2 2 2 2 2 2 2 2 2 2 2 2 2 2 2 2 2 2 2 2 2 2 2 2 2 2 2 2 2 2 2 2 2 2 2 2 2 2 2 2 2 2 2 2 2 2 2 2
left_child=1 6 4 45 24 -6 21 12 9 43 33 22 19 -9 25 16 27 -4 -19 20 -5 -1 -11 55 -2 -15 42 -12 29 52 -10 -14 -18 46 44 36 -23 38 -20 -33 51 -42 -24 -7 -13 -3 -8 -26 -48 -50 -51 -29 53 -25 -55 56 -22 -35 -58 -60 -32 62 -34
right_child=2 3 17 7 5 8 10 13 30 11 15 34 31 14 -16 -17 32 18 37 -21 23 35 26 28 47 -27 -28 40 -30 -31 60 39 61 57 -36 -37 -38 -39 -40 -41 41 -43 -44 -45 -46 -47 48 -49 49 50 -52 -53 -54 54 -56 -57 58 -59 59 -61 -62 -63 -64
leaf_value=0.062603593064536792 -0.0058106604055233272 -0.0082676996671072808 -0.020070605159051482 0.0098757912654785368 -0.0091297160182103824 -0.0067528029641245229 0.070273717156483381 0.0025147816087397047 0.0071047670375950934 0.022814381880751074 0.082044729110375761 0.025658419105398438 0.018038051660672832 0.012109487508323111 0.02067255483725668 0.023522482983975943 0.043489336553728893 -0.015872163015003989 -0.0070261805617052213 0.008088042950161186 0.0022681366699525544 -0.010640527612183554 0.011750489647657281 0.036944420119123959 -0.015133264528663426 -0.0036495302369511763 0.014942117213327274 0.0074622460333872362 0.044535818474718963 0.015604096488637999 -0.0087375288648969054 0.03251458939451296 0.061707661233521394 0.065958369756474247 -0.0019229568718745862 0.004363649506614894 0.026328974564308577 -0.01602796944798817 0.017154883839362773 0.063177518125754076 0.015708978254728563 0.078774093829867067 -3.1016724225374701e-05 0.0071782545445085392 0.0053032176154373546 0.0022410037351809518 0.022302412184430347 -0.0083344433544794948 0.033645275089585182 0.078302928780558875 0.04251923727759855 0.042458623119657091 0.027894730965898621 0.13020582892605304 0.057129227631402581 0.030345552660200684 -0.010044674838482056 0.022318134176903585 0.05035333693019052 -0.0031471208540255085 0.010205756274952456 0.044319572274891562 0.10863755310784309
leaf_count=151 14392 3071 15845 1370 14689 5029 201 3493 1471 2433 93 567 286 5133 7549 1628 477 22843 7719 1695 817 197 2831 435 10819 1610 6081 144 1085 1020 6857 329 208 883 4729 804 1940 2992 434 461 739 75 3259 1378 3210 5393 337 7816 517 245 374 1396 1085 52 76 635 97 72 261 99 523 123 145
internal_value=0 0.62893 -0.251122 0.429642 -0.10775 0.0128514 1.21126 0.55967 0.128119 0.209369 1.39459 0.296994 0.794301 0.424604 0.503838 1.2096 1.3956 -0.515228 -0.445427 0.713974 0.813031 0.682501 0.416073 0.923631 -0.313443 0.283423 0.343705 1.17246 1.08685 0.923535 -0.162504 1.41217 1.92162 1.72576 0.0911397 0.601987 0.772146 -0.280562 -0.189276 1.68656 1.1081 0.716301 0.182454 -0.122491 0.279111 -0.0503425 1.51022 -0.407583 1.38653 1.56233 1.92025 1.31393 1.16574 1.61831 2.92238 0.58606 0.359212 2.08779 0.866245 1.18841 -0.245897 2.38298 2.69618
internal_count=182718 46801 135917 36052 86084 53057 10749 27588 38368 29517 7657 23110 9803 17785 14292 5028 3400 49833 33988 8727 7032 3092 14604 5662 33027 6743 12171 2447 3753 2668 8851 1076 953 2629 8506 2941 2137 11145 8153 790 2354 814 6090 6407 3777 8464 1674 18635 1473 1136 619 1540 1648 563 128 1909 1274 955 457 360 7380 476 353
shrinkage=0.03


Tree=10
num_leaves=64
num_cat=0
split_feature=42 8 1 16 16 7 27 1 27 7 16 14 27 8 8 16 16 16 14 8 41 16 0 27 7 8 27 8 7 35 5 7 27 5 16 27 16 8 7 13 17 5 8 7 8 16 16 8 42 7 42 0 41 13 17 41 35 8 7 7 7 14 16
split_gain=419.737 330.535 284.223 160.697 188.118 136.499 89.1289 74.9389 67.3404 59.774 48.8104 51.0376 43.7655 40.4936 48.0308 40.0465 40.0094 40.8729 36.6316 30.3475 34.7212 29.7453 29.1987 27.6577 25.669 35.7232 24.9635 22.6999 28.1415 23.8981 23.5618 22.3996 22.2478 22.0768 21.1352 23.6546 20.7207 20.6232 20.8762 19.9808 19.4008 21.6555 19.1954 26.7646 18.6971 18.5048 25.048 18.0562 17.9414 17.9094 17.5156 17.3839 16.7531 16.7306 21.8221 16.722 16.1431 16.0334 24.5818 22.4632 15.5493 15.5156 15.5134
threshold=-0.23865481613821457 0.36924077009556699 1.0000000180025095e-35 -0.45199100313696172 -0.46663908663089942 -0.72855184705212028 1.0000000180025095e-35 1.0000000180025095e-35 1.0000000180025095e-35 -0.41535925934474099 -0.47394542890530428 0.8051138569101397 1.0000000180025095e-35 -0.24027496857947372 -0.55706011224936802 -0.46794884760063288 -0.46303547401687606 -0.45238039153336895 1.0000000180025095e-35 -0.24027496857947372 1.0000000180025095e-35 -0.47965881864895227 1.0000000180025095e-35 1.0000000180025095e-35 0.057978109663259066 -0.60365439354003703 -1.0570919670226249 0.24663800852736559 0.5155787082544353 1.0000000180025095e-35 -0.03745491824212982 -0.313224533698295 -1.0570919670226249 -0.02433580908836944 -0.48401288889968774 1.0000000180025095e-35 -0.47274894455998023 -0.73420233481389385 -0.98589432798606558 2.3043218630459115 0.020824359305305729 0.21992479546916568 0.48080180029641434 -0.82297246955306436 -0.54328684513328562 -0.45745660026471424 -0.45310960980300435 0.97625006616821108 1.1653131031134427 -0.31569304670485571 1.0733289980590237 1.0000000180025095e-35 1.0000000180025095e-35 3.3491432611138579 -0.11327393072761645 1.0000000180025095e-35 1.0000000180025095e-35 -0.24027496857947372 0.77878390757896199 0.97456784541180175 1.0713026988563963 -0.025687638325263433 -0.46190270777278231
decision_type=2 2 2 2 2 2 2 2 2 2 2 2 2 2 2 2 2 2 2 2 2 2 2 2 2 2 2 2 2 2 2 2 2 2 2 2 2 2 2 2 2 2 2 2 2 2 2 2 2 2 2 2 2 2 2 2 2 2 2 2 2 2 2
left_child=7 2 3 4 34 23 9 12 10 37 -7 19 39 14 31 -3 47 26 -17 20 24 -10 62 55 40 -26 -18 -21 -29 30 -30 49 -16 60 -2 50 -25 38 -6 51 -12 -42 43 -28 -5 -22 -47 -9 -23 -11 -36 -1 -39 -14 -55 -4 -34 -45 -59 -60 61 -27 -8
right_child=1 15 5 44 6 8 22 16 21 13 11 -13 53 -15 32 18 17 -19 -20 27 45 48 -24 36 25 33 42 28 29 -31 -32 -33 56 -35 35 -37 -38 52 -40 -41 41 -43 -44 57 -46 46 -48 -49 -50 -51 -52 -53 -54 54 -56 -57 -58 58 59 -61 -62 -63 -64
leaf_value=-0.011131189345443699 -0.010625285110053012 -0.013020758223947916 7.1880743358431203e-05 -0.012266236770856177 0.00118891938175673 0.0030729446599478279 0.014719714274914626 -0.0044170986189964187 0.00050641142027741933 0.016961628145023125 0.011144803930495393 0.0055263277418908111 -0.00245947703411129 0.0061572559539133697 0.0050244160678650073 0.00023090868778076454 -0.0097405286600926004 -0.01020591496749681 -0.0097448051911368551 0.0082279738673745693 0.031014312985058259 0.031929662339027116 0.003211065480338623 -0.013174344121290692 0.00426813356294415 0.064762180852757076 -0.0025692699859921437 0.011615105513498151 0.059691022387614305 0.064987468923076289 0.013907491092561222 -0.00050617673868845838 0.024864105338682278 0.028561772482807876 -0.0010404756433747061 0.010441097585546554 0.022842843676958983 -0.0056652759512236346 0.012062202040731305 0.001109955258676389 0.026972800657709281 -0.0018404463200789787 -0.0015901016794766687 0.021403492530430227 -0.0037987160500856615 0.084652668631737399 0.02878596742020751 -0.016113816123318584 0.051376631507524251 0.07404445861250783 -0.012445822227356273 -0.021029113686471902 0.017010149634730534 -0.026861181570701585 0.04621275956041828 0.017657689794217824 0.041809641898915749 0.0010867214715950967 0.075178567568735019 0.015506437670845903 0.0071378327292672614 0.0325278238478185 0.030304467547518428
leaf_count=35204 5092 9208 7190 7708 5025 2550 869 9473 286 524 1965 2637 6062 5148 532 10828 1042 2293 8036 2556 372 2319 687 218 409 495 1190 1046 170 234 453 1577 2581 1072 5963 1499 1181 3923 3427 1551 2888 314 1679 2406 6068 210 141 2070 573 66 2229 2462 416 65 171 669 747 1354 103 248 77 209 2958
internal_value=0 0.128997 0.234604 0.0797797 0.182501 0.505817 0.346795 -0.2383 0.657466 0.256727 0.570077 0.641931 -0.326657 0.444459 0.634361 -0.227792 -0.0623842 0.1013 -0.130872 0.730488 0.851895 1.10056 0.783417 0.139897 0.781406 1.07942 0.220727 0.493558 0.783152 1.24453 0.880079 0.207767 0.860943 1.27142 -0.15841 -0.0595672 0.587313 0.0872609 0.19043 -0.374774 0.645605 0.808046 0.295744 0.398363 -0.283277 1.55803 2.11557 -0.214022 1.19637 0.786234 -0.139525 -0.39246 -0.115173 -0.0432417 0.88393 0.0541285 0.959798 0.531798 0.260097 1.10365 1.69093 1.84118 0.894799
internal_count=182718 115345 87273 57039 43263 30234 28480 67373 20976 23966 17798 15248 45515 11175 6027 28072 21858 10315 18864 12611 8152 3178 4514 9258 7429 2262 8022 4459 1903 857 623 2167 3860 1853 14783 9691 1399 12791 8452 39217 5167 3202 6980 5301 13776 723 351 11543 2892 590 8192 37666 4339 6298 236 7859 3328 4111 1705 351 781 704 3827
shrinkage=0.03


Tree=11
num_leaves=64
num_cat=0
split_feature=11 16 16 27 8 0 8 6 6 27 8 6 16 8 6 18 27 6 27 8 6 18 14 6 39 18 33 16 10 6 17 8 26 6 6 6 16 18 17 6 6 18 16 18 18 17 18 14 18 18 17 17 16 0 18 6 8 6 16 16 16 18 6
split_gain=401.084 306.694 502.758 197.529 135.99 80.039 71.933 74.9749 69.2558 64.9731 64.3768 86.9613 61.2924 54.3455 73.7774 43.7942 43.4606 41.091 37.9385 31.8298 37.2608 31.612 29.8779 26.965 26.6004 25.5291 23.1036 22.5381 22.2784 21.2219 21.1885 23.2732 20.6437 20.1203 20.7622 20.0258 19.2502 19.2478 19.1402 21.4046 18.2969 18.1976 18.0939 17.761 21.6357 17.5954 17.1734 17.0217 19.8962 19.6225 16.7699 16.5827 16.5357 16.4083 16.3433 15.8741 14.6435 16.8114 16.0786 14.9136 14.5997 14.4424 14.4287
threshold=-1.3031470219031831 1.0000000180025095e-35 -0.4650248947330658 1.0000000180025095e-35 0.36924077009556699 1.0000000180025095e-35 0.36924077009556699 -0.78365685138169106 -1.1003349156441342 -1.0570919670226249 -0.24027496857947372 -0.24500150167492765 -0.46846567219950064 -0.24027496857947372 -0.64789301080481321 1.5785600715087627 1.0000000180025095e-35 0.32186306587317776 1.0000000180025095e-35 -0.24027496857947372 -0.3387753742852791 -0.7148279441707871 0.8051138569101397 0.13585085804486771 1.0000000180025095e-35 0.41099298580308014 1.0000000180025095e-35 -0.45858228671978241 0.71737090841598794 -1.0418337328801321 -0.77438986485178996 -0.64819241852097309 -1.0862276046145092 -0.71297746115292904 -0.70868354022656488 -0.41530655792214205 -0.48641293737936142 0.081662201696539788 -0.59057292914988169 -1.0461946590745279 -0.059720768022630252 -0.86723454446154025 1.0000000180025095e-35 0.49448529726671014 0.6667710193345181 -0.49681776874550826 0.61442266532160716 -0.56160912964801768 -0.93681147068123183 0.26918858379342298 0.73421589801858467 0.056053571093615799 -0.49985745673894949 1.0000000180025095e-35 -0.23375319716606224 0.5180879933039847 -0.27577276611584317 -0.22374408039187368 -0.45713800975856284 -0.46253280899605947 -0.47989245168679662 -0.76850157296883492 -0.85704995496573655
decision_type=2 2 2 2 2 2 2 2 2 2 2 2 2 2 2 2 2 2 2 2 2 2 2 2 2 2 2 2 2 2 2 2 2 2 2 2 2 2 2 2 2 2 2 2 2 2 2 2 2 2 2 2 2 2 2 2 2 2 2 2 2 2 2
left_child=12 2 6 4 5 8 7 45 -4 -10 11 15 -1 14 29 24 19 26 28 20 53 62 40 -21 33 -7 -12 -26 54 -5 -16 -32 -6 61 -35 -33 37 -18 -17 -40 -22 -8 -20 47 -45 -2 -15 -13 -49 -50 -27 -25 -53 -9 -14 -34 -37 -58 59 -59 -43 -11 -3
right_child=1 21 3 13 32 25 41 16 9 10 17 43 18 46 30 38 36 -19 42 23 22 -23 -24 51 27 50 -28 -29 -30 -31 31 35 55 34 -36 56 -38 -39 39 -41 -42 60 -44 44 -46 -47 -48 48 49 -51 -52 52 -54 -55 -56 -57 57 58 -60 -61 -62 -63 -64
leaf_value=-0.015613503010794077 -0.014632364481190497 -0.016313242475347652 -0.0020510484728851852 0.010714291857306792 -0.01291663170781826 -0.0092381043387891396 -0.017679834196323262 0.0024482234403143273 0.00027324170567379855 0.00073862187047048103 0.0021348246445670118 0.016353895033232459 -0.015051042611193831 0.0086143538573207595 0.015677899016579937 0.010128888338268326 -0.014072170080315884 0.020388094678719628 0.0062265493547713092 -0.0094185224567584474 0.015372314669800751 -0.0033476416651626417 -0.0088312054576221276 -0.0039208051106967299 0.012920366989517439 0.00011201966292910812 0.022107336570495593 0.035184065524862584 -0.0044963672116884795 0.027399437292764707 0.079423880337660513 0.026158086180723853 -0.011510820392088282 0.041548284961363459 0.015873222288160925 0.067890882967846747 0.018360675062477468 0.017302065280977535 0.10400706968060933 0.036185798906870355 0.038157889920993317 -0.013149741718385247 -0.014194408423052637 0.077230435521586649 0.038644116102516876 -0.0052138519745269212 0.023974921894074411 0.012851313015479298 0.050971231845683834 0.0045142503208655841 0.017611927941214835 -0.018668886876985646 0.012265231074728307 -0.015838153000742896 -0.0075442860107674398 0.0018216577158268769 0.027318546699880607 0.079311339829136518 0.073335152587766905 0.029313680684349457 -0.0045518153998468898 0.011861131975757727 -0.0089611684509594298
leaf_count=14335 3613 5073 3121 1204 1858 2458 3332 6481 3326 1754 5946 727 7249 2087 215 313 510 2479 3306 5099 1786 11250 514 2632 840 1926 709 1148 11167 2333 205 417 1241 354 5734 331 2523 424 53 1121 500 4352 652 163 1159 7874 1256 272 661 106 944 246 2005 686 7752 8536 340 73 231 239 6285 5441 11751
internal_value=0 0.0932086 0.175079 0.381908 0.294702 0.386646 -0.111052 -0.0242616 0.444925 0.491596 0.542411 0.650029 -0.313504 0.841265 1.0348 0.54795 0.093052 0.29291 -0.219746 0.0251267 0.168718 -0.265881 0.514906 -0.124499 0.491918 -0.0301216 0.145836 0.86232 -0.273343 0.731636 1.51184 1.6199 -0.0621923 0.435291 0.578945 1.49316 0.457008 0.00786825 1.10821 1.30405 0.682489 -0.343579 0.105852 1.15861 1.4451 -0.270488 0.484351 0.937204 1.21208 1.48551 0.197184 0.0716844 0.30158 0.0263465 -0.370007 0.00382167 1.6958 1.48058 1.81977 1.34769 -0.267144 0.307967 -0.371661
internal_count=182718 138257 110183 61321 52390 40755 48862 34893 35427 32306 28980 19846 44461 8931 5588 16758 23406 9134 30126 19949 9967 28074 2800 9982 15271 5328 6655 1988 26168 3537 2051 1836 11635 13283 6088 1631 3457 934 1487 1174 2286 13969 3958 3088 1322 11487 3343 1766 1039 767 2870 4883 2251 7167 15001 9777 1214 883 543 312 10637 7195 16824
shrinkage=0.03


Tree=12
num_leaves=64
num_cat=0
split_feature=15 11 16 1 2 14 42 44 15 16 42 42 44 42 16 15 16 18 2 18 6 42 16 39 6 7 0 14 7 1 6 7 7 7 1 39 16 15 7 16 2 1 42 6 16 6 7 21 36 7 18 18 10 13 18 15 36 42 6 18 18 18 42
split_gain=495.947 466.607 203.905 198.623 127.537 99.1794 85.6892 67.8354 58.5873 60.7721 57.2908 56.6078 47.4972 47.0259 46.3933 39.5104 46.4663 39.1475 32.9681 32.0653 31.0767 29.9272 28.7554 28.7389 23.6596 22.8403 22.8158 22.5031 22.1917 21.7481 21.4358 21.3901 21.0171 20.8923 20.7214 19.9021 22.8477 19.148 19.0823 18.7688 18.3715 22.433 18.2876 18.1933 18.1744 20.7276 19.9444 18.0267 17.717 17.6809 17.5037 17.5037 22.5461 17.3026 16.9379 19.2877 16.2429 20.3883 15.9346 17.2862 15.9039 15.4616 15.4485
threshold=0.28789372670505409 -0.53246985480030318 -0.46360893692794858 1.0000000180025095e-35 1.0000000180025095e-35 0.8051138569101397 -0.23865481613821457 1.0000000180025095e-35 -0.89263666909665096 -0.46450099034517239 -0.15151197977087036 -0.48555951917902318 1.0000000180025095e-35 -1.0338331979902304 -0.46794884760063288 -1.374060264123705 -0.47353480114182028 0.72574574727311381 1.0000000180025095e-35 -0.021709231544144923 0.89652257960230319 -0.34758336159739484 -0.49316705610977057 1.0000000180025095e-35 -1.2099611179163168 1.1351754729011525 1.0000000180025095e-35 1.4616828986726433 -0.72207200040989872 1.0000000180025095e-35 0.18592612835388475 0.14159898776050031 -0.97077468582088178 0.85283929777578071 1.0000000180025095e-35 1.0000000180025095e-35 -0.46098233519945614 0.39811017087831108 -0.63845112231265755 -0.45547425933755009 1.0000000180025095e-35 1.0000000180025095e-35 -0.91280148081336365 0.0739714930176011 -0.46684440051264142 -0.74098566319017589 0.74391616136129313 1.0000000180025095e-35 1.2250906942824764 0.66492374515135311 1.0703171914087297 1.6872326038899954 0.71737090841598794 2.3043218630459115 1.389045777234174 0.97141899275250876 0.58986953595483027 0.68239655157774315 -1.0083031800026068 -1.2098180764194504 0.031964397253902904 1.6415106238027695 0.23457919802333529
decision_type=2 2 2 2 2 2 2 2 2 2 2 2 2 2 2 2 2 2 2 2 2 2 2 2 2 2 2 2 2 2 2 2 2 2 2 2 2 2 2 2 2 2 2 2 2 2 2 2 2 2 2 2 2 2 2 2 2 2 2 2 2 2 2
left_child=3 12 13 8 10 6 29 54 44 23 38 -11 -2 -3 -14 -12 -17 20 35 40 32 -6 -23 -10 -19 33 30 28 61 -4 31 -24 -9 48 42 47 -37 -34 -5 -35 41 -15 -16 -40 -1 -46 62 53 56 -33 -38 -36 -53 -13 -8 -56 -18 -58 -39 -60 -45 -21 -47
right_child=1 2 5 4 21 -7 7 17 9 11 15 18 14 19 34 16 25 24 -20 27 -22 22 26 -25 -26 -27 -28 -29 -30 -31 -32 49 37 39 51 36 50 58 43 -41 -42 -43 -44 60 45 46 -48 -49 -50 -51 -52 52 -54 -55 55 -57 57 -59 59 -61 -62 -63 -64
leaf_value=-0.018565221390541162 -0.012181566928614955 -0.0078100542174369784 0.0032928645392071472 -0.011805596479193613 -0.0098765096656033523 0.00074849851894267215 0.0085150725903798217 0.010954881682343388 -0.01116631867653366 -0.01055434866618876 -0.00058028230895749186 0.00054451968307450444 -0.011493975581529229 0.0012014144770562992 -0.014125605933432881 0.0016671103463984126 0.023952078930336948 -0.0013303535377742412 -0.0078885628891789735 -0.0015970855299070768 0.0033786063591600638 -0.020259020661457496 0.0033660574770299329 0.0023922829710669373 0.033736979885646834 0.0023820256239483134 -0.016051212982256091 -0.015932779710322389 0.016892584654575653 0.015565639420960361 -0.0035010573238741646 0.029554623063522436 0.0090770063045192157 0.034241733018253631 0.0060009256355895574 -0.0111319089536237 0.015518136063825383 0.0048042316415046783 0.013190020199073714 0.096867926407038965 -0.0040131602241406505 0.015882488044150597 -6.1866886262098574e-05 -0.011518192333809818 -0.015309976238366944 -0.01054425785466963 -0.016420645544540285 0.013766848662772299 0.01034703791853802 0.0024719450512834021 0.046774706453329915 0.097055494652071722 0.00093797526095118879 0.032044226238412625 0.054589512942592747 0.017173465807045176 0.022143187295914427 0.058930186983475116 0.0085499800606466583 0.029437975126667112 0.0080932570903677458 0.035901506414010048 -0.0029608799776292402
leaf_count=5078 8855 3816 3792 1199 7018 3763 3815 1249 20076 5772 1560 7085 5264 4070 1363 1516 2879 217 2804 1397 973 864 3717 2212 5199 557 866 345 4471 2874 3877 733 686 155 4111 233 592 326 1565 83 3855 1720 8125 1144 9916 7219 3602 1722 885 426 316 56 53 206 170 942 308 347 448 6190 949 140 6952
internal_value=0 0.209108 0.404147 -0.174776 0.070027 0.574658 0.644487 0.7501 -0.283678 -0.191333 0.337552 -0.0390984 -0.180656 0.111831 -0.0777167 0.514394 0.628615 0.85817 0.0913877 0.19567 0.729083 -0.1378 -0.0166943 -0.326855 1.08214 0.780504 0.0385226 0.39048 0.439232 0.290577 0.0930479 0.246446 0.787772 0.857703 0.0303759 0.18644 0.634228 0.851181 0.0145241 1.88653 0.061856 0.190645 -0.0655972 0.14633 -0.406716 -0.367962 -0.290078 0.128854 0.804284 0.660525 0.892656 0.238391 1.63084 0.0489843 0.394596 0.766117 0.911006 1.4029 0.90236 0.936777 -0.0849409 0.0625761 -0.22592
internal_count=182718 78285 50458 104433 30648 30644 26881 20215 73785 41018 13147 18730 27827 19814 18972 8290 6730 15288 12958 15998 9872 17501 10483 22288 5416 5214 9619 6353 6008 6666 8753 4876 8899 4657 13708 10154 1141 7650 4857 238 9645 5790 9488 3658 32767 27689 17773 9013 4419 1159 908 4220 109 7291 4927 1112 3534 655 6964 6638 2093 1537 14171
shrinkage=0.03


Tree=13
num_leaves=64
num_cat=0
split_feature=37 37 37 36 37 8 7 11 20 8 8 18 33 37 11 8 7 7 8 11 20 7 7 8 37 14 8 7 14 8 8 7 7 41 37 8 14 12 8 18 34 41 21 29 14 29 11 7 18 7 8 8 18 8 18 40 18 5 8 14 8 41 36
split_gain=1916.4 479.283 254.682 119.16 103.651 71.8534 151.965 64.6957 59.9379 50.516 54.8634 39.6991 38.6749 37.8942 33.9684 33.6164 51.7657 32.7617 30.6138 28.1931 31.5859 28.0854 25.6165 43.7198 25.3478 24.954 24.6957 30.352 29.5166 24.2538 22.148 23.0841 22.0647 22.0271 21.1496 20.4417 20.2356 23.2777 18.8968 18.7855 18.6521 18.5845 17.8315 20.5816 18.0599 17.3996 16.1776 17.8536 17.3813 16.0373 17.6578 19.4532 15.8676 15.8579 16.4474 18.6734 15.7643 15.151 18.4836 15.0476 15.0048 14.7681 16.3923
threshold=-0.28524110345379317 -1.8908207956975713 0.73999726528610343 1.2739538603076801 -1.3341442897728009 0.36924077009556699 -0.12654323757714772 -1.3031470219031831 1.0000000180025095e-35 -0.24027496857947372 -0.44135006783775738 -0.798320255634417 1.0000000180025095e-35 -2.6355212449386776 -1.3031470219031831 0.36924077009556699 -0.73472312956852193 0.93584304762138182 -0.16936454388642777 -0.53246985480030318 1.0000000180025095e-35 0.19220350439499315 -0.74367148921730419 -0.24027496857947372 -2.4249707171861963 -1.2432134438891598 0.81019216016088591 -1.0408187423820394 -1.2331775966003278 -0.24027496857947372 -0.55706011224936802 -0.27341976146750496 0.69516302948172082 1.0000000180025095e-35 1.0683891740340405 0.076491924294772126 -0.19673180818293803 1.0000000180025095e-35 -0.8025393973204985 -1.0375323543516426 1.0000000180025095e-35 1.0000000180025095e-35 1.0000000180025095e-35 1.3582085811840636 0.20803528896807685 1.6643774484242286 1.0000000180025095e-35 -0.37987438487543196 -0.77844113385736236 -0.82667523906290519 -0.24027496857947372 -0.90922746508319141 1.6600644707946872 -0.9888739372933284 1.3976600633375644 0.90634081318783377 1.5122963322519134 -0.10001243467120426 -0.28700917263678144 -0.66330813087455709 -0.84862265633300915 1.0000000180025095e-35 1.3228170263328836
decision_type=2 2 2 2 2 2 2 2 2 2 2 2 2 2 2 2 2 2 2 2 2 2 2 2 2 2 2 2 2 2 2 2 2 2 2 2 2 2 2 2 2 2 2 2 2 2 2 2 2 2 2 2 2 2 2 2 2 2 2 2 2 2 2
left_child=1 8 5 4 12 6 19 -6 24 10 -8 -9 22 -10 -4 16 -13 -12 -11 -2 -21 -20 -3 25 35 -24 27 -15 -29 30 31 53 -31 49 61 -1 56 41 -5 -23 -41 45 43 57 59 -38 -14 -48 -49 -22 51 -51 -32 -18 -55 -56 -30 58 -27 -44 -53 62 -16
right_child=2 3 14 38 7 -7 9 11 13 18 17 15 46 26 34 -17 29 -19 21 20 33 39 23 -25 -26 42 -28 28 36 32 52 -33 -34 -35 -36 -37 37 -39 -40 40 -42 -43 44 -45 -46 -47 47 48 -50 50 -52 60 -54 54 55 -57 -58 -59 -60 -61 -62 -63 -64
leaf_value=0.022546659098216057 -0.012298481985414852 0.0097907088115302965 -0.019522905100862534 -0.0083011323700926797 -0.0010417204832118944 -0.010458248375688565 -9.867439109447626e-05 0.0035085786606208064 0.057729871092379474 -0.013551063023158167 0.022017418457557333 0.0071126793980295002 0.017464575838771208 0.020961038716662165 -0.010074441559136327 0.0043368618953485817 -0.0086221507765095341 -0.0033399143528176447 -0.0056623758470954128 -0.011859593619168473 -0.0078744011198759924 -0.0069514211486820521 0.080111856072407422 0.014353809073153985 0.0079915288529187663 0.022338817891686655 0.019566421221066339 0.063979096789408524 0.028531860389890789 0.0092372457109179112 0.027920918234255555 0.004861088124135062 0.029815556133113163 0.0082662876125444949 -0.0167201988865581 0.067930602494293224 0.032178764806800916 0.055863956653303085 0.0022900974012769115 0.0062960398682871573 0.022044429499528513 0.061604612454631245 0.033702907701343002 0.062239587193441664 0.016126428286580785 0.082361801632208825 0.030425359329272657 0.10211546904838792 0.050258317771143923 -0.012822027520043354 -0.008437839587748441 0.012248821301453883 0.052521246508464799 0.022021205676288558 0.036626978153895401 0.10181442788224065 0.049371529519919945 0.01255891700978512 0.051910157793949273 0.065562824374687717 0.00048141981903308551 -0.00064457231823225809 -0.018543762337661061
leaf_count=417 8605 2409 15845 3394 5952 19461 2804 5247 612 1621 4141 4791 283 1091 15626 3497 144 674 2978 6895 7999 913 93 3706 1393 813 1023 372 2431 2798 2655 957 688 1894 12743 146 1780 820 6129 3485 1158 241 261 130 198 63 388 74 332 1021 3193 1645 281 1433 291 52 360 901 256 299 5197 1717 3902
internal_value=0 0.498705 -0.283471 0.337588 0.417691 -0.147953 -0.0809076 0.307033 1.10592 0.189632 0.402051 0.388485 0.710061 1.20728 -0.499819 0.466385 0.538009 0.621949 0.01569 -0.221217 -0.164551 0.102827 0.634658 0.741331 0.530289 1.02873 1.14678 1.20877 1.2919 0.682215 0.81115 0.597097 0.448959 -0.0970413 -0.432554 1.15477 1.23486 1.41857 -0.0466358 0.254863 0.347575 1.24 0.973749 0.817392 1.4001 1.13096 1.29315 1.51904 1.98167 -0.134732 -0.0466019 0.0426663 1.01037 0.809027 0.894936 1.54971 1.04376 0.733748 0.995762 1.69182 0.110437 -0.359318 -0.389293
internal_count=182718 59201 123517 48452 38929 73684 54223 28786 10749 17774 7619 22834 10143 8793 49833 17587 14090 4815 10155 36449 27844 8534 9066 6657 1956 2951 8181 7158 6067 9299 5813 2877 3486 20949 33988 563 5695 2904 9523 5556 4643 2084 2858 2100 758 1843 1077 794 406 19055 11056 7863 2936 1920 1776 343 2791 1970 1069 560 6842 21245 19528
shrinkage=0.03


Tree=14
num_leaves=64
num_cat=0
split_feature=42 10 8 7 18 1 2 8 1 8 44 44 44 26 7 8 8 1 8 18 8 8 7 18 13 39 26 18 1 8 33 12 7 38 18 44 36 30 26 26 14 18 12 46 2 42 18 7 26 7 13 7 7 42 42 26 13 33 14 18 28 26 8
split_gain=359.219 288.842 194.7 138.269 85.862 83.4748 90.6863 83.06 67.3995 51.9855 47.9825 44.7707 37.9823 37.8116 34.4696 32.233 51.1406 28.4841 27.9274 27.8128 25.1709 30.4769 26.7987 23.9693 23.6482 22.1625 22.0116 25.0802 21.7968 21.669 21.1669 20.8257 20.1442 19.0774 18.8445 18.7127 18.0108 17.9724 17.8092 17.7203 17.6889 17.6814 17.1521 17.0338 17.0183 16.8138 16.792 16.6766 16.1205 16.5803 16.0418 15.8109 15.4593 15.381 31.015 15.5399 15.0226 14.9357 13.7942 13.7559 13.6846 13.5991 13.5918
threshold=-0.23865481613821457 0.32421744725559565 0.36924077009556699 -0.73318030893942143 -0.69759937196400634 1.0000000180025095e-35 1.0000000180025095e-35 0.36924077009556699 1.0000000180025095e-35 -0.24027496857947372 1.0000000180025095e-35 1.0000000180025095e-35 1.0000000180025095e-35 1.0000000180025095e-35 -0.12268618600439675 -0.24027496857947372 -0.67754578152234124 1.0000000180025095e-35 -0.7977637724591361 1.5414523775249271 -0.24027496857947372 -0.69405666798570131 0.63252451194024484 -0.73470706594784185 2.3043218630459115 1.0000000180025095e-35 1.0000000180025095e-35 -0.34176309215472639 1.0000000180025095e-35 -0.88540409316332447 1.0000000180025095e-35 -0.9002108525159026 1.7884057272622582 0.89138041139681612 -1.1866257676795531 1.0000000180025095e-35 -0.92488861082647966 1.0000000180025095e-35 1.0000000180025095e-35 1.0000000180025095e-35 -1.2853495103040034 -0.11580374128887073 -0.9002108525159026 1.0000000180025095e-35 1.0000000180025095e-35 0.83126556370528959 -0.70820157024510222 0.35450823457635433 1.0000000180025095e-35 0.0042879517705654438 3.3491432611138579 -0.47120936611817515 0.53100691454543913 0.72596796976141531 1.0031306020964408 1.0000000180025095e-35 1.0000000180025095e-35 1.0000000180025095e-35 -1.3415430090223368 1.3141677518739343 -0.27604447195391774 1.0000000180025095e-35 1.0552151753408034
decision_type=2 2 2 2 2 2 2 2 2 2 2 2 2 2 2 2 2 2 2 2 2 2 2 2 2 2 2 2 2 2 2 2 2 2 2 2 2 2 2 2 2 2 2 2 2 2 2 2 2 2 2 2 2 2 2 2 2 2 2 2 2 2 2
left_child=8 4 3 18 17 9 32 11 13 12 -10 28 43 30 24 16 46 61 23 29 21 -16 48 42 57 44 -8 -28 -6 -14 33 -29 35 41 -31 -7 -21 53 -4 -11 -33 -1 -3 -5 47 -25 -12 -18 52 -50 59 -46 -23 -37 -55 -56 -41 -13 -30 -15 -42 -2 -19
right_child=1 2 38 5 7 6 26 -9 10 39 15 14 19 50 20 -17 25 62 -20 36 -22 22 -24 45 -26 -27 27 31 58 34 -32 40 -34 -35 -36 37 -38 -39 -40 56 60 -43 -44 -45 51 -47 -48 -49 49 -51 -52 -53 -54 54 55 -57 -58 -59 -60 -61 -62 -63 -64
leaf_value=-0.01489203111745311 -0.01233546474545147 0.018482821340534552 -0.005277701015527104 -0.007385955876157568 -0.0062489881703601405 0.016546038305151205 0.010683103993885619 -0.0084991439239917935 -0.0093837343929470875 0.00075745997452337892 -0.010167624548523295 8.1080458587866116e-05 -0.0046552109481289485 -0.004756257854521515 -0.0020548807153645213 -0.0030515739432527191 0.030804745553146377 0.00060488268008165847 -0.0043032686527235053 0.049427497860382787 0.0068100297640929048 0.023021131375927172 0.003957674803682594 0.0048781284487836645 0.020357996302969899 0.043686850739644997 0.0064095547275786705 0.080213816987533618 0.055639645786653931 -0.0022626943555165827 0.00074219984476397722 0.073173906099030989 0.068667413408067007 -0.0052664414937835342 0.017907646176600268 0.025470615072307197 0.022841094362286995 0.074963930375520571 0.0055229182417848846 0.0099538702944084578 0.0074933405289740428 -0.0093399072895391441 -0.0065329551299257993 0.030418668521409245 -0.020214568760177513 0.014221302549392415 0.004604017054821166 -0.0010123278542860993 0.085608483496189228 0.036072829966912294 0.024261940102454929 0.011426053915184902 0.056679379533093106 0.051665851677067789 0.023626969552962365 0.049891555980924658 0.043102010531521039 0.01546980122217294 0.0038854764360952824 0.010545362831067825 0.037121948755741783 -0.0031975357315690476 -0.014710584473403763
leaf_count=17672 13131 367 11526 1111 5931 962 5771 9100 7020 5825 1524 7681 579 5920 558 8118 861 4856 4184 383 3165 1403 501 5732 790 320 445 86 55 542 1908 77 134 5711 7025 2414 748 88 2153 1144 254 13254 2349 149 223 3505 2393 228 91 204 250 1171 163 825 1240 231 161 754 3245 800 335 2486 886
internal_value=0 0.117664 0.281667 0.382791 -0.0816364 0.514347 0.71544 0.0310088 -0.223473 0.354958 -0.0565973 0.136306 0.503472 -0.308614 0.252371 0.0602668 0.241067 -0.272712 0.110779 0.575043 0.456256 0.680106 0.844155 0.197996 0.111568 0.597883 0.448108 0.84441 -0.0688865 0.503802 -0.35699 1.19398 1.01003 -0.378074 0.550823 0.981278 1.06205 1.06255 -0.115501 0.114022 1.00169 -0.415871 -0.102426 -0.0869715 0.483958 0.283071 -0.0345086 0.806367 1.029 1.71115 -0.0597781 0.220142 0.882775 1.03478 1.2221 0.940309 0.474321 0.0528467 0.161315 -0.0959051 0.811691 -0.360493 -0.0533897
internal_count=182718 115345 60345 46666 55000 30529 12862 33641 67373 17667 21858 24541 10537 45515 15310 14838 6720 21359 16137 9277 6085 2920 2362 11953 9225 2803 6968 1197 9231 8146 38545 752 5894 36637 7567 5760 1131 4798 13679 7130 666 30926 2716 1260 2483 9237 3917 1089 1861 295 6970 1394 1566 4710 2296 1471 1305 8435 3300 6720 589 15617 5742
shrinkage=0.03


Tree=15
num_leaves=64
num_cat=0
split_feature=15 11 1 16 27 42 27 42 33 11 44 15 16 42 16 42 44 16 15 44 27 27 39 16 1 27 39 34 16 25 11 1 39 42 23 17 33 33 35 16 16 15 42 42 25 44 16 16 39 16 17 15 42 27 21 9 21 16 17 27 36 0 17
split_gain=436.712 410.027 179.476 175.933 87.7588 81.0794 64.4004 58.4715 57.8626 55.9485 51.8594 44.5212 45.7887 43.7813 41.7346 41.4265 39.0365 34.11 27.1158 27.0835 26.0353 25.989 22.6881 23.6215 22.1454 22.0345 21.7422 21.2906 20.26 18.9317 18.9031 18.8195 18.603 18.2673 18.0511 17.6942 17.3924 16.4897 23.3474 16.2987 16.0673 29.4851 16.0004 15.8398 15.8069 15.5188 15.3425 20.6236 14.9269 14.6416 14.5288 14.3718 13.9637 13.8112 17.5938 14.0113 13.7736 13.7591 13.5764 12.9896 13.1331 12.7149 12.6422
threshold=0.28789372670505409 -0.53246985480030318 1.0000000180025095e-35 -0.46360893692794858 1.0000000180025095e-35 -0.12004373330488495 1.0000000180025095e-35 -0.23865481613821457 1.0000000180025095e-35 -1.3031470219031831 1.0000000180025095e-35 -0.87888825610206589 -0.46450099034517239 -0.48555951917902318 -0.49255111446454458 -1.0338331979902304 1.0000000180025095e-35 -0.46756653899325118 -1.4492182551607702 1.0000000180025095e-35 1.0000000180025095e-35 -1.0570919670226249 1.0000000180025095e-35 -0.45824245684655429 1.0000000180025095e-35 1.0000000180025095e-35 1.0000000180025095e-35 1.0000000180025095e-35 -0.47394542890530428 -0.7151954159490671 1.0000000180025095e-35 1.0000000180025095e-35 1.0000000180025095e-35 0.30235695964238085 1.0000000180025095e-35 0.86774597495814698 1.0000000180025095e-35 1.0000000180025095e-35 1.0000000180025095e-35 -0.4650248947330658 -0.45824245684655429 -0.042526465598140599 0.22005539196211127 -0.91280148081336365 1.0000000180025095e-35 1.0000000180025095e-35 -0.45395210469704911 -0.45674154157313002 1.0000000180025095e-35 -0.45624595634133902 1.2572560504563173 0.71638593170295561 0.73444018996379601 -1.0570919670226249 1.0000000180025095e-35 1.0000000180025095e-35 1.0000000180025095e-35 -0.46060002659207444 -0.41925668150189016 1.0000000180025095e-35 1.1762275282572729 1.0000000180025095e-35 -0.095091111740101583
decision_type=2 2 2 2 2 2 2 2 2 2 2 2 2 2 2 2 2 2 2 2 2 2 2 2 2 2 2 2 2 2 2 2 2 2 2 2 2 2 2 2 2 2 2 2 2 2 2 2 2 2 2 2 2 2 2 2 2 2 2 2 2 2 2
left_child=2 6 8 15 7 32 16 21 11 39 -9 42 26 -14 -11 -3 -2 -18 -16 -17 36 -5 53 35 43 29 -13 -25 -8 34 -15 -23 61 62 52 -24 51 -31 -39 -7 -10 -42 -1 -19 46 -35 47 -29 -32 -33 -38 -21 56 54 -12 -55 -20 -50 -47 60 -44 -4 -6
right_child=1 3 5 4 33 9 28 10 40 14 22 12 13 30 18 19 17 24 25 20 -22 31 23 27 -26 -27 -28 44 -30 37 48 49 -34 45 -36 -37 50 38 -40 -41 41 -43 59 -45 -46 58 -48 -49 57 -51 -52 -53 -54 55 -56 -57 -58 -59 -60 -61 -62 -63 -64
leaf_value=-0.01456017280802854 -0.014051292136412052 -0.0074915287683096961 -0.0054791333318120255 -0.015465082909862444 0.0042222905433747689 -0.015607008867482394 -0.013063759846723701 0.0069743124632128603 -0.00090235348928649603 -0.012451039947176232 -0.0011773044004289542 -0.011073492399683516 -0.010641451083513821 -0.0064571560896753534 -0.0019543207900951519 -0.003649526779459452 -0.012809389578945932 -0.017128175883900868 0.0098304209077649668 -0.00068688490456546194 0.017962423203496187 0.0011676172956868174 0.0052874479650403799 0.027186203916956714 0.0057234042764189412 0.023394227545846739 0.0010404884923962349 0.040290577897956911 0.010199887503476331 0.0075536458674506073 0.0023123551911828667 0.0062762553639736651 0.0071871094701089905 0.018514723992413284 0.00047783797742667475 0.037544709843305331 0.015139120986242729 0.039778856598281412 -0.0068435847664385721 -0.00011297019988758452 0.0080965775247898771 0.048683262603731868 -0.017307587164710918 -0.0026315537432249313 0.030825461169712791 0.058439185790293967 0.038370704302025722 0.11070890180470591 -0.0066685717188442436 0.022233036038451545 0.069501106038582727 0.0077052911906975545 0.041067814250184249 0.011382969497761476 0.033227111753101862 0.020291405478945417 0.061196458891107683 0.022960993559029769 0.03351975507010263 -0.0015907658035763331 -0.0087640953114214819 -0.0213250017459444 0.024156201986541639
leaf_count=16712 7875 3816 10804 748 398 1424 536 5126 1289 1003 839 19179 5462 2895 1736 3193 4645 1156 445 4569 2102 3262 519 662 3586 1676 2099 60 3336 7772 8002 1446 1397 616 328 254 1020 390 166 2235 1080 255 3112 6693 165 215 95 112 236 1138 58 5056 510 2246 210 8942 66 771 2022 2336 10357 696 1569
internal_value=0 0.194195 -0.165863 0.373882 0.529465 0.0659247 -0.174021 0.445272 -0.270778 0.219404 0.535708 -0.292094 -0.207732 -0.0692597 0.316609 0.102368 -0.249763 -0.145997 0.367619 0.179921 0.252155 0.148848 0.638038 0.978876 -0.0419691 0.427557 -0.328271 1.29075 0.244336 0.359431 0.0508769 0.225569 -0.163792 0.923159 0.743586 0.530445 0.177265 0.295379 0.869025 -0.198098 0.263503 0.54427 -0.40011 -0.153691 1.84653 1.07918 2.32027 2.89117 0.129934 0.446152 0.603507 0.127795 0.969204 0.584768 0.19264 0.617359 0.552978 0.537619 1.19595 -0.312486 -0.359877 -0.213863 0.672151
internal_count=182718 78285 104433 50458 30644 30648 27827 25824 73785 17751 19230 71161 38644 17366 14092 19814 23955 16080 13089 15998 12805 6594 14104 1867 11435 11353 21278 1094 3872 9677 11904 5846 12897 4820 1349 773 10703 8328 556 3659 2624 1335 32517 7849 432 2853 267 172 9009 2584 1078 9625 1021 12237 1049 11188 511 1007 2237 15805 13469 11500 1967
shrinkage=0.03


Tree=16
num_leaves=64
num_cat=0
split_feature=37 37 37 1 18 1 2 10 2 37 37 37 18 44 1 37 37 37 37 18 37 1 17 17 17 44 34 17 18 18 1 12 37 10 37 17 2 1 41 18 25 39 17 17 17 18 28 44 25 14 28 12 44 34 37 37 14 17 17 2 17 18 39
split_gain=1743.96 417.111 239.814 127.513 82.2398 72.6478 72.4071 56.0415 54.62 47.0777 42.5509 36.3272 34.5148 30.1316 28.5002 27.6834 26.4225 25.7022 25.0809 24.7205 23.782 20.3436 20.2583 19.2717 19.1598 18.1913 17.3357 16.1641 15.7771 15.5631 15.4261 17.0313 15.4063 15.3913 19.5948 28.0328 15.2336 15.14 15.0871 15.0046 14.9996 14.439 14.2031 14.0607 13.9618 13.8587 13.7271 13.2173 16.7776 13.0868 14.2399 13.0819 12.966 13.2418 12.5895 19.529 12.6739 12.3027 12.2388 12.0038 11.6283 11.5503 11.9873
threshold=-0.28524110345379317 -1.8908207956975713 0.73999726528610343 1.0000000180025095e-35 -0.19929605275250067 1.0000000180025095e-35 1.0000000180025095e-35 0.32421744725559565 1.0000000180025095e-35 -0.80295247898180144 -2.6355212449386776 -1.2063248768996362 -0.74199607726609529 1.0000000180025095e-35 1.0000000180025095e-35 0.16937285555054774 1.0965619444661681 -2.4520080238303712 -1.4111051766843594 -1.155481810228834 -1.5240735512307568 1.0000000180025095e-35 -1.0599169442651093 -0.94485379285974191 1.1254306127968345 1.0000000180025095e-35 1.0000000180025095e-35 0.82910748460967787 1.8018688728043444 1.1577853272277705 1.0000000180025095e-35 1.0000000180025095e-35 0.25509125519729287 -0.85524293622558123 -2.3121283016668461 0.76774047052681527 1.0000000180025095e-35 1.0000000180025095e-35 1.0000000180025095e-35 0.2479841872312312 -0.7151954159490671 1.0000000180025095e-35 0.75040997117934005 0.95468257824220248 1.3012925651917049 1.6415106238027695 -1.2062455642298147 1.0000000180025095e-35 1.4815715417287734 -0.19673180818293803 -0.74114501809186617 2.0283701206229385 1.0000000180025095e-35 1.0000000180025095e-35 -2.0297365334517758 -2.0553960521654484 -1.0557206290165764 1.1254306127968345 1.1424770055976297 1.0000000180025095e-35 1.3905020208491996 -0.82283783915945119 1.0000000180025095e-35
decision_type=2 2 2 2 2 2 2 2 2 2 2 2 2 2 2 2 2 2 2 2 2 2 2 2 2 2 2 2 2 2 2 2 2 2 2 2 2 2 2 2 2 2 2 2 2 2 2 2 2 2 2 2 2 2 2 2 2 2 2 2 2 2 2
left_child=1 7 5 4 18 12 11 10 25 26 14 23 -2 58 27 -14 21 -15 -3 -19 -8 -4 -13 46 28 -7 -6 -1 36 -24 51 -32 61 45 35 -35 -17 40 47 43 -37 -23 49 -22 -11 -12 -5 -10 -49 50 -33 54 -20 -54 55 -21 -56 -40 -9 -36 -28 -27 -63
right_child=2 3 16 6 9 8 20 13 38 44 33 22 15 17 -16 24 -18 19 52 30 39 41 29 -25 -26 32 60 -29 -30 -31 31 42 -34 34 59 37 -38 -39 57 -41 -42 -43 -44 -45 -46 -47 -48 48 -50 -51 -52 -53 53 -55 56 -57 -58 -59 -60 -61 -62 62 -64
leaf_value=0.052356559442726297 -0.011324787332649725 0.007477348894832537 -0.014800266137772831 0.051742173443015231 0.012008105202807172 -0.00094827259505187583 0.022062417571207714 0.018181453519379148 -0.0095117931361691586 0.0017625866772583232 0.022909828380306422 -0.0006716609453860981 -0.00040711316068858594 0.049870608581899602 0.093807614928713673 -0.0076860037976902362 -0.01834373689644931 0.0051034246798426714 -0.0091102126466586116 0.035124888519167459 0.00067358799254635458 -0.010062950790052481 0.01712847002477505 0.034791272591780741 0.00059234016791081449 0.0035515717523264285 0.020521369915207283 -0.0034109498549263935 0.0047612564955721659 0.032428818113159071 0.037817252697325054 0.012670355092712212 0.004809015838582939 0.014774317384713727 0.010546149476972747 0.023409759604211117 -0.015711754031961917 0.013593178633053336 0.0030022021977821555 0.013276198646297513 0.090004573526880113 0.0038810475444961837 0.030842602561995811 0.0146163079896752 0.020640298135116784 0.050329316883236927 0.0047659036063151606 -0.00037908710825267116 -0.014286452954057137 0.088706569677805408 0.070396984578911873 -0.0064367450771609328 -0.0031040669403941336 0.0079119828223066235 0.065407842704272121 0.082663783276769071 0.015795529544036541 0.033261819162283913 0.045239522267199669 -0.013578021961096162 0.063157661532189505 0.015463217796261284 0.03792901909743919
leaf_count=146 16048 3439 21573 78 7354 2954 1379 968 5047 6060 1666 579 11218 1324 96 13262 17360 235 3474 1382 3500 9859 3486 2597 3286 808 2635 65 1028 818 967 52 4116 737 1204 53 3966 60 943 2972 120 1041 98 1008 483 177 400 7260 1206 138 102 84 6592 1532 52 83 491 188 176 273 66 2065 289
internal_value=0 0.469374 -0.274372 0.318637 0.179276 -0.14311 0.552241 1.02511 0.014261 0.344867 0.739251 0.780832 -0.229987 1.20965 1.83015 -0.161641 -0.48694 1.31023 -0.0231644 1.17266 0.335812 -0.422269 0.594562 1.05483 -0.241554 0.212972 0.490708 1.16274 -0.28981 0.672057 1.23729 1.48029 0.306094 0.645661 0.455212 0.831614 -0.317235 1.83941 -0.131172 0.256647 2.36825 -0.289728 1.99327 0.128008 0.10566 0.85621 0.416928 -0.165698 -0.0787821 2.31801 1.71386 1.06018 -0.106575 -0.02873 1.10968 1.25952 0.688705 0.269242 0.745631 0.196906 0.719358 0.488771 0.610227
internal_count=182718 59201 123517 48452 31635 73684 16817 10749 24876 16598 4597 7958 48808 6152 307 32760 49833 5008 15037 3684 8859 32473 4883 3075 21542 10232 10055 211 18256 4304 3449 1357 7278 4290 2447 970 17228 233 14644 7480 173 10900 390 4508 6543 1843 478 13513 8466 292 154 2092 11598 8124 2008 1465 543 1131 1144 1477 2701 3162 2354
shrinkage=0.03


Tree=17
num_leaves=64
num_cat=0
split_feature=37 37 37 15 15 15 42 37 2 1 2 1 42 33 6 7 6 37 6 37 15 33 1 15 1 7 7 2 39 37 37 1 15 42 28 7 2 15 15 7 6 15 2 6 7 39 42 42 7 37 37 6 6 7 42 1 12 39 42 6 41 42 31
split_gain=1633.38 377.779 231.048 108.977 92.7797 77.3639 56.3698 52.8769 47.7361 43.4815 57.9015 43.1842 38.7799 37.0356 33.0001 32.271 56.3471 25.8792 25.7703 24.5248 24.136 22.8035 21.8123 21.4566 21.4446 20.1373 19.8967 19.5253 17.6228 17.2097 16.5102 16.1957 21.6789 24.0343 20.0574 17.0277 16.3628 15.6065 15.579 21.616 15.4818 15.3946 16.461 15.2935 14.8135 14.7752 14.6841 14.4577 20.6858 16.777 14.3727 14.2153 14.1743 14.1008 14.0338 14.0231 31.795 13.9888 13.4893 13.1657 13.2992 13.0214 23.2384
threshold=-0.28524110345379317 -1.6000722716824245 0.73999726528610343 -0.87888825610206589 -0.53471965080428618 -0.28564423538571998 -0.2217103757334532 -2.3965549242304798 1.0000000180025095e-35 1.0000000180025095e-35 1.0000000180025095e-35 1.0000000180025095e-35 -0.73246422221983176 1.0000000180025095e-35 -0.84232554731577236 -0.37678874361723119 0.5213712514375376 1.0965619444661681 -1.2099611179163168 -2.6355212449386776 0.31630711356052993 1.0000000180025095e-35 1.0000000180025095e-35 -0.75629824023368231 1.0000000180025095e-35 -0.98589432798606558 1.333273641677643 1.0000000180025095e-35 3.0487675008230628 -0.85232023592847572 -0.83153926264192923 1.0000000180025095e-35 0.32868068525565647 0.82763461218998369 1.1192571664599278 -0.98589432798606558 1.0000000180025095e-35 -0.82389460412372562 0.7356337098953748 0.30760648745170244 -0.64228690337949512 0.58256804522232752 1.0000000180025095e-35 -1.1219329470396826 -0.71682641027095728 1.0000000180025095e-35 0.96561076977161198 0.87967825057603644 -0.46472951947595348 -2.6355212449386776 -1.2207541761115046 -1.0610307421712115 1.74669658793307 -0.51564260023626629 -0.3572658989715442 1.0000000180025095e-35 1.0000000180025095e-35 1.0000000180025095e-35 0.014301472761437383 0.39726074372583803 1.0000000180025095e-35 0.28541251923761946 1.0000000180025095e-35
decision_type=2 2 2 2 2 2 2 2 2 2 2 2 2 2 2 2 2 2 2 2 2 2 2 2 2 2 2 2 2 2 2 2 2 2 2 2 2 2 2 2 2 2 2 2 2 2 2 2 2 2 2 2 2 2 2 2 2 2 2 2 2 2 2
left_child=1 4 5 24 13 11 29 47 12 20 28 -2 -7 14 -1 58 57 23 -9 -16 40 26 -10 -4 -3 -22 31 37 50 41 -27 32 34 43 -20 51 -37 -13 39 -23 -8 -5 -43 -34 -39 -25 -32 61 -49 -50 -11 -33 53 -24 -47 -21 -57 -17 -14 60 -55 -6 -63
right_child=2 3 17 6 7 8 9 18 22 10 -12 27 15 -15 19 16 -18 -19 21 55 25 38 52 45 -26 30 -28 -29 -30 -31 46 35 33 -35 -36 36 -38 44 -40 -41 -42 42 -44 -45 -46 54 -48 48 49 -51 -52 -53 -54 59 -56 56 -58 -59 -60 -61 -62 62 -64
leaf_value=-0.0032307803214705329 -0.011770505184022962 -0.0063721342744064843 -0.017289787267090351 0.002609712421264294 0.037201260662859122 -0.0062732534860896099 -0.0043543708757419709 -0.0028327247718525289 -0.010437138590738842 0.034659043814851673 0.010479736577611356 -0.0019564949441974468 -0.0093310912499459178 0.056037420396205698 0.060744505044231109 0.010867034564080351 -0.0034697635836745378 -0.018081270663546121 0.0077241751075337577 0.01049657163447101 0.0023267285232668835 0.041481107058936768 -0.0080797628756348067 -0.011559932719826436 0.005937944513366906 0.01981978617357304 0.0049041521553225458 -0.0068951966432921731 0.066705804225545326 -0.0013748797503746906 0.014297670771891438 0.038937121484749079 -0.013297362647960153 0.016354898822411593 0.037714410210819151 0.040405600794800406 0.025749830028602674 -0.0074028937443675752 0.031705383488564894 0.094311755482889351 0.0076798590091437984 0.023211129212466108 0.0027345947922104486 0.035570669109010487 0.019633805134477416 -0.012729675091426695 -0.00085247272871394775 0.016791207189898388 0.071324401168958759 0.035031385846511269 0.021859783671101012 -0.002297840447570637 -0.017829438998552181 0.0027999757779727532 0.005427417588781458 0.017639357256682683 0.070640441183355843 0.024769139204626721 0.00096068912788625316 -0.0054717803066859621 0.024309777604513319 0.057647550488737986 0.0035761904941909715
leaf_count=1378 21118 7306 9387 2646 812 6396 1850 309 7689 1082 4768 1955 2017 188 105 6668 4175 17360 1367 2741 1694 265 2866 20781 2196 3417 480 4253 96 4797 2231 119 66 1201 270 1345 1264 316 827 92 3632 1068 689 1753 1005 967 1008 432 109 503 3068 247 758 3890 1338 850 121 883 6818 2539 338 742 67
