tree
version=v2
num_class=1
num_tree_per_iteration=1
label_index=0
max_feature_idx=62
objective=binary sigmoid:1
feature_names=NAME_CONTRACT_TYPE CODE_GENDER FLAG_OWN_CAR FLAG_OWN_REALTY CNT_CHILDREN AMT_INCOME_TOTAL AMT_CREDIT AMT_ANNUITY AMT_GOODS_PRICE NAME_TYPE_SUITE NAME_INCOME_TYPE NAME_EDUCATION_TYPE NAME_FAMILY_STATUS NAME_HOUSING_TYPE REGION_POPULATION_RELATIVE DAYS_BIRTH DAYS_EMPLOYED DAYS_REGISTRATION DAYS_ID_PUBLISH FLAG_MOBIL FLAG_EMP_PHONE FLAG_WORK_PHONE FLAG_CONT_MOBILE FLAG_PHONE FLAG_EMAIL CNT_FAM_MEMBERS REGION_RATING_CLIENT REGION_RATING_CLIENT_W_CITY WEEKDAY_APPR_PROCESS_START HOUR_APPR_PROCESS_START REG_REGION_NOT_LIVE_REGION REG_REGION_NOT_WORK_REGION LIVE_REGION_NOT_WORK_REGION REG_CITY_NOT_LIVE_CITY REG_CITY_NOT_WORK_CITY LIVE_CITY_NOT_WORK_CITY ORGANIZATION_TYPE EXT_SOURCE_2 OBS_30_CNT_SOCIAL_CIRCLE DEF_30_CNT_SOCIAL_CIRCLE OBS_60_CNT_SOCIAL_CIRCLE DEF_60_CNT_SOCIAL_CIRCLE DAYS_LAST_PHONE_CHANGE FLAG_DOCUMENT_2 FLAG_DOCUMENT_3 FLAG_DOCUMENT_4 FLAG_DOCUMENT_5 FLAG_DOCUMENT_6 FLAG_DOCUMENT_7 FLAG_DOCUMENT_8 FLAG_DOCUMENT_9 FLAG_DOCUMENT_10 FLAG_DOCUMENT_11 FLAG_DOCUMENT_12 FLAG_DOCUMENT_13 FLAG_DOCUMENT_14 FLAG_DOCUMENT_15 FLAG_DOCUMENT_16 FLAG_DOCUMENT_17 FLAG_DOCUMENT_18 FLAG_DOCUMENT_19 FLAG_DOCUMENT_20 FLAG_DOCUMENT_21
feature_infos=[-0.31733927053742522:3.1512015462393443] [-0.71946450923066207:3.4990390189717644] [-0.71609471520084567:1.3964633152187507] [-1.5092790628113271:0.66256799331550043] [-0.57787619790942824:18.872359507076148] [-0.48600414763052807:396.56919524349064] [-1.3807827532246513:8.5958543554912943] [-1.7619650229492303:15.951363146252767] [-1.3512972694740877:9.5319544054134937] [-2.9406683586043583:0.43940298507174119] [-1.8380345804073619:0.91571350557542441] [-2.4601196237388172:0.62343416707935062] [-1.387175015830016:2.5256620180312135] [-1.3557078297873144:3.8933221592591032] [-1.4897977003189007:3.7503158258195266] [-2.102431866546262:1.9607477866519607] [-0.57968619571128033:2.1270889790365586] [-5.2227488238286552:1.4154790828645982] [-2.3511323452195731:1.98068404269625] none [-2.1270528299731053:0.47013406809112679] [-0.50073873470474717:1.9970494205718563] [-23.092491374789699:0.043304119238156344] [-0.62719952241957033:1.5943889691469524] [-0.24494234278270935:4.082593432557756] [-1.2680619400680295:15.240583741565674] [-2.0705765902378723:1.8566936339817335] [-2.0550379995976193:1.9212039599770874] [-1.4394481401089587:1.3520400339569161] [-3.6937708564128764:3.3491746333871628] [-0.12384228658306:8.07478630757765] [-0.23077514288474776:4.3332223197860333] [-0.20475289508805933:4.8839358269875701] [-0.29186444667662587:3.4262480798422144] [-0.54745496324173704:1.8266342752260969] [-0.46720706079676749:2.1403786113476446] [-1.4404706909687979:1.3437667412474981] [-2.6857828361723652:1.7840858697234017] [-0.61247545728116048:19.690552591249148] [-0.32476513611824465:17.642212728162558] [-0.61037155286570755:19.866360827424735] [-0.27789546453129588:19.102449378304325] [-3.8248735439242783:1.1686096681704083] none [-1.5762373825938782:0.63442220762102841] none [-0.12205335143239954:8.1931383961534241] [-0.31164413129708124:3.208788164365366] none [-0.29781846600880651:3.3577501536470526] [-0.062765745385065658:15.932257218727109] none [-0.063072602022805666:15.854744658202341] none [-0.057637775750429596:17.349732653285926] [-0.053165004235306353:18.809365566379658] [-0.033019652458571018:30.284994708974491] [-0.098393986666773958:10.163222711837566] none [-0.089126878307826021:11.219959892976448] [-0.02316535012687982:43.167920818069312] [-0.022687414273715605:44.077301535351474] [-0.018124092756110734:55.175175577427915]
tree_sizes=5176 5204 5268 5219 5309 5239 5285 5243 5288 5234

Tree=0
num_leaves=64
num_cat=0
split_feature=10 42 8 27 18 44 8 42 27 34 44 6 18 8 34 8 6 34 6 8 42 6 8 6 10 18 27 27 27 6 0 27 18 42 13 21 27 13 18 23 6 6 8 6 8 27 27 13 13 6 13 13 6 18 18 18 18 44 6 6 8 6 44
split_gain=613.338 474.168 358.499 282.854 202.137 177.036 128.82 112.875 98.2775 91.6283 86.9765 73.1329 64.7248 61.5675 57.1048 53.9374 171.929 46.1353 41.9435 82.7468 38.5347 37.0795 46.024 85.7817 31.9813 29.9499 29.3219 28.9375 28.6015 25.6 24.1515 23.3423 23.1609 25.5722 22.0352 21.6962 20.7112 20.2895 20.1504 22.8485 20.0562 20.0439 25.5451 39.2768 33.5492 19.7466 19.3098 18.9425 18.9115 18.2203 17.5619 17.4607 19.7723 17.3169 17.2632 17.2449 24.9222 17.125 16.9298 16.9052 16.7592 24.1907 16.6841
threshold=0.32562463000768455 -0.085502854838121645 0.37244611954028989 1.0000000180025095e-35 -0.70430152334438489 1.0000000180025095e-35 0.37244611954028989 -0.49769791059321428 1.0000000180025095e-35 1.0000000180025095e-35 1.0000000180025095e-35 -0.79144374271495221 1.0678352373966329 -0.2362830953527488 1.0000000180025095e-35 -0.2362830953527488 -0.45937866285934287 1.0000000180025095e-35 -0.78676929588985722 -0.2362830953527488 0.39921919019939217 -0.98948559417527193 -0.2362830953527488 -0.2332733158915283 -0.46116053741596869 -0.069506265765513095 1.0000000180025095e-35 1.0000000180025095e-35 1.0000000180025095e-35 -0.23779643170430009 1.0000000180025095e-35 1.0000000180025095e-35 1.1366047236343439 0.66273391792552183 2.3186131625451787 1.0000000180025095e-35 -1.0609775097039424 1.0000000180025095e-35 -0.77108727440216207 1.0000000180025095e-35 -0.84834980820079109 -1.1024906264145589 -0.2362830953527488 -0.13994131525425982 1.0000000180025095e-35 -1.0609775097039424 -1.0609775097039424 3.368419160354462 2.3186131625451787 -0.13994131525425982 1.0000000180025095e-35 2.3186131625451787 -0.21720420432372572 -0.83192181992013736 -0.77108727440216207 -0.869612788338883 -0.77769972500194207 1.0000000180025095e-35 -0.55360183501362581 -1.0896667243332432 0.37244611954028989 -0.78676929588985722 1.0000000180025095e-35
decision_type=2 2 2 2 2 2 2 2 2 2 2 2 2 2 2 2 2 2 2 2 2 2 2 2 2 2 2 2 2 2 2 2 2 2 2 2 2 2 2 2 2 2 2 2 2 2 2 2 2 2 2 2 2 2 2 2 2 2 2 2 2 2 2
left_child=4 8 3 5 27 25 7 59 15 12 46 54 21 17 31 16 37 55 -11 20 53 -7 23 -23 28 30 -4 40 -16 -18 -3 50 -19 -34 -29 51 -8 62 -37 58 -1 -14 43 -43 -44 -42 -9 -30 -17 -15 -12 52 -22 -20 -5 -13 -57 -10 -40 -6 61 -59 -2
right_child=1 2 26 11 6 9 36 10 57 18 14 13 41 49 24 48 29 32 19 -21 35 22 -24 -25 -26 -27 -28 34 47 -31 -32 -33 33 -35 -36 38 -38 -39 39 -41 45 42 44 -45 -46 -47 -48 -49 -50 -51 -52 -53 -54 -55 -56 56 -58 60 -60 -61 -62 -63 -64
leaf_value=-2.4412206673640968 -2.4389932850358811 -2.4204957735143031 -2.4278969209844976 -2.4174713269721742 -2.4450753326323564 -2.4257665418896734 -2.4401770391851332 -2.4352570549288428 -2.4250704133423118 -2.4060507627175665 -2.4194135940392902 -2.3996411975810998 -2.4212118674067371 -2.4148480119403475 -2.4002140835724726 -2.4327748147804864 -2.4103431366626786 -2.3565444228870804 -2.4336019790844596 -2.406109535847158 -2.3891457470468493 -2.4098284147476829 -2.4192134525208582 -2.3780151139948149 -2.4188833465605617 -2.4168715849899138 -2.4123993355382649 -2.4283653600847717 -2.3799814957786101 -2.392159379216459 -2.4386101441807408 -2.4045754623331996 -2.3528694557770242 -2.2820231212362274 -2.3834529255867074 -2.3912870466258394 -2.4305593829169845 -2.4174225919469094 -2.3622179920783135 -2.3713421635083716 -2.441681536362585 -2.3938053490012066 -2.4289858962197397 -2.3532749645254949 -2.3931231687443857 -2.433212729688226 -2.4228230135431446 -2.3171308198240919 -2.4153359061106872 -2.3868039720653016 -2.405352341207462 -2.3530385171449528 -2.3623600423247648 -2.3927310829507844 -2.3949088453875778 -2.3079487958108365 -2.3744922587176447 -2.4195194584218762 -2.3074880614098721 -2.4291504035198681 -2.4195793228430351 -2.3987858368478281 -2.4287904071984596
leaf_count=7228 2578 1746 10902 506 875 2078 3506 1835 974 2801 9564 313 383 352 2751 16089 2286 690 152 2293 1400 6690 4179 1202 940 5785 1696 4825 413 1570 1794 1871 122 123 135 158 11590 1430 104 250 3973 2547 530 324 768 19831 8261 67 784 1334 1202 272 434 692 2098 71 1439 957 196 9523 1301 2308 7627
internal_value=0 0.204976 0.417358 0.57355 -0.218746 0.445017 -0.0738925 0.0413896 -0.111177 0.592801 0.166375 1.24427 0.448356 1.52925 0.327429 -0.188173 -0.0324578 1.86559 0.901447 1.07503 1.41624 0.3264 0.404027 0.568247 0.698231 0.00993657 -0.126003 -0.429627 0.870849 0.636366 -0.254843 0.205041 2.52563 3.49096 -0.170416 1.62167 -0.358753 -0.254115 2.17516 2.50563 -0.471058 0.827432 0.90094 1.0933 0.47546 -0.419858 -0.10175 1.69406 -0.331135 0.97905 0.139559 1.4356 1.30744 0.731292 0.757912 1.52706 1.6889 0.338626 3.18565 -0.282001 0.432476 0.572247 -0.311247
internal_count=182718 94328 56424 43826 88390 36778 52398 37302 37904 27453 26904 7048 18701 4444 16808 32364 15491 2758 8752 5951 3658 14149 12071 7892 4171 9325 12598 35992 3231 3856 3540 12637 935 245 4960 2814 15096 11635 708 550 31032 4552 4169 2871 1298 23804 10096 480 16873 1686 10766 2106 1834 844 2604 1823 1510 5540 300 10398 4566 3265 10205
shrinkage=1


Tree=1
num_leaves=64
num_cat=0
split_feature=37 37 37 15 15 15 1 8 37 37 7 15 1 37 1 1 8 7 8 7 8 8 8 8 7 37 8 7 27 7 12 7 1 37 14 37 7 18 0 12 18 15 8 37 7 14 18 28 18 8 14 7 38 34 7 18 36 18 18 7 8 18 15
split_gain=3206.88 969.854 487.588 375.56 262.573 187.742 140.191 107.721 93.3923 83.2382 79.4364 78.4536 71.5307 69.3366 67.3519 65.4468 59.6789 78.5262 52.9286 52.8503 78.1302 71.9136 52.6754 73.5071 49.4688 43.468 42.1133 40.6865 40.6678 38.821 38.2309 35.3221 34.4713 32.7271 32.3209 32.0945 31.2613 31.8185 31.2167 28.8682 32.3674 27.8836 27.8729 27.7535 27.5836 27.4219 25.5764 36.9263 24.6538 28.2789 24.5751 28.3267 27.5096 26.9304 23.8959 23.8296 23.5301 23.3027 23.0236 22.7069 22.5379 22.4973 40.2605
threshold=-0.61738274431435303 -2.0290051187136333 0.55672251185681187 -0.86206267760066024 -0.49628489258614161 -0.24937916168717408 1.0000000180025095e-35 0.37244611954028989 -2.3697367697993572 -1.7081645359443447 -0.94080397768866386 0.46820493377336886 1.0000000180025095e-35 0.9038848487256298 1.0000000180025095e-35 1.0000000180025095e-35 -0.2362830953527488 -0.82578236620033918 -0.2362830953527488 -1.0112158560727327 -0.2362830953527488 -0.41318174000096358 -0.21691677040265425 -0.51585807398424632 -0.062287561294054598 -2.6346003002872611 -0.58066289077562239 -0.59760435854512217 1.0000000180025095e-35 0.76275934921949584 1.0000000180025095e-35 0.20630344499219541 1.0000000180025095e-35 -0.98100709688107057 -0.13398417332203583 -1.3854551939751305 -0.43284367181860317 0.30409719312205225 1.0000000180025095e-35 1.0000000180025095e-35 1.4645822733834277 -0.047594422427442766 -1.0520383850355401 -1.4636480310214048 -0.9122040094267021 -1.149420335242114 1.1537970951937717 -1.2068241256034689 1.2271952968513287 -0.31547676789386397 -0.69008140758946079 -0.2808286231218714 -0.39648579719041244 1.0000000180025095e-35 0.59178127808820247 -0.81869691872057759 0.39126446180508101 -0.83853427051991736 0.2736799203630646 -0.24538953201465788 -1.0520383850355401 -0.72347763008374677 -0.18799628981247715
decision_type=2 2 2 2 2 2 2 2 2 2 2 2 2 2 2 2 2 2 2 2 2 2 2 2 2 2 2 2 2 2 2 2 2 2 2 2 2 2 2 2 2 2 2 2 2 2 2 2 2 2 2 2 2 2 2 2 2 2 2 2 2 2 2
left_child=1 4 5 15 14 12 11 10 25 -8 58 35 57 32 -1 -3 17 -11 24 -13 21 46 23 44 38 34 -26 28 -27 -28 -16 -20 41 -19 -6 -5 -23 -38 42 -14 -41 -4 -12 56 -10 -29 -21 -48 -35 -50 -25 -52 53 -53 -47 -34 -39 -2 -7 60 -46 -37 -63
right_child=2 3 13 6 8 7 9 -9 22 16 18 19 39 -15 30 -17 -18 33 31 20 -22 36 -24 50 26 27 29 45 -30 -31 -32 -33 55 48 -36 61 37 43 -40 40 -42 -43 -44 -45 59 54 47 -49 49 -51 51 52 -54 -55 -56 -57 -58 -59 -60 -61 -62 62 -64
leaf_value=0.017513416868492462 -0.018775340019380797 -0.0069147977043788307 -0.017792561252959707 0.018955591724803839 0.13087833005455066 -0.0095788998699260774 0.05420440454717379 -0.0073099960669613454 0.03602906559905554 0.017471403276337932 -0.011429566713122086 0.0071805546823321721 -0.0025364664222996217 -0.018644512044884872 0.047508324408428622 0.014982543946130977 0.017988513891386605 0.053059258315184925 -0.004630094978420104 0.022836271215484032 0.015121067405223516 0.0069065967410344336 0.036891634404980556 0.0714804525981724 0.002893986645882576 0.037917770694360406 0.032670933426064031 0.13409288158806057 0.090687508013926846 0.0054855014981828433 0.12275200182252131 0.0094549927027908331 -0.014711639508758251 0.025338107360006804 0.075491740435011959 -0.0064495870156576346 0.043668527883921546 0.083282798220885065 -0.01627676946313053 0.012391512771594329 0.090828467821597994 -0.009976288032382612 0.011263900771280396 0.065121490116797215 0.0092808564882415328 0.091590272022255531 0.10455975832291493 0.036168670626945058 0.038764763721418773 0.12090343588753838 0.072853306130998455 0.12298037852992001 0.099296980658595796 0.2201785739704758 0.058173456263577089 -0.0034563221239005382 0.15588179799891999 -0.010316406890277855 0.0024478717425009322 0.032824309122395763 0.081085966809795351 0.001064994396262825 0.024080460936054433
leaf_count=1871 5458 7206 11703 2984 365 4197 1852 10265 644 1839 698 1712 6096 34088 544 2135 3681 2301 4694 2202 3043 120 1024 293 1119 480 2979 140 271 788 95 3920 3167 1153 191 1529 469 131 589 880 68 10376 9457 448 57 1046 109 647 160 71 142 73 142 61 338 8013 87 14194 3512 193 624 2579 1405
internal_value=0 0.826879 -0.283577 0.575252 1.93063 -0.0677562 0.782067 0.0834996 2.33712 1.10295 0.187393 0.578678 -0.308158 -0.505327 0.934235 -0.0633195 0.961039 1.19914 0.289514 0.815966 0.951462 1.27027 1.91683 2.22832 0.415325 2.81971 0.717721 2.59703 1.904 0.90038 1.95735 0.0593811 -0.386538 1.50368 3.73042 0.327197 1.99473 2.17943 0.276915 0.00779477 0.600855 -0.470404 0.323898 2.68567 1.77454 2.93791 0.959912 1.53476 1.06235 2.14075 3.18488 3.74712 4.41767 5.58706 2.78284 -0.221093 3.74043 -0.421699 -0.136002 2.19325 2.50443 0.162147 0.306241
internal_count=182718 46457 136261 37863 8594 68914 28522 42218 6084 11057 31953 17465 26696 67347 2510 9341 9205 5524 24244 8968 7256 4213 3253 2229 15630 2831 4886 2275 751 3767 639 8614 33259 3685 556 8497 1255 1135 10744 7044 948 22079 10155 666 1518 1524 2958 756 1384 231 711 418 276 134 1384 11180 218 19652 7709 874 681 5513 3984
shrinkage=0.03


Tree=2
num_leaves=64
num_cat=0
split_feature=37 37 37 16 16 1 1 11 20 2 37 37 1 2 37 16 10 16 18 16 16 16 16 37 11 11 2 26 1 18 18 18 16 39 37 26 11 37 1 41 16 2 37 37 5 39 37 16 11 5 18 16 37 11 39 16 37 33 18 18 37 16 34
split_gain=2973.4 843.529 468.857 230.472 209.589 197.251 167.144 164.11 103.205 99.942 92.3406 72.6087 71.6155 77.9884 67.811 65.9911 63.4961 81.9027 50.4732 49.3195 48.4636 45.1119 63.665 40.3685 36.9674 35.2183 34.4336 33.5778 33.3403 33.1477 31.9658 31.9293 30.3218 30.0408 29.8054 37.0334 28.9444 27.8462 27.6178 27.3538 26.6198 25.1859 24.88 24.1796 24.1205 23.987 23.7832 23.7792 23.5989 23.3398 22.9025 25.4656 22.4141 22.3452 20.5334 21.6445 18.9313 18.8074 21.7023 20.0094 18.4657 18.3728 18.7128
threshold=-0.61738274431435303 -1.8927684873815787 0.55672251185681187 -0.45360361834360391 -0.46579684028150042 1.0000000180025095e-35 1.0000000180025095e-35 -0.53289850447746223 1.0000000180025095e-35 1.0000000180025095e-35 -2.6346003002872611 -2.339136423779109 1.0000000180025095e-35 1.0000000180025095e-35 0.9038848487256298 -0.47131416724181169 0.32562463000768455 -0.47273411950688538 -0.72678385538363666 -0.46960457297241948 -0.48797211470969126 -0.46545774720327387 -0.45402042025225736 -1.2850744435735131 -1.303786952182004 -1.303786952182004 1.0000000180025095e-35 1.0000000180025095e-35 1.0000000180025095e-35 1.4070539531653423 -0.71355895418407689 -0.82530936932035737 -0.46594519350322455 1.0000000180025095e-35 -1.1107349310875727 -1.0887590341829707 -1.303786952182004 -1.7851464159601564 1.0000000180025095e-35 1.0000000180025095e-35 -0.46702605269007164 1.0000000180025095e-35 0.2218489045856121 -0.32785744072966055 0.22958511544157786 1.0000000180025095e-35 -2.052678798195962 -0.46164295007322514 -1.303786952182004 -0.24619895561378183 -0.81869691872057759 -0.46207388086013806 -2.662494484861035 -1.303786952182004 1.0000000180025095e-35 -0.47250805745473434 -2.3978428329481365 1.0000000180025095e-35 0.26706746976328471 1.0592390516169188 -1.2031814288147868 -0.47456380924148284 1.0000000180025095e-35
decision_type=2 2 2 2 2 2 2 2 2 2 2 2 2 2 2 2 2 2 2 2 2 2 2 2 2 2 2 2 2 2 2 2 2 2 2 2 2 2 2 2 2 2 2 2 2 2 2 2 2 2 2 2 2 2 2 2 2 2 2 2 2 2 2
left_child=1 5 6 4 20 8 16 60 56 25 32 15 18 27 28 -10 30 -18 -9 -11 -3 44 41 39 -22 -8 53 34 61 45 -2 -27 -7 40 35 -14 -32 -26 -5 -20 -33 -23 -38 -21 54 -15 -24 -35 -16 -43 -30 -52 -17 -19 -12 -56 -1 59 -59 -13 -6 -4 -63
right_child=2 3 14 38 7 10 9 12 11 19 21 57 13 29 48 52 17 26 23 43 24 22 46 -25 37 31 -28 -29 50 -31 36 33 -34 47 -36 -37 42 -39 -40 -41 -42 49 -44 -45 -46 -47 -48 -49 -50 -51 51 -53 -54 -55 55 -57 -58 58 -60 -61 -62 62 -64
leaf_value=0.031806792718007307 -0.015058200090183362 -0.0034445062510163058 -0.019417650971937865 -0.0053483832194344818 0.017020409663573419 0.062767455834779259 -3.0235974815814876e-05 0.0091833912425359314 0.028027367220339161 -0.010428263823715936 0.046236787779087088 0.025822343776822583 0.14026488598335871 0.021085421915495825 -0.022544486029094878 0.11018314627128782 -0.011503983890178973 -0.0038658190421458011 0.038184757953084 0.016327384709800715 -0.0019303984817869704 0.089504668533274961 0.04874047155692468 0.02332661214137579 0.038681662440105895 0.0051134895693819423 -0.0064033164926022672 0.077745856147914155 -0.014450262150816901 0.061538370328502096 -0.014584568983778896 0.0058042243098728437 0.14947788860862288 0.021070447878343654 0.03395728613102892 0.055399999087225364 0.0012502030524867902 0.014031118058547775 0.011861713260517229 0.076610795435553047 0.022893229379302153 0.11884014244243434 -0.010237809140570599 0.0013436807771100543 0.0081716186296271146 0.054231772304837403 -0.0084056500392261282 0.060616528919881625 -0.016338327371208806 0.062054362461861204 -0.0090722422927192684 0.0033484109661818576 0.067349504974340571 0.0079419162160940891 0.050472674838071357 0.14405717325208106 0.0061814510805226989 0.091814392626918026 0.038214560173180291 0.046205137919016828 0.0024246526835947032 -0.013754094465049086 -0.0040681375749092915
leaf_count=497 9227 2952 5455 5944 1805 57 1802 1576 527 4236 774 1888 63 2060 11197 147 7201 2405 2041 1543 1662 1168 347 3123 583 2070 3823 599 3167 330 3897 1524 193 348 899 1272 5696 6583 1374 241 3820 89 3797 7750 167 290 113 378 22891 962 4333 3680 1437 9397 59 53 1109 134 240 782 2317 13687 2937
internal_value=0 0.784866 -0.277115 0.513578 0.659079 1.65687 -0.0658962 0.919107 1.28261 0.183801 2.27978 1.52345 1.12468 1.42956 -0.496545 2.02356 -0.195761 -0.0605522 0.880467 -0.0205374 0.288668 2.13759 2.38146 1.04501 0.422496 0.461136 0.0872727 1.84393 -0.378671 0.989598 -0.334254 0.562995 4.32473 0.695677 1.64005 1.97892 -0.220453 0.535161 -0.068844 1.40859 0.601257 2.62692 -0.111286 0.127964 1.51458 0.83912 1.16599 1.39009 -0.612492 2.22906 -0.215684 -0.112083 2.3809 0.18456 1.74704 3.16494 0.471856 1.16716 1.91329 1.06124 0.294697 -0.461812 -0.401003
internal_count=182718 46457 136261 35714 28396 10743 68914 16616 6761 23471 3982 5155 12494 5513 67347 2111 45443 22826 6981 13529 11780 3732 2679 5405 8828 9942 15625 2833 33259 2680 22617 8140 250 6070 2234 1335 13390 7166 7318 2282 5344 2219 9493 9293 1053 2350 460 726 34088 1051 11180 8013 1584 11802 886 112 1606 3044 374 2670 4122 22079 16624
shrinkage=0.03


Tree=3
num_leaves=64
num_cat=0
split_feature=37 37 37 20 20 1 1 1 8 37 10 37 7 37 39 37 8 6 7 8 6 37 8 6 8 6 1 8 6 37 8 6 5 42 42 37 42 1 6 42 37 7 12 37 27 6 5 7 5 8 37 36 8 7 36 36 42 7 49 8 6 6 7
split_gain=2760.14 735.771 450.691 210.516 162.797 157.543 113.022 102.502 75.9352 66.2849 60.6516 60.6304 60.3722 49.5312 48.6708 47.7177 46.9234 80.0809 46.3276 69.8325 76.3849 39.1816 38.8673 32.9284 32.8391 38.9746 32.2289 32.2116 53.831 30.547 29.1435 79.3101 28.1845 27.9213 28.6015 27.5722 27.3578 27.1569 25.6174 25.4375 25.2908 24.9448 26.3564 24.8533 23.6545 23.6209 22.7179 21.4197 21.2761 20.9709 20.7795 20.4134 20.3602 30.707 20.3411 20.2803 19.898 19.7333 19.6126 19.6108 23.7133 19.3824 19.3081
threshold=-0.61738274431435303 -1.8927684873815787 0.55672251185681187 1.0000000180025095e-35 1.0000000180025095e-35 1.0000000180025095e-35 1.0000000180025095e-35 1.0000000180025095e-35 0.37244611954028989 0.9038848487256298 0.32562463000768455 -2.339136423779109 -0.062598430514293313 -2.6346003002872611 1.0000000180025095e-35 -1.2935118873599454 -0.2362830953527488 -0.64834065358026949 -0.78132806770620289 -0.2362830953527488 -0.2332733158915283 -1.3585258279038621 0.37244611954028989 -1.1993424743014194 -0.2362830953527488 -0.035349166329682186 1.0000000180025095e-35 0.37244611954028989 -0.79983420662042859 -0.13617838177208366 -0.2362830953527488 -0.46440621537985866 -0.22136228933656096 0.24328616324218694 1.0144898159452638 -2.4267263161308228 -0.14594201257347247 1.0000000180025095e-35 -0.79144374271495221 -0.0093495160915796037 -0.98100709688107057 -0.82578236620033918 1.0000000180025095e-35 -2.662494484861035 1.0000000180025095e-35 -0.67796790288177078 0.1890523939881712 -0.33989377496722728 -0.023493793054199723 -0.49016456119173685 -2.2864263736012376 0.83088089847081203 0.37244611954028989 -0.4583349478781778 1.2704973351365429 -1.0741236604140219 -1.067034776460219 -0.20653087948481846 1.0000000180025095e-35 -0.2362830953527488 0.45486803110830815 -0.31568145937998365 -0.86246493418850767
decision_type=2 2 2 2 2 2 2 2 2 2 2 2 2 2 2 2 2 2 2 2 2 2 2 2 2 2 2 2 2 2 2 2 2 2 2 2 2 2 2 2 2 2 2 2 2 2 2 2 2 2 2 2 2 2 2 2 2 2 2 2 2 2 2
left_child=1 4 5 37 35 10 15 11 12 26 29 43 14 -9 41 23 17 39 -15 20 32 -18 36 -5 25 45 -4 28 -13 54 31 -25 44 -17 -35 -1 -12 -3 -34 -8 -19 -7 56 -6 -20 -14 -47 -40 -33 -49 58 -42 53 -28 -2 -44 -43 -38 -21 -30 -61 -51 -41
right_child=2 3 9 6 7 8 16 13 -10 -11 22 27 24 18 -16 33 21 40 19 50 -22 -23 -24 30 -26 -27 52 -29 59 -31 -32 48 38 34 -36 -37 57 -39 47 62 51 42 55 -45 -46 46 -48 49 -50 61 -52 -53 -54 -55 -56 -57 -58 -59 -60 60 -62 -63 -64
leaf_value=0.038415527839228497 0.0022277213264646702 -0.0053476358547724628 -0.013598791972154472 -0.019557960302725105 0.091182097088610095 -0.0050993723655926746 0.0096334573339478397 0.10951300998825717 -0.0052503431513919998 -0.018105752198671214 -0.0048752556990528956 0.017706763519067466 0.0017079742245586121 0.038561942297898548 0.024177630017161462 0.0019844116123897281 0.033345604991663925 0.055377813332012041 0.077258000877017147 0.075125780327316177 0.12629252158500878 0.011892754575073274 -0.009912995292458867 0.018360745886634763 0.0097990588211564495 0.058437420890281047 -0.011325181424295149 0.0091299917801077705 0.059018010168141885 -0.012344882263450069 0.013378633156349462 0.061961704214849998 0.037403380372435596 0.019682954698902393 0.004536647428120536 0.010409261987347382 0.00067692501129063085 0.011769285878743782 0.096423376291216834 0.019766077679987153 0.027498787505730676 -0.014548430277590556 0.034248734080996907 0.052411385043722315 0.15060288967031826 0.034521942747421416 0.010407912367423052 0.028462683420573356 0.026938362640795955 0.096148228146580653 0.037472248339833106 0.083684297557316781 -0.013374535132415329 0.0027506647940224974 -0.010438697714308462 0.0076637028116325135 0.0051868955287168624 0.010430913741661172 0.019460656874790306 0.024184824568258038 0.075484067293772522 0.03204321109438394 0.037046798372753154
leaf_count=561 3535 5915 22079 236 184 3996 1095 233 6122 34088 6555 937 587 709 1274 4320 1439 1635 117 400 325 3085 5462 2889 3167 364 3256 538 951 16313 2972 747 287 3506 2485 1455 7061 1354 271 1422 766 730 596 1927 74 1350 686 148 262 168 687 80 3463 4461 2769 778 3821 3748 83 489 129 70 1506
internal_value=0 0.745979 -0.270762 0.49153 1.54115 -0.0640822 0.627849 1.73999 0.177379 -0.487827 -0.19087 1.42208 0.299 2.18404 0.139435 0.446104 0.908473 1.09931 2.07254 2.28159 2.77257 0.626199 -0.0588559 0.671483 0.586245 0.855156 -0.370903 1.09924 1.26466 -0.327027 0.716469 0.917875 2.35019 0.288685 0.44713 0.612444 0.0246813 -0.0690223 2.10613 0.787561 1.59359 0.0531969 0.20227 1.86591 3.53766 0.700795 0.881999 2.47566 1.76358 1.96148 1.64225 1.09498 -0.210389 -0.105767 -0.109316 0.640619 0.0685121 0.13623 2.18917 1.65831 1.16255 2.58414 0.958681
internal_count=182718 46457 136261 35714 10743 68914 28445 8727 23471 67347 45443 5155 17349 3572 11195 17417 11028 6504 3339 2630 1460 4524 22826 7106 6154 2987 33259 3044 2506 22617 6870 3898 1135 10311 5991 2016 17364 7269 944 4023 2481 9921 5925 2111 191 2623 2036 657 1009 386 1170 846 11180 7717 6304 1374 4551 10809 483 1569 618 238 2928
shrinkage=0.03


Tree=4
num_leaves=64
num_cat=0
split_feature=15 8 27 10 16 16 7 16 27 27 8 7 8 8 7 7 16 15 27 8 39 16 27 27 7 33 7 0 16 39 8 0 5 10 39 16 8 7 27 16 15 5 10 49 0 8 7 8 8 7 27 34 39 7 7 40 10 16 10 33 49 7 15
split_gain=696.742 332.947 236.455 195.976 222.837 148.812 122.668 97.3738 93.1179 84.9111 80.2105 73.6119 70.0668 53.7814 60.4277 48.4777 44.5489 57.13 35.7676 33.0104 33.5226 32.8798 37.849 32.6965 29.4079 27.0728 26.909 26.0293 23.8693 23.7476 23.217 31.1279 22.1508 22.11 21.5343 21.4119 21.4024 20.4892 20.2421 19.9679 19.9552 19.5661 19.4169 19.3466 20.7876 21.1182 26.284 43.4123 23.7447 32.8212 19.1204 18.7582 18.6105 18.5851 19.6879 18.4283 21.5335 19.7487 18.365 18.0627 17.8352 17.0298 19.5188
threshold=0.46820493377336886 0.37244611954028989 1.0000000180025095e-35 0.32562463000768455 -0.46579684028150042 -0.46769717440739506 -0.82578236620033918 -0.46663750853793712 -1.0609775097039424 1.0000000180025095e-35 -0.2362830953527488 -0.78132806770620289 -0.3361500602168126 -0.2362830953527488 -0.70112380888461434 -0.14528964309779155 -0.47695865410645794 -0.91565817020767171 1.0000000180025095e-35 -0.2362830953527488 1.0000000180025095e-35 -0.46371283073823305 1.0000000180025095e-35 1.0000000180025095e-35 0.99699930666936776 1.0000000180025095e-35 0.14848177002779436 1.0000000180025095e-35 -0.47678204312821487 1.0000000180025095e-35 -0.63226367270666906 1.0000000180025095e-35 -0.28880773825849748 0.71901721371951122 3.0440432134344064 -0.45856991905179695 -0.80339700333631259 -0.24041562449083845 -1.0609775097039424 -0.45986977585166544 -0.61240845990133319 -0.015237816348887372 -0.85455312112779525 1.0000000180025095e-35 1.0000000180025095e-35 -0.89728489783577781 -0.31222641436598164 -0.7157141501958183 -0.85016689184713712 -0.75739113774782185 -1.0609775097039424 1.0000000180025095e-35 1.0000000180025095e-35 -0.32341770629457539 -0.36010027428274377 -0.3925339743519794 0.71901721371951122 -0.45876772334742916 -0.85455312112779525 1.0000000180025095e-35 1.0000000180025095e-35 -0.11264837497272646 0.35368465042505365
decision_type=2 2 2 2 2 2 2 2 2 2 2 2 2 2 2 2 2 2 2 2 2 2 2 2 2 2 2 2 2 2 2 2 2 2 2 2 2 2 2 2 2 2 2 2 2 2 2 2 2 2 2 2 2 2 2 2 2 2 2 2 2 2 2
left_child=3 2 5 16 18 27 32 26 41 13 12 -9 43 14 40 -14 -1 36 28 20 55 -3 50 34 33 -11 -4 60 29 -5 37 38 -7 35 39 -17 -18 -16 -32 -19 -6 -8 -12 44 45 -10 48 -48 49 -47 -23 -41 -42 54 -51 57 -57 -13 -24 -15 -2 -40 -63
right_child=1 21 7 4 9 6 8 11 10 25 42 19 15 59 30 24 17 23 -20 -21 -22 22 58 -25 -26 -27 -28 -29 -30 -31 31 -33 -34 -35 -36 -37 -38 -39 61 51 52 -43 -44 -45 -46 46 47 -49 -50 53 -52 -53 -54 -55 -56 56 -58 -59 -60 -61 -62 62 -64
leaf_value=-0.016047808643759754 0.0025550389587343084 -0.011402839429225693 0.0046959937625610411 -0.012966201956814454 -0.0098945438223881615 0.01375479045004901 0.013249627982310023 0.01846352583839871 0.007943838817849859 0.020460563960096771 0.00016053156573645123 0.041584512162938771 0.017985316322414957 -0.0021139932475123793 0.01724262389667117 0.016832674705695303 -0.015202191089127749 -0.0093041890232751761 0.0024829130483296981 0.029062063552064837 0.079768401765326555 -0.016434064450196215 -0.0068144864351996513 0.0077797518622641565 0.015190239981461571 0.055433077844343391 0.031134533882734707 -0.015027088047606873 -0.0044822154891842186 0.0016570380380058769 -0.00026286088410774102 -0.015028869204841653 0.00052172441377569155 0.052698176932555192 0.021756240840125639 0.049569497536725911 -0.0090777120036966939 -0.0060907387493497698 0.020344865266188727 -0.0044565725228304601 0.0031053486657888524 -0.0070599099901581626 0.013714842938265711 0.0046996049434321124 -0.010903211797651496 0.086522041632961039 0.0023133089305232058 0.028321539144777544 0.023436206810088678 0.034186608565783268 -0.0010030170496542542 0.0087603569212313191 0.028380866000214458 0.077775440039272656 -0.032695076763506949 0.011939916491202072 0.04506143509265937 0.0657045230081756 0.028840390248956262 0.01709701315196533 -0.011266669333680871 0.041733280587438845 0.0016036475132253018
leaf_count=10452 9387 7261 1870 12618 1314 1846 797 1818 1095 3042 1797 764 1295 9384 1277 480 10583 9706 4149 1171 361 1234 230 2574 397 271 574 1417 10628 1514 294 230 7868 1864 349 441 21283 681 1206 7062 3162 1975 4144 948 241 159 1369 1597 2430 1116 5102 1590 386 105 55 316 696 705 668 628 1275 1313 154
internal_value=0 0.291571 0.422996 -0.174938 -0.0103267 0.315721 0.443102 0.968689 0.588659 0.252335 0.674339 1.21226 0.823594 0.161338 0.347397 1.1844 -0.313829 -0.270489 -0.226602 1.47328 1.67229 -0.204187 -0.0296318 -0.123297 1.41586 0.779111 0.366258 -0.0303558 -0.280345 -0.379802 0.616821 0.803739 0.101557 1.54188 -0.177688 1.08494 -0.37034 0.305427 0.899454 -0.195026 0.054541 -0.0395086 0.321356 0.642108 0.698087 0.728765 0.802132 0.549597 0.996428 1.36084 -0.131463 -0.0665034 0.196019 1.16916 1.03839 1.52818 1.16568 1.77529 0.661911 -0.0300315 0.0305524 0.995429 1.25099
internal_count=182718 66868 52373 115850 52251 44098 32019 8275 22305 23342 19533 5831 13592 20029 10017 4477 63599 53147 28909 4013 2842 14495 7234 21281 3182 3313 2444 12079 24760 14132 5155 3197 9714 2785 18707 921 31866 1958 2967 18358 4862 2772 5941 9115 8167 7926 6831 2966 3865 1435 6336 8652 3548 1276 1171 2481 1012 1469 898 10012 10662 2673 1467
shrinkage=0.03


Tree=5
num_leaves=64
num_cat=0
split_feature=37 37 37 15 15 15 11 11 16 16 16 37 37 1 42 8 1 1 42 8 8 8 8 1 8 15 37 33 39 15 11 8 12 5 15 37 1 37 17 17 17 11 1 15 37 15 37 12 12 33 15 11 37 16 41 8 8 16 17 5 17 42 8
split_gain=2532.22 632.643 426.747 253.658 175.973 161.824 159.576 147.266 148.229 122.871 79.0055 68.8822 64.2492 62.0105 61.3731 52.4864 50.5244 47.7368 39.6324 37.1965 77.9401 37.0309 44.1748 30.7621 30.0309 29.5265 31.2159 26.7615 26.4831 26.4559 30.2844 25.9768 25.8721 25.5656 25.2361 25.0855 24.8142 25.0463 24.6889 24.6646 23.9802 23.7145 23.6792 32.4847 23.1638 23.0989 21.8649 21.6117 21.4975 21.4457 26.5224 30.0881 21.1211 20.7875 20.7857 20.2415 51.5632 20.1662 19.9604 26.4423 19.7539 18.8396 18.8201
threshold=-0.61738274431435303 -1.8927684873815787 0.55672251185681187 -0.86206267760066024 -0.56385185976164742 -0.24937916168717408 -1.303786952182004 -0.53289850447746223 -0.46579684028150042 -0.4714271982678872 -0.46553545603370078 -2.3119777757263691 0.9038848487256298 1.0000000180025095e-35 -0.070997456981637452 0.37244611954028989 1.0000000180025095e-35 1.0000000180025095e-35 -0.63308162392040013 -0.2362830953527488 -0.69507139449373068 0.27935828450738504 -0.87189675125187904 1.0000000180025095e-35 -1.0886823300688315 0.37819199106159312 -1.8588401209061172 1.0000000180025095e-35 1.0000000180025095e-35 -0.047594422427442766 -1.303786952182004 -0.89728489783577781 1.0000000180025095e-35 -0.2675835391243041 0.59097067752276278 -1.1237118571966966 1.0000000180025095e-35 -1.7081645359443447 1.1908123756535287 0.71624825215658194 -0.054564084634456694 -1.303786952182004 1.0000000180025095e-35 1.4542245734023627 -1.562956883387461 0.84932843675656178 -0.14356142646646117 -0.89807038659736216 1.0000000180025095e-35 1.0000000180025095e-35 1.4029194864623176 -0.53289850447746223 -1.2031814288147868 -0.47074901211143411 1.0000000180025095e-35 -0.56699469927820467 -0.2362830953527488 -0.45660600497373482 0.60653719134814799 0.047159343394315177 1.0742975281282929 1.0737201905259077 0.37244611954028989
decision_type=2 2 2 2 2 2 2 2 2 2 2 2 2 2 2 2 2 2 2 2 2 2 2 2 2 2 2 2 2 2 2 2 2 2 2 2 2 2 2 2 2 2 2 2 2 2 2 2 2 2 2 2 2 2 2 2 2 2 2 2 2 2 2
left_child=1 4 5 16 17 13 53 52 25 -8 28 31 23 -2 34 18 -3 -1 -11 20 36 22 54 29 -20 38 -27 60 55 -4 -31 33 -15 -12 -10 -21 -16 -38 47 -29 -30 -14 58 -44 -36 -43 -26 -9 -19 50 -33 -52 -5 -7 -13 -6 -57 -51 59 61 -22 -24 -25
right_child=2 3 12 7 10 6 9 8 14 15 11 21 41 32 19 -17 -18 48 24 35 27 -23 42 62 46 26 -28 39 40 30 -32 49 -34 -35 44 -37 37 -39 -40 -41 -42 45 43 -45 -46 -47 -48 -49 -50 57 51 -53 -54 -55 -56 56 -58 -59 -60 -61 -62 -63 -64
leaf_value=0.012680947987825469 -0.011950345221625974 -0.0069667643523246238 -0.016966444469646895 0.01157452317626736 0.018827059787461659 -0.016476617309925935 -0.0052416101737224894 0.027435714482393642 0.0086519711638316475 0.0030581319234497103 0.086291587982151668 0.021101076498894276 -0.022034181361065754 -0.0025729214151168304 0.023001396906559612 -0.00032757208771735783 0.012621016694126139 0.035217420632403913 0.00083518838372206123 0.033681008618623269 0.043877399413424653 0.023599622293923116 0.039781427305187161 -0.0031293246275557818 0.023430833575954046 0.093821238597547096 0.017946950876927287 0.06429422045840634 0.10506638719628787 -0.017284405325112922 -0.0047328312032914235 0.077478231972391842 0.016681563183977646 0.034833500102198101 0.056938680402064984 0.014530010373720481 0.073673034501562401 0.035062956563280179 0.033500022722107017 0.12765257644234435 0.044148796809320427 -0.017112927641037851 0.085531454301902426 0.039276860828602454 0.021452626358754556 -0.0066649090303024794 0.014016961911891649 0.0014472656002966987 0.08232162052974773 0.080182583478363073 -3.0452205064691752e-05 0.064250873120934915 -0.0008799716719560159 -0.0059839741217890966 0.080212678524147416 0.067858746545771786 0.025238645409614339 0.13230630595621237 0.03274228712358275 0.12293021893459148 0.068185489815010047 0.086202086190493021 -0.012996959374587374
leaf_count=2271 19652 6835 11703 2784 837 3214 8279 412 1709 3824 134 529 11197 6096 2285 4521 2014 652 1493 1717 1425 601 300 7717 4270 61 3441 228 97 3710 6666 1186 948 349 247 1418 201 1547 356 87 213 19829 560 199 1104 3062 8559 3852 118 199 98 257 3530 8058 72 420 939 109 407 67 461 129 3463
internal_value=0 0.703781 -0.263479 0.466952 1.42271 -0.0629918 0.0758818 0.633663 0.777753 0.209923 1.68396 1.91582 -0.477067 -0.289674 1.01551 0.346102 -0.0774357 0.691114 0.430962 1.15445 1.30718 1.55791 1.75064 -0.361512 0.517019 0.398489 0.643659 1.81785 1.18172 -0.442799 -0.307043 2.33045 0.0025265 1.63811 0.578348 0.836794 1.01242 1.32004 0.208358 2.72732 2.10628 -0.592297 2.02453 2.44526 0.935512 -0.523258 0.57235 0.132168 1.42521 2.50493 2.34471 1.56216 0.156009 -0.297593 0.941433 1.04805 1.30518 3.28426 1.64658 2.10492 1.66256 1.79611 -0.20443
internal_count=182718 46457 136261 35714 10743 68914 42218 26865 20551 30946 7702 5196 67347 26696 12429 22667 8849 3041 18146 9369 6234 2864 2263 33259 14322 8122 3502 2201 2506 22079 10376 2332 7044 483 3060 3135 4033 1748 4620 315 310 34088 1662 759 1351 22891 12829 4264 770 1849 1541 355 6314 11272 601 2196 1359 308 903 496 1886 429 11180
shrinkage=0.03


Tree=6
num_leaves=64
num_cat=0
split_feature=11 42 16 16 1 2 16 1 16 18 18 2 17 25 1 18 34 17 0 42 12 17 29 21 12 29 33 2 7 16 12 7 7 18 17 29 7 2 34 1 11 16 0 17 5 7 42 17 7 42 16 25 40 7 7 7 12 7 5 1 29 17 5
split_gain=515.635 462.51 372.745 437.103 122.741 142.599 75.0689 64.8466 64.7304 61.4804 61.1679 43.6625 40.486 39.3949 38.419 36.5277 34.0488 32.3088 32.2226 35.493 28.6427 30.7948 28.1315 26.7357 25.2324 32.0707 24.6668 24.2674 23.7287 23.7225 23.4236 22.0334 21.5961 21.4536 20.6765 29.5424 20.3638 19.8497 19.6968 19.6687 19.2364 19.5893 18.8575 21.2176 18.6613 18.4185 20.1046 17.4431 18.7348 17.3969 17.3151 17.197 18.662 17.1799 35.0398 17.0493 24.3202 16.6392 29.1819 16.5417 17.1738 16.0033 15.8638
threshold=-1.303786952182004 -0.23055683340296365 1.0000000180025095e-35 -0.46579684028150042 1.0000000180025095e-35 1.0000000180025095e-35 -0.46910299779420933 1.0000000180025095e-35 -0.47909917916276307 0.081257607909468996 -0.78100595030183195 1.0000000180025095e-35 -0.33380283113654302 1.0000000180025095e-35 1.0000000180025095e-35 1.0942850397957524 1.0000000180025095e-35 -0.78823908559628364 1.0000000180025095e-35 1.0011932012434868 1.0000000180025095e-35 0.73297422783538713 0.74634695237410498 1.0000000180025095e-35 1.0000000180025095e-35 -0.7847281541041643 1.0000000180025095e-35 1.0000000180025095e-35 -0.94080397768866386 -0.4616994655862629 2.0365573887985602 0.67322901379074584 -0.86246493418850767 1.4070539531653423 -1.7665669172497862 -0.47851313280851049 1.4284857843607048 1.0000000180025095e-35 1.0000000180025095e-35 1.0000000180025095e-35 -0.53289850447746223 -0.4549599906565101 1.0000000180025095e-35 -1.5596184046137223 0.43217349479876155 0.28060118862924838 1.1680052765930549 0.27683702669644589 -0.99054305292685829 1.1619613608195198 -0.45360361834360391 -0.7177737506802393 0.91449149673038921 0.22557733664699578 0.31168811065311991 -0.73531942311087306 1.0000000180025095e-35 -0.75459331476567337 0.0074833036310425613 1.0000000180025095e-35 0.74634695237410498 1.1669991221447213 -0.12264188703048556
decision_type=2 2 2 2 2 2 2 2 2 2 2 2 2 2 2 2 2 2 2 2 2 2 2 2 2 2 2 2 2 2 2 2 2 2 2 2 2 2 2 2 2 2 2 2 2 2 2 2 2 2 2 2 2 2 2 2 2 2 2 2 2 2 2
left_child=6 7 3 8 9 18 -1 17 -3 22 -4 23 -10 31 -12 16 39 -2 24 -20 32 -22 30 55 25 47 -19 57 -14 -13 38 42 -7 45 35 -16 -27 59 -5 -8 -26 -42 43 -11 -34 46 -23 48 -6 -50 -31 52 -17 -28 -55 -9 -57 -15 -59 62 -61 -49 -30
right_child=1 2 10 4 5 20 15 11 12 13 14 29 28 27 34 51 -18 26 19 -21 21 33 -24 -25 40 36 53 -29 37 50 -32 -33 44 -35 -36 -37 -38 -39 -40 -41 41 -43 -44 -45 -46 -47 -48 61 49 -51 -52 -53 -54 54 -56 56 -58 58 -60 60 -62 -63 -64
leaf_value=-0.016867803226197232 -0.013234828383325592 -0.0057448817527636069 -0.012943851244856705 0.0070411178399356926 -0.021285431128668712 -0.0012656571397241976 -0.014000954289985016 -0.0084026635197386092 -0.0031831775650524503 -0.0093522543092463568 -0.0034773316629393008 -0.0082271581221462758 -0.0026308271694343334 0.019978578028764505 0.096303550927820961 0.0066641843601086201 -0.0012581002694291917 -0.0066354698404327986 9.6864835739543718e-05 0.050480543620307863 0.018099884301859579 0.03905195557220368 -0.0047309259619107832 0.019379149314147873 0.018093822654988403 0.02949185705198587 -4.5700672874195001e-05 0.011983825444603165 0.019036594569894622 0.0067620140971257972 -0.018022523958855209 0.00052587367125039755 0.016662057352173656 0.089760973107094619 0.010747783552279566 0.0097058112584316597 0.00086476675690628732 0.0045653455356123316 0.019730677309077529 -0.0062134224362436563 0.0431755534795423 0.069122506014085511 0.0047298315356186418 0.019283835968799026 -0.0035942319361524423 0.0056718941960056503 0.10714753690762809 0.068981402051216945 0.051619399783767575 0.0057486451321559114 -0.011116690715902069 -0.0027340791580796634 0.047088083983095434 0.10878073391587841 0.01462660284827088 0.0024930902532848656 0.024051942559298295 0.043162220277487638 0.014718076194418301 0.030736133683257429 0.0040492277248364971 0.034942068884394703 0.0054971371413715508
leaf_count=15182 10165 11350 9142 4764 63 1161 12402 1160 4966 320 7076 6454 1842 1136 85 1161 4991 23144 595 213 1443 281 2150 1611 285 3854 973 1079 1764 2871 352 1320 5392 102 1418 104 312 3587 1994 5806 2075 366 1511 6596 590 145 55 445 345 121 854 4694 152 53 413 3191 756 1572 558 1157 368 218 2413
internal_value=0 0.107474 0.266728 0.38296 0.609551 0.825374 -0.348633 -0.171025 0.0222806 0.436414 -0.216645 0.0136813 0.169012 0.583651 0.0047621 -0.240557 -0.307373 -0.263567 1.13741 0.458005 0.512824 0.879862 0.207313 0.240319 1.20223 1.06217 -0.191587 0.863655 0.289271 -0.138458 0.315396 0.456847 0.405992 1.55608 0.507467 1.6378 0.915383 0.363197 0.361868 -0.382462 1.47195 1.56893 0.522519 0.600313 0.491159 1.24351 1.6885 1.55913 1.08621 1.32405 0.0921304 0.0126444 0.380227 0.27184 0.853964 0.110737 0.223905 1.01482 1.19763 0.495334 0.812493 1.92705 0.376191
internal_count=182718 138330 86685 68860 41413 18061 44388 51645 27447 23352 17825 16897 16097 14092 8683 29206 23199 34748 8892 808 9169 2026 9260 6718 8084 5358 24583 4345 11131 10179 7110 9747 7143 583 1607 189 4166 9289 6758 18208 2726 2441 8427 6916 5982 481 336 1192 529 466 3725 6007 1313 1439 466 5107 3947 3266 2130 5702 1525 663 4177
shrinkage=0.03


Tree=7
num_leaves=64
num_cat=0
split_feature=37 37 37 15 15 15 11 11 15 7 37 37 1 1 1 37 18 18 1 6 6 37 11 15 26 1 6 9 26 6 18 6 6 7 11 18 14 6 15 18 6 39 6 39 1 6 14 18 7 18 15 37 6 18 7 11 37 26 6 7 37 26 17
split_gain=2324.07 549.69 405.558 222.123 144.712 142.097 137.006 123.815 81.2799 71.6038 64.8597 64.0332 58.1835 49.3957 46.0699 42.8841 42.6183 40.642 40.5633 35.0241 65.1654 32.8357 29.581 52.8715 27.2853 27.0944 26.106 24.4075 24.2983 23.758 23.3201 22.9431 22.7458 29.3081 22.3531 22.0485 21.881 21.7465 21.6688 20.7543 20.3691 19.9309 19.9117 25.4023 19.2071 27.0838 20.6038 19.8501 23.9485 18.7731 23.6949 19.4585 18.4147 18.346 18.0702 18.0313 19.509 17.3494 18.6287 16.9702 16.5703 16.5653 16.4496
threshold=-0.61738274431435303 -1.8927684873815787 0.54519793577872355 -0.86206267760066024 -0.24937916168717408 -0.56385185976164742 -1.303786952182004 -0.53289850447746223 0.32963539092190747 -1.0112158560727327 0.9038848487256298 -2.339136423779109 1.0000000180025095e-35 1.0000000180025095e-35 1.0000000180025095e-35 -0.14356142646646117 1.4070539531653423 -0.74067000164317454 1.0000000180025095e-35 -0.78676929588985722 0.15025551785859229 -1.2850744435735131 -0.53289850447746223 0.46270796017264976 1.0000000180025095e-35 1.0000000180025095e-35 0.38777234412603928 1.0000000180025095e-35 -1.0887590341829707 -0.62914963927676182 -0.13166330140344429 0.59056150549146158 0.38866912049536201 0.19200346086121453 -1.303786952182004 -0.83853427051991736 -1.1449216363218919 -0.75662640017599525 0.84932843675656178 -0.29499083121800823 -1.0420142700083539 1.0000000180025095e-35 0.1328972902598882 1.0000000180025095e-35 1.0000000180025095e-35 -0.22259046739197066 -0.1741822249640182 1.5584790719003025 -0.23108954788367697 -0.80481077246103971 -0.16165662464236466 -1.3854551939751305 -1.0420142700083539 -0.80084330210117172 -0.47450014733059104 -1.303786952182004 -1.96160082134307 1.0000000180025095e-35 0.14259928960549903 0.30391638014715205 -2.6346003002872611 1.0000000180025095e-35 -0.5316796281502042
decision_type=2 2 2 2 2 2 2 2 2 2 2 2 2 2 2 2 2 2 2 2 2 2 2 2 2 2 2 2 2 2 2 2 2 2 2 2 2 2 2 2 2 2 2 2 2 2 2 2 2 2 2 2 2 2 2 2 2 2 2 2 2 2 2
left_child=1 5 4 14 12 18 -6 37 13 -10 22 24 35 49 -3 52 21 -17 54 -13 55 -11 -4 25 29 -24 44 -26 -15 53 -14 41 33 -19 -12 -2 -31 -5 -36 -39 -29 -32 43 62 46 -46 47 -18 -49 -9 51 -51 -8 -7 -1 56 -21 -23 -59 61 -56 -35 -30
right_child=2 3 10 7 6 11 15 8 9 16 34 19 30 28 -16 17 26 32 -20 20 -22 57 23 -25 27 -27 -28 40 42 36 31 -33 -34 59 38 -37 -38 39 -40 -41 -42 -43 -44 -45 45 -47 -48 48 -50 50 -52 -53 -54 -55 60 -57 -58 58 -60 -61 -62 -63 -64
leaf_value=0.0028013620405708635 -0.017742286935058024 -0.006592199004308367 -0.015411942855703112 -0.0049962470609852235 -0.0083885148790928156 0.0052827549512327807 0.00012997980551815409 -0.0039576448387290044 0.0089259906205481822 0.035817019877164805 -0.021651688680963961 0.0251423398055193 -0.0069662181097327053 0.071917583948364144 0.012059279184785868 -0.0036459423019633086 0.030138499991351351 0.0060611202516876427 0.039748308905363842 0.023701428553775359 0.024444063305300339 0.019442161713113276 -0.014592179592142622 0.00017579302718131296 0.036507877971322711 -0.0049529731340397587 0.017080454478799915 0.039385467971837736 0.0090552548386816627 0.10131870513017602 0.0075812055570340037 -0.008098756323748962 -0.0014520349641237284 0.030109056313342788 -0.016818498612279884 -0.0092046774972987921 0.054859721325819635 -0.0019464768099121108 -0.0066919124274455221 0.013765429246098004 0.080884958038362223 0.036177953618317514 0.011014007156757792 0.062805421294663738 0.059982759268269709 0.12748924091529204 0.025853829266941877 0.054475828202571901 0.13054489886830808 0.018072379996960312 0.023189344903663554 0.00065633685569293945 0.013860959480151251 0.043977759896948819 0.071113487473656423 0.05876823248257846 0.090720417675947615 0.042138772022376342 0.013390154308097726 0.015223989111366723 0.018530028461481021 0.088207493777987797 0.031392262992958588
leaf_count=1131 5373 6835 10678 1867 11098 144 1343 1189 1951 3670 11197 1402 3056 114 2014 7074 102 8576 770 286 1154 3772 11987 6462 178 5205 212 129 504 100 2505 1055 3371 363 19829 13939 1099 1432 3062 3015 785 315 1044 210 221 80 267 104 71 1078 1329 2272 8042 722 70 1652 51 817 350 1669 1070 62 1194
internal_value=0 0.664601 -0.256271 0.443305 -0.0581914 1.31971 0.0731326 0.596111 0.725138 0.912924 -0.463358 1.54607 -0.276254 0.468726 -0.0695716 0.196279 1.03233 0.105214 0.664056 1.28702 1.4784 0.950849 -0.349659 -0.276424 1.89338 -0.386465 1.67323 2.29767 0.822403 1.67142 0.00804465 0.193987 0.216545 0.296052 -0.581377 -0.384002 1.9627 0.156658 -0.514223 0.292418 2.50723 0.362037 0.761711 0.967866 1.93014 2.59433 1.54289 2.1842 2.87686 0.273016 0.37393 0.212469 0.397716 1.25589 0.414268 1.82199 1.12277 0.764253 1.12885 0.671389 0.730065 1.29366 0.827508
internal_count=182718 46457 136261 35714 67841 10743 41598 26865 20551 11617 68420 7702 26243 8934 8849 30500 9666 21115 3041 4545 3143 8609 34332 23654 3157 17192 1057 1092 3066 2065 6931 3875 14041 10670 34088 19312 1199 6314 22891 4447 914 2820 2952 1908 845 301 544 277 175 5868 4679 3350 9385 866 2271 1989 337 4939 1167 2094 1140 425 1698
shrinkage=0.03


Tree=8
num_leaves=64
num_cat=0
split_feature=10 16 8 7 8 34 16 8 7 16 10 8 17 7 0 7 2 34 2 8 8 8 34 7 8 29 8 7 0 8 8 17 7 7 13 8 21 8 7 33 29 0 8 2 17 0 4 7 16 29 8 0 2 29 39 23 17 16 13 13 33 17 7
split_gain=434.181 506.9 168.753 204.577 122.978 108.357 98.5115 84.5653 67.5774 48.8899 49.9162 63.0095 48.1847 47.6375 46.6676 43.8184 33.3508 31.1805 30.6631 30.1964 28.2656 28.03 26.402 26.9921 26.3976 24.6409 23.6651 23.5117 23.9769 25.5102 22.9239 22.6697 21.978 26.8486 28.1057 21.741 21.0792 20.751 27.1102 20.5303 20.1924 19.3135 17.8762 17.7967 17.9319 16.9486 16.4166 16.176 16.0725 16.0455 15.968 15.9237 16.3308 22.8922 15.6268 17.3494 15.5789 15.069 14.8929 14.717 14.5497 14.3559 14.2987
threshold=0.32562463000768455 -0.46545774720327387 -0.2362830953527488 -0.4151241262649964 -0.78882492786140712 1.0000000180025095e-35 -0.46207388086013806 0.37244611954028989 -0.73034551558705363 -0.47536915530227092 -1.2479457048396216 -0.2362830953527488 -0.1994280434797015 -0.062287561294054598 1.0000000180025095e-35 -0.2770981924790068 1.0000000180025095e-35 1.0000000180025095e-35 1.0000000180025095e-35 0.37244611954028989 -0.87189675125187904 -0.2362830953527488 1.0000000180025095e-35 -0.74091506907516991 -0.51585807398424632 0.74634695237410498 -0.42803475238779104 -0.2258047711396188 1.0000000180025095e-35 -0.16825971872261533 0.24936521549763591 1.1579274065223186 0.91197657493407924 -0.20653087948481846 2.3186131625451787 0.37244611954028989 1.0000000180025095e-35 -0.53179819007372819 0.60918995442157053 1.0000000180025095e-35 -1.3971581966954718 1.0000000180025095e-35 -0.49016456119173685 1.0000000180025095e-35 -1.1443039237755939 1.0000000180025095e-35 1.0000000180025095e-35 1.082643776845134 -0.46910299779420933 -1.090943175399818 -1.2474727585464283 1.0000000180025095e-35 1.0000000180025095e-35 0.74634695237410498 1.0000000180025095e-35 1.0000000180025095e-35 1.3541032568567795 -0.45487521738695341 3.368419160354462 2.3186131625451787 1.0000000180025095e-35 1.3152649743483675 -0.85034103459919774
decision_type=2 2 2 2 2 2 2 2 2 2 2 2 2 2 2 2 2 2 2 2 2 2 2 2 2 2 2 2 2 2 2 2 2 2 2 2 2 2 2 2 2 2 2 2 2 2 2 2 2 2 2 2 2 2 2 2 2 2 2 2 2 2 2
left_child=5 7 3 14 15 9 35 8 -2 -1 11 13 48 25 18 20 17 40 22 27 -5 24 23 -3 -14 41 -18 -4 29 -29 -23 -19 33 34 56 -7 -16 -15 61 -32 42 62 -6 44 -31 47 60 -42 -10 -46 -24 52 53 -8 55 -21 -26 -52 -45 -9 -12 -39 -11
right_child=1 2 19 4 16 6 51 59 12 10 46 -13 21 37 36 -17 26 31 -20 54 -22 30 50 -25 32 -27 -28 28 -30 43 39 -33 -34 -35 -36 -37 -38 38 -40 -41 45 -43 -44 58 49 -47 -48 -49 -50 -51 57 -53 -54 -55 -56 -57 -58 -59 -60 -61 -62 -63 -64
leaf_value=-0.014123738312656859 -0.0082165421040724662 0.0075183337926934329 0.0001514050990878648 -0.013971753096916112 0.020179608406610428 -0.0018357894280240702 0.023251889851641359 -0.012259975877819082 -0.0061049945882973179 -0.00190247975085862 -0.0098661775743370747 -0.0077002707475875226 0.0047329565954204664 -0.00015713338797460982 -0.0022429623602110093 -0.003954400011543539 0.012216008473296966 0.044222842231586179 0.0057736361345863546 0.0018138671502059111 0.035849034380357615 -0.0048342558002927244 -0.0078422678706372602 0.021922923500916194 0.00086195841282681724 -0.0097541358057801047 0.031245459885373517 -0.00045458679212949957 -0.02046604891273697 -0.0025449332778822911 0.0065590255077336264 0.074646977042565871 -0.011716036878804185 0.027439504292358974 0.072428420645113137 -0.014373894455680268 0.015691181914621363 0.026764302033785534 0.0017997627563384098 0.048011401552714369 0.032834475132046022 -0.0084023665274292683 0.070561572732261699 0.0060956017212012324 0.044012438521919668 -0.021872881741562655 -0.0013109658475726602 -0.0028689514054782454 0.0065408952535783767 0.020801716049957494 0.022983593212592576 -0.0027972210128842292 0.0068467545098943863 0.00432283953728607 0.012601804502839572 -0.0087369294114820889 0.054509026481739574 0.043609874704008518 0.041181961211841665 0.0072840631687179835 0.0052426998804139787 0.066200500944935334 0.010934150869571255
leaf_count=11906 10074 4162 2664 159 101 5165 2705 12217 6942 1562 34209 12671 3814 667 4001 1548 1016 1606 4175 6956 642 3384 163 2239 1161 2412 2301 1271 265 336 2194 285 276 2016 71 2562 941 1252 561 149 2903 1318 242 1940 371 74 3264 150 1432 2654 2562 767 2377 1011 1120 2599 67 445 145 495 820 114 3047
internal_value=0 0.166571 0.40711 0.572281 0.939711 -0.190445 0.0938994 -0.124027 -0.0245466 -0.249768 -0.20815 -0.076263 0.0896963 0.123524 0.341939 0.220611 1.12332 1.28822 0.445929 0.149603 0.876905 0.225089 0.555381 0.422579 0.36902 -0.0117019 0.850738 0.293226 0.401582 0.442011 0.0312999 1.6308 0.585714 0.6648 0.256719 -0.195357 0.0398916 0.548204 0.735356 0.309433 1.09134 0.113247 1.86014 0.54779 0.707371 1.00188 -0.292767 1.03911 -0.12905 0.792598 0.812928 0.401034 0.460937 0.607237 0.0139974 -0.0342597 0.126452 0.869524 0.287472 -0.382868 -0.316958 1.00348 0.222401
internal_count=182718 94328 50036 29715 11027 88390 14587 44292 31580 73803 61897 23604 21506 10933 18688 2349 8678 5361 13746 20321 801 13132 9571 6401 7405 8339 3317 9646 6982 6717 5727 1891 3591 3315 1299 7727 4942 2594 1927 2343 3470 5927 343 5446 3361 3127 38293 3053 8374 3025 3170 6860 6093 3716 10675 9555 1228 3007 2085 12712 35029 1366 4609
shrinkage=0.03


Tree=9
num_leaves=64
num_cat=0
split_feature=37 37 37 15 15 11 11 15 33 15 8 37 11 37 37 8 2 8 8 15 37 11 15 15 15 8 37 8 11 37 8 8 15 37 8 15 8 37 13 26 37 14 21 28 21 26 8 8 9 14 8 14 15 2 36 14 8 26 8 8 15 36 14
split_gain=2143.92 483.309 385.684 213.824 134.576 130.387 109.595 99.4103 74.6244 73.0028 60.6665 60.2963 37.3096 34.2996 32.8264 31.7644 32.9656 31.0486 57.1358 30.0303 27.9225 26.9098 43.9141 26.362 26.3463 22.9443 22.5919 22.5197 21.9996 21.6691 21.6174 31.9888 20.4908 19.2027 19.1937 19.0783 18.9056 19.6335 18.6936 17.9976 17.9939 19.7036 17.8588 17.2343 16.9955 15.5649 22.59 26.287 19.8586 15.5081 14.6553 14.0705 14.0504 13.7732 13.5684 13.5526 13.2356 19.9921 13.0724 12.95 16.5638 12.9123 12.881
threshold=-0.61738274431435303 -2.0290051187136333 0.55672251185681187 -0.86206267760066024 -0.24937916168717408 -0.53289850447746223 -0.53289850447746223 -0.49628489258614161 1.0000000180025095e-35 0.39422483073035725 0.37244611954028989 0.9038848487256298 -0.53289850447746223 -1.3585258279038621 -2.3697367697993572 -0.90745359258251612 1.0000000180025095e-35 -0.16493733437293021 -0.41318174000096358 0.5497433755173694 -1.2031814288147868 -0.53289850447746223 0.73824376190869612 1.3841381599931939 1.8488614698206569 -0.2362830953527488 -1.3854551939751305 -0.92347310388623682 -1.303786952182004 -2.6346003002872611 -0.21691677040265425 -0.94260124319361493 0.84932843675656178 -2.6346003002872611 0.37244611954028989 -0.90214477677257054 -0.72224287973591639 -1.9160488074675845 2.3186131625451787 -1.0887590341829707 -1.6651631157786884 0.48654603902856697 1.0000000180025095e-35 0.65416799044044749 1.0000000180025095e-35 1.0000000180025095e-35 -0.6489549896693334 -0.2362830953527488 1.0000000180025095e-35 0.80707833709437493 0.89009070172891047 -1.2339886189762848 -0.44452172451270316 1.0000000180025095e-35 -0.097198245601286717 -0.75709025360276538 -0.94260124319361493 1.0000000180025095e-35 -0.6489549896693334 -0.79510936443461666 -0.9218422655084807 -0.78104603597020139 -0.14486812232257265
decision_type=2 2 2 2 2 2 2 2 2 2 2 2 2 2 2 2 2 2 2 2 2 2 2 2 2 2 2 2 2 2 2 2 2 2 2 2 2 2 2 2 2 2 2 2 2 2 2 2 2 2 2 2 2 2 2 2 2 2 2 2 2 2 2
left_child=1 7 4 59 35 -6 20 27 9 26 15 21 33 23 45 24 19 18 40 38 -5 -4 52 36 -7 39 49 -1 -13 -29 31 -16 -30 62 -28 -2 55 -38 54 -20 41 -11 -24 -40 -21 46 -14 53 -47 -8 -44 -15 -23 -48 -17 -10 -42 -58 -22 60 -3 -12 -9
right_child=2 3 11 6 5 10 8 12 13 17 61 28 14 51 30 16 -18 -19 25 44 58 22 42 -25 -26 -27 34 29 32 -31 -32 -33 -34 -35 -36 -37 37 -39 43 -41 56 -43 50 -45 -46 48 47 -49 -50 -51 -52 -53 -54 -55 -56 -57 57 -59 -60 -61 -62 -63 -64
leaf_value=-0.0010110614944806324 -0.01083055835785029 -0.0088070760604480724 -0.01511787775536657 0.012827041858689563 -0.0071255925941211716 -0.00054078027595514506 0.017536151395823856 0.085427268695157793 0.073605765037959278 0.027896814979711325 0.0021835971219335702 -0.021353458349233544 0.038392135826652997 0.078889999687789605 0.023691914674215036 0.012520798726680474 0.0044260544463546559 0.015823030806693377 -0.00064421330826117985 0.015705197867779856 -0.010099649135720097 -0.013698894396316677 -0.0025681815160556744 0.024970408351234669 0.049072098203519675 0.023205841844251406 0.011699883479909461 0.064497104226695273 -0.016490554278206223 0.023154813357482585 0.027759759498295757 0.054784148794349632 -0.0066201375880774738 0.027614281568412374 -0.0024185440945022445 -0.0048083935869237676 0.026639784132273421 0.088648266214419999 0.062877226277655254 0.050793893374244614 0.011928018534682701 0.06322943511085094 0.018427336943289341 0.00014128962099043313 0.028403539681945086 0.03316697398506066 0.094743346863113323 0.046935728829854736 0.074933639811645469 0.050294364634773436 -0.016224985841910365 0.026542021592635464 -0.0074821611654927169 0.05777067723084249 0.0011655182369871633 0.025591636444473324 0.019101363648387389 0.040035420105964441 0.0037474386888473208 0.0016512307758543719 0.029598571874638883 -0.0079639988730291732 0.025792166485667917
leaf_count=406 14877 3078 10388 3167 13376 4807 3190 86 94 862 2660 11197 631 54 434 2317 6361 2897 71 4512 1188 9514 3146 217 127 499 4651 139 19829 1965 766 1312 3062 1229 1456 11819 57 316 131 1413 1542 195 990 81 1577 117 219 461 641 164 180 1356 9041 138 2597 160 2036 595 2342 6124 139 3672 50
internal_value=0 0.63014 -0.24953 0.448906 -0.0599014 0.0650439 0.590793 1.32093 0.706348 0.63625 0.199126 -0.456783 1.52914 1.2844 1.6617 0.283677 0.353438 0.833725 0.949591 0.468723 0.191364 -0.344068 -0.2727 1.80506 0.025567 1.42126 0.411175 0.725824 -0.570871 0.868408 1.40294 1.59272 -0.503872 1.0556 0.281421 -0.270077 2.15533 2.62454 0.263794 1.61499 0.758755 1.1461 0.0582938 1.29899 0.633321 1.93488 1.74006 2.07698 2.28857 0.638002 0.444021 0.953657 -0.354062 2.68691 0.218257 1.44706 0.655961 0.799404 -0.0305102 -0.0438805 -0.235364 -0.123051 2.14881
internal_count=182718 46457 136261 37863 68914 42218 28522 8594 21825 19571 28842 67347 6084 2254 4719 22510 17576 10110 7213 11215 6697 33259 22871 844 4934 1983 9461 2510 34088 2104 2512 1746 22891 1365 6107 26696 627 373 5126 1484 5230 1057 4316 212 6089 2207 1449 818 758 3354 1170 1410 18555 357 4914 254 4173 2631 3530 9341 3217 6332 136
shrinkage=0.03


end of trees

feature importances:
AMT_GOODS_PRICE=81
EXT_SOURCE_2=71
AMT_ANNUITY=57
DAYS_EMPLOYED=40
DAYS_BIRTH=38
DAYS_ID_PUBLISH=36
AMT_CREDIT=36
CODE_GENDER=32
NAME_EDUCATION_TYPE=23
REGION_RATING_CLIENT_W_CITY=19
DAYS_REGISTRATION=18
DAYS_LAST_PHONE_CHANGE=16
FLAG_OWN_CAR=14
DEF_30_CNT_SOCIAL_CIRCLE=12
AMT_INCOME_TOTAL=12
NAME_CONTRACT_TYPE=12
REG_CITY_NOT_WORK_CITY=11
NAME_INCOME_TYPE=11
REGION_POPULATION_RELATIVE=10
NAME_HOUSING_TYPE=10
NAME_FAMILY_STATUS=10
REGION_RATING_CLIENT=9
REG_CITY_NOT_LIVE_CITY=9
HOUR_APPR_PROCESS_START=8
ORGANIZATION_TYPE=6
FLAG_WORK_PHONE=5
FLAG_DOCUMENT_3=4
FLAG_DOCUMENT_8=3
FLAG_EMP_PHONE=3
WEEKDAY_APPR_PROCESS_START=2
CNT_FAM_MEMBERS=2
FLAG_PHONE=2
OBS_60_CNT_SOCIAL_CIRCLE=2
DEF_60_CNT_SOCIAL_CIRCLE=2
NAME_TYPE_SUITE=2
OBS_30_CNT_SOCIAL_CIRCLE=1
CNT_CHILDREN=1

parameters:
[boosting: gbdt]
[objective: binary]
[metric: auc,binary_logloss]
[tree_learner: serial]
[device_type: cpu]
[data: ]
[valid: ]
[num_iterations: 100]
[learning_rate: 0.03]
[num_leaves: 64]
[num_threads: 0]
[max_depth: 25]
[min_data_in_leaf: 50]
[min_sum_hessian_in_leaf: 0.001]
[bagging_fraction: 1]
[bagging_freq: 0]
[bagging_seed: 3]
[feature_fraction: 0.5]
[feature_fraction_seed: 2]
[early_stopping_round: 0]
[max_delta_step: 0]
[lambda_l1: 0]
[lambda_l2: 0]
[min_gain_to_split: 0]
[drop_rate: 0.1]
[max_drop: 50]
[skip_drop: 0.5]
[xgboost_dart_mode: 0]
[uniform_drop: 0]
[drop_seed: 4]
[top_rate: 0.2]
[other_rate: 0.1]
[min_data_per_group: 100]
[max_cat_threshold: 32]
[cat_l2: 10]
[cat_smooth: 10]
[max_cat_to_onehot: 4]
[top_k: 20]
[monotone_constraints: ]
[feature_contri: ]
[forcedsplits_filename: ]
[refit_decay_rate: 0.9]
[verbosity: 1]
[max_bin: 512]
[min_data_in_bin: 3]
[bin_construct_sample_cnt: 200000]
[histogram_pool_size: -1]
[data_random_seed: 1]
[output_model: LightGBM_model.txt]
[snapshot_freq: -1]
[input_model: ]
[output_result: LightGBM_predict_result.txt]
[initscore_filename: ]
[valid_data_initscores: ]
[pre_partition: 0]
[enable_bundle: 1]
[max_conflict_rate: 0]
[is_enable_sparse: 1]
[sparse_threshold: 0.8]
[use_missing: 1]
[zero_as_missing: 0]
[two_round: 0]
[save_binary: 0]
[enable_load_from_binary_file: 1]
[header: 0]
[label_column: ]
[weight_column: ]
[group_column: ]
[ignore_column: ]
[categorical_feature: ]
[predict_raw_score: 0]
[predict_leaf_index: 0]
[predict_contrib: 0]
[num_iteration_predict: -1]
[pred_early_stop: 0]
[pred_early_stop_freq: 10]
[pred_early_stop_margin: 10]
[convert_model_language: ]
[convert_model: gbdt_prediction.cpp]
[num_class: 1]
[is_unbalance: 0]
[scale_pos_weight: 1]
[sigmoid: 1]
[boost_from_average: 1]
[reg_sqrt: 0]
[alpha: 0.9]
[fair_c: 1]
[poisson_max_delta_step: 0.7]
[tweedie_variance_power: 1.5]
[max_position: 20]
[label_gain: ]
[metric_freq: 1]
[is_provide_training_metric: 0]
[eval_at: ]
[num_machines: 1]
[local_listen_port: 12400]
[time_out: 120]
[machine_list_filename: ]
[machines: ]
[gpu_platform_id: -1]
[gpu_device_id: -1]
[gpu_use_dp: 0]

end of parameters

pandas_categorical:null
